tree
version=v4
num_class=1
num_tree_per_iteration=1
label_index=0
max_feature_idx=33
objective=regression
feature_names=Column_0 Column_1 Column_2 Column_3 Column_4 Column_5 Column_6 Column_7 Column_8 Column_9 Column_10 Column_11 Column_12 Column_13 Column_14 Column_15 Column_16 Column_17 Column_18 Column_19 Column_20 Column_21 Column_22 Column_23 Column_24 Column_25 Column_26 Column_27 Column_28 Column_29 Column_30 Column_31 Column_32 Column_33
feature_infos=[0:1] [0:1] [0:1] [0:0.99973257662785842] [0:1] [0:1] [0:1] [0:0.99999999999999989] [0:1] [0:1] [0:1.0000000000000002] [0:1] [0:0.99999999999999989] [0:1] [0.17160037002775208:0.96322849213691031] [0.019358623386781348:1] [0:0.988721804511278] [0:1] [0:1] [0:1.0000000000000002] [0:1] [0:0.99999999999999989] [0:0.99999999999999989] [0:1] [0:1] [0:1] [0:1] [0:0.49994334554897851] [0:0.99999999999999989] [0:1] [0:1] [0:1] [0:1] [0:0.94507455314965017]
tree_sizes=8626 8589 8648 8593 8502 8497 8629 8601 8554 8712 8534 8689 8677 8538 8543 8574 8613 8591 8575 8595 8604 8659 8605 8655 8477 8517 8564 8538 8514 8560 8594 8574 8626 8576 8557 8640 8596 8561 8563 8607 8507 8527 8584 8764 8568 8645 8603 8594 8666 8568 8440 8582 8637 8610 8571 8491 8528 8572 8584 8566 8518 8509 8705 8611 8495 8609 8658 8589 8551 8590 8606 8561 8540 8605 8521 8525 8545 8654 8520 8631 8659 8739 8592 8447 8501 8720 8505 8643 8489 8440 8530 8464 8626 8732 8518 8679 8482 8608 8661 8502 8687 8457 8553 8565 8588 8536 8497 8586 8660 8530 8550 8646 8610 8467 8536 8524 8461 8513 8689 8576 8636 8530 8528 8568 8550 8458 8633 8579 8569 8500 8550 8638 8580 8573 8608 8581 8612 8569 8478 8575 8562 8531 8573 8498 8527 8551 8523 8516 8568 8645 8657 8465 8503 8519 8549 8561 8618 8540 8570 8524 8496 8514 8545 8585 8617 8635 8517 8495 8562 8557 8574 8595 8545 8533 8581 8641 8557 8554 8649 8584 8596 8598 8593 8570 8573 8594 8563 8585 8623 8526 8500 8554 8534 8552 8612 8566 8647 8523 8574 8532 8477 8520 8523 8596 8556 8542 8537 8508 8621 8487 8497 8504

Tree=0
num_leaves=95
num_cat=0
split_feature=25 0 19 7 2 16 19 11 19 11 19 7 19 19 6 0 7 12 25 7 25 2 25 19 7 19 19 6 16 29 7 16 19 12 16 19 19 12 12 2 17 19 0 19 7 11 25 0 6 12 0 6 11 7 12 19 19 0 19 27 27 19 33 17 7 11 19 0 7 22 12 2 17 25 6 12 19 16 6 7 19 16 19 19 0 22 6 12 19 29 0 0 22 19
split_gain=8300.54 3022.65 2966.5 3056.7 2852.78 1910.93 1621.82 3323.77 1104.57 1085.14 754.293 583.248 530.957 935.271 464.074 796.271 417.872 417.867 375.487 366.246 357.005 353.011 313.169 247.56 257.515 243.324 206.572 200.955 186.374 410.935 174.053 172.672 165.689 163.232 160.674 221.904 156.2 152.252 385.749 151.878 146.613 145.784 173.615 143.482 204.195 184.697 143.147 141.204 149.157 140.705 136.332 127.955 120.012 218.963 108.367 108.094 162.436 122.177 108.039 106.154 105.317 102.878 97.7439 94.7015 94.2455 91.1094 87.9266 96.0871 86.8694 101.608 86.971 82.4191 79.2531 78.3183 77.4397 76.67 76.1761 73.7011 165.635 72.8564 248.14 70.8549 70.2293 68.4046 72.8195 68.0843 65.4685 64.583 63.7516 63.3719 62.932 62.6595 61.696 59.926
threshold=0.75000000000000011 0.062500000000000014 0.83290193939598234 0.488734835355286 0.50000000000000011 0.68734335839599003 0.83290193939598234 0.72368421052631593 0.15641081520814923 0.96052631578947378 0.041089985277197746 0.041470661054716522 0.020146186242682652 0.037822932641264607 0.36875000000000008 0.60416666666666674 0.36494181728150538 0.64866717440974875 0.91666666666666674 0.17566229264669478 0.91666666666666674 0.83333333333333337 0.91666666666666674 0.014496827933185135 0.14520921020054472 0.64998261146662717 0.50422820956323389 0.36875000000000008 0.43671679197994989 0.83333333333333348 0.19992572418915577 0.64223057644110282 0.39152102174102893 0.57859862909367865 0.70238095238095244 0.023229395353967734 0.02949156541229209 0.73579588728103584 0.64866717440974875 0.50000000000000011 0.2394646054481743 0.020146186242682652 0.22916666666666669 0.15641081520814923 0.0089254766031195854 0.19736842105263161 0.91666666666666674 0.64583333333333337 0.3937500000000001 0.11111957349581113 0.60416666666666674 0.2687500000000001 0.61842105263157898 0.082817529091359268 0.64866717440974875 0.02949156541229209 0.020146186242682652 0.64583333333333337 0.50422820956323389 0.00015468925072579265 0.0013625902009775741 0.62533800398021244 0.0083207284721362653 0.23728618225536316 0.12688784352562518 0.17105263157894737 0.39152102174102893 0.14583333333333334 0.099158207477098304 0.15000000000000005 0.22536176694592538 0.83333333333333337 0.20535655718093412 0.41666666666666669 0.29375000000000012 0.60144706778370149 0.066979175124745507 0.73120300751879708 0.14375000000000004 0.0033795493934142122 0.024646522523129818 0.58082706766917302 0.62533800398021244 0.003542817922905219 0.31250000000000006 0.41666666666666674 0.28125000000000006 0.039299314546839305 0.022003771856314035 0.50000000000000011 1.0000000180025095e-35 1.0000000180025095e-35 0.25000000000000006 0.0014171271691620873
decision_type=2 2 2 2 2 2 2 2 2 2 2 2 2 2 2 2 2 2 2 2 2 2 2 2 2 2 2 2 2 2 2 2 2 2 2 2 2 2 2 2 2 2 2 2 2 2 2 2 2 2 2 2 2 2 2 2 2 2 2 2 2 2 2 2 2 2 2 2 2 2 2 2 2 2 2 2 2 2 2 2 2 2 2 2 2 2 2 2 2 2 2 2 2 2
left_child=1 10 4 16 14 54 8 11 22 18 12 -8 31 19 23 32 52 33 60 91 -10 26 27 24 -3 51 43 55 29 -17 -30 93 -16 85 35 -21 41 38 73 -22 -20 63 -43 44 45 -6 68 -38 -49 -34 -29 66 53 -4 -5 56 90 -57 74 -15 -9 -60 -36 83 -48 -52 67 76 70 -70 -13 87 86 -18 -23 -66 -25 92 -79 80 -69 -50 -68 84 -24 -7 -26 -55 -58 -64 -2 -14 -75 -1
right_child=6 2 3 5 21 17 7 9 20 -11 -12 46 13 59 15 28 37 -19 40 34 39 58 36 25 72 -27 -28 50 30 -31 -32 -33 49 -35 62 -37 47 -39 -40 -41 -42 42 -44 -45 -46 -47 64 48 81 -51 65 -53 -54 71 -56 57 88 -59 61 -61 -62 -63 89 -65 75 -67 82 79 69 -71 -72 -73 -74 77 -76 -77 -78 78 -80 -81 -82 -83 -84 -85 -86 -87 -88 -89 -90 -91 -92 -93 -94 -95
leaf_value=0.077728503242380037 0.029814631714105214 -0.0081920748206250355 0.010835203051420363 0.52964516882984225 0.013285871848648101 0.2033286090185695 0.026548995556826781 0.47725198928322193 0.033657907662110083 0.67966275893997319 -0.015750755886581851 0.19859930000720752 0.0030385788667221681 0.0099971843440757394 -0.0030796380116088315 0.090317373876357465 0.041154810347864543 0.33251277350487973 0.1231771491721784 0.082024072082669833 0.016729862545343862 -0.013271605011934827 0.19699849903502611 -0.035678908503880565 0.042755795586814832 0.036491030194592489 -0.020346138069625184 0.085233690912914759 0.064276116226957225 0.37130095316123601 0.25319523916247155 0.026019908300621352 0.2168513829469946 -0.027817650808553713 0.2073497433771955 0.032175318150185726 0.022851060998414593 -0.0028480595233083624 0.26759160428084888 -0.0047294936220990541 0.28726890492597706 0.093026795759558051 0.034579794379122404 -0.032098992144518106 -0.02302494421326913 0.19629183542974199 0.065392735209052297 0.04690316019196452 0.21718433491087377 0.040216522031204724 0.1047699940240043 0.0026976035501304267 0.004548475763410509 0.12323374184115496 0.72239973471167362 0.043189483133129973 0.11278295982934659 0.084503256616027839 0.050082858530738628 0.03112421913425897 0.30114261101157552 -0.012953875476518027 0.11680036611596857 0.024524015094555068 0.16228606368732193 0.27346762139718656 0.012114104972456737 0.1384130047944245 0.27970912016272698 0.14226372840260473 0.088096222001094474 0.067478673892891736 0.019031082740007411 0.13874309986485345 0.015499964371489303 0.078777987271739403 0.013673397208984469 0.073234293513629964 0.26829061369845991 -0.0094240696091740898 -0.0011856006472124958 0.071281817228752639 -0.0048064996195586176 0.052263281498280759 0.04875187662097482 0.089467419756286762 0.15929570506925553 0.028375486465229381 0.073895950447823669 0.07658782785400689 0.066375487035564812 0.040623209748569443 0.035272561632522036 -0.0061093119815401782
leaf_weight=87 756 3634 14674 70 201 94 2002 84 7044 83 4044 83 630 5478 3897 195 629 98 121 3096 6462 7490 74 350 1342 1380 41382 211 1114 71 51 3259 50 80 87 1255 6620 260 102 6736 99 1353 814 49567 17857 76 1186 1332 80 460 50 15278 12737 73 50 4563 904 849 627 4203 57 441 860 1951 215 89 3867 144 64 337 502 677 3780 79 1069 225 2939 121 68 75969 1100 57 6708 661 60 119 50 4274 790 720 1248 1499 213 4258
leaf_count=87 756 3634 14674 70 201 94 2002 84 7044 83 4044 83 630 5478 3897 195 629 98 121 3096 6462 7490 74 350 1342 1380 41382 211 1114 71 51 3259 50 80 87 1255 6620 260 102 6736 99 1353 814 49567 17857 76 1186 1332 80 460 50 15278 12737 73 50 4563 904 849 627 4203 57 441 860 1951 215 89 3867 144 64 337 502 677 3780 79 1069 225 2939 121 68 75969 1100 57 6708 661 60 119 50 4274 790 720 1248 1499 213 4258
internal_value=5.51942e-09 -0.00607052 -0.00932681 0.0181364 -0.0132475 0.260891 0.0387632 0.0923065 0.0324213 0.353627 0.0243655 0.0671599 0.0307445 0.0401809 -0.00253388 0.0249797 0.014478 0.15376 0.278666 0.0651486 0.0154795 -0.0242922 0.0476887 -0.00391215 0.0122088 -0.00522984 -0.0259122 0.0615315 0.0897909 0.165317 0.0725464 0.00862017 0.00393484 0.093973 0.0777596 0.0676457 0.0376169 0.0665891 0.0814848 0.00577743 0.197018 0.051681 0.0710721 -0.0293145 -0.0217033 0.0634969 0.0982866 0.0290749 0.0571224 0.0575337 0.13589 -0.00577118 0.012113 0.0170044 0.60996 0.0586747 0.0718524 0.0496705 -0.00593597 0.0191695 0.406059 0.0240536 0.104158 0.0363785 0.0800568 0.212785 -0.00719181 -0.00831795 0.128349 0.1642 0.103774 0.0350231 0.026543 0.0643831 -0.0096781 0.119583 0.00842156 0.0947586 0.143413 -0.00903099 0.0149737 0.15648 0.00138092 0.0654705 0.130619 0.139716 0.0469419 0.0299685 0.0946479 0.0984757 0.0525831 0.0295014 0.0632663 -0.00443063
internal_weight=0 304983 275507 34418 241089 511 47762 5058 42704 444 29476 4614 25432 17828 122379 5838 33907 391 361 8147 20242 118710 22462 116541 8806 107735 109083 9460 1431 266 1165 7604 4407 293 6018 4351 13002 1472 1212 13198 220 4913 2167 67701 18134 277 2612 8089 1469 510 350 106355 32435 19698 120 9110 3698 5412 9627 9681 141 1068 1667 2746 1626 139 91077 80502 986 401 585 5024 5172 1110 8559 440 3289 481 189 77213 1244 137 10575 795 134 213 1392 4347 1694 1580 2004 2129 292 4345
internal_count=352745 304983 275507 34418 241089 511 47762 5058 42704 444 29476 4614 25432 17828 122379 5838 33907 391 361 8147 20242 118710 22462 116541 8806 107735 109083 9460 1431 266 1165 7604 4407 293 6018 4351 13002 1472 1212 13198 220 4913 2167 67701 18134 277 2612 8089 1469 510 350 106355 32435 19698 120 9110 3698 5412 9627 9681 141 1068 1667 2746 1626 139 91077 80502 986 401 585 5024 5172 1110 8559 440 3289 481 189 77213 1244 137 10575 795 134 213 1392 4347 1694 1580 2004 2129 292 4345
is_linear=0
shrinkage=1


Tree=1
num_leaves=95
num_cat=0
split_feature=30 2 11 31 31 2 33 11 13 13 13 33 10 2 10 10 4 13 13 29 14 20 10 14 13 10 5 10 13 4 4 10 27 2 10 13 10 10 13 13 10 20 10 4 11 13 27 14 10 31 20 24 4 15 29 14 18 18 20 18 24 24 13 13 13 11 10 10 29 27 4 13 2 14 4 4 31 5 33 10 24 13 33 15 13 13 14 4 29 15 11 31 4 10
split_gain=6723.44 2074.77 1107.35 701.32 648.458 508.452 267.216 256.675 200.766 193.083 636.102 186.134 179.029 178.001 326.876 183.785 159.174 146.722 289.232 111.026 107.439 100.589 98.8308 98.5661 143.47 89.6469 89.2954 129.765 137.278 100.593 95.6636 88.8766 88.5673 87.3993 87.333 86.9141 85.3522 103.358 82.2562 145.598 78.7141 77.0585 103.192 76.5265 74.3855 71.5007 70.1574 91.07 69.0323 65.4477 59.9625 55.8857 56.6993 55.7648 180.165 56.2397 54.7237 53.34 52.139 51.7604 50.4494 48.1012 46.8173 97.6817 47.3731 49.8263 45.3196 44.0553 41.5333 40.3863 39.9035 39.3577 49.7887 39.3066 38.8584 38.2613 37.9653 37.6229 37.3493 37.3087 36.7432 35.9954 35.3085 59.9417 93.0995 35.1099 35.0727 33.9209 63.9942 61.1892 33.352 36.1389 56.2071 40.3913
threshold=1.0000000180025095e-35 0.50000000000000011 0.96052631578947378 0.81250000000000011 0.17013888888888892 0.83333333333333337 0.055281142277020349 0.82894736842105277 0.40725806451612906 0.77016129032258074 0.77822580645161299 0.081426148854892993 0.0062486805995355726 0.50000000000000011 0.10132995566814443 0.0776862993455774 0.42536061054061619 0.74596774193548399 0.77822580645161299 0.83333333333333348 0.57874653098982443 1.0000000180025095e-35 0.10132995566814443 0.57805272895467175 0.30645161290322587 0.63056786995989034 0.90000000000000013 0.82478361832383384 0.40725806451612906 0.67233387941023703 0.36842210412754234 0.031517838294279087 0.00013331474219782752 0.83333333333333337 0.007705298712265149 0.30645161290322587 0.027675744141861944 0.025860249102807691 0.53629032258064524 0.59274193548387111 0.35106607557525871 0.16666666666667143 0.026578002955457047 0.080333240100691275 0.32894736842105271 0.39919354838709681 0.025375661091982988 0.57527752081406125 0.16803884314967285 0.35000000000000003 1.0000000180025095e-35 0.19491525423728817 0.27975786150956977 0.36791161517403209 0.50000000000000011 0.60881128584643862 0.23913043478260873 0.71739130434782616 0.27777777777777152 0.45652173913043487 0.12711864406779663 0.87288135593220351 0.53629032258064524 0.43951612903225812 0.58467741935483886 0.22368421052631582 0.12117373865315603 0.37534304412075165 0.50000000000000011 0.026263741042245523 0.86500579374275799 0.41532258064516131 0.83333333333333337 0.57967160037002785 0.83367962600391599 0.56832620769568887 0.01041666666666667 0.50000000000000011 0.018455240587256571 0.026578002955457047 0.12711864406779663 0.97177419354838723 0.20520172471882694 0.39118107156824405 0.32661290322580649 0.40725806451612906 0.63795097132284939 0.64524313741159556 0.83333333333333348 0.43146265154477909 0.48684210526315791 0.22361111111111115 0.94531905542014638 0.17606079797340093
decision_type=2 2 2 2 2 2 2 2 2 2 2 2 2 2 2 2 2 2 2 2 2 2 2 2 2 2 2 2 2 2 2 2 2 2 2 2 2 2 2 2 2 2 2 2 2 2 2 2 2 2 2 2 2 2 2 2 2 2 2 2 2 2 2 2 2 2 2 2 2 2 2 2 2 2 2 2 2 2 2 2 2 2 2 2 2 2 2 2 2 2 2 2 2 2
left_child=1 4 7 5 9 8 16 13 22 56 31 19 70 15 71 17 -4 41 51 23 25 59 -3 24 -5 -6 -25 28 45 30 -30 36 60 49 75 -9 37 53 -26 -40 48 42 -2 -37 62 -28 47 66 -17 90 -24 -19 -53 54 -11 -56 -1 -58 -22 -10 -16 -46 63 -7 65 -64 -23 -51 77 -27 73 72 -15 76 -69 -20 -12 -62 -35 81 -21 -49 83 84 -13 -43 -50 88 89 -55 -34 -92 93 -93
right_child=2 3 6 11 20 44 -8 35 21 10 12 82 -14 14 32 40 -18 18 34 80 58 46 50 26 38 69 27 -29 29 -31 -32 -33 33 78 -36 43 -38 -39 39 -41 -42 85 -44 -45 61 -47 -48 79 86 67 -52 52 -54 87 55 -57 57 -59 -60 -61 68 -63 64 -65 -66 -67 -68 74 -70 -71 -72 -73 -74 -75 -76 -77 -78 -79 -80 -81 -82 -83 -84 -85 -86 -87 -88 -89 -90 -91 91 92 -94 -95
leaf_value=0.00095096133832157058 0.19884144997596803 -0.025533946517320962 0.48237168758510496 0.2326875893316597 0.015849266231657774 0.015446136168391545 0.13237693770022721 0.21218766717550658 -0.010622877726259965 0.050439623567569807 0.046211629006398941 0.12666363410090889 -0.0041424107327361036 -0.0022692164752518445 0.15886815409176053 0.032262981062060957 0.24256315549253485 0.27088747232813731 0.081328622562173866 0.076190827041864403 0.0030232227427113788 -0.01153684967722895 0.038727651788638191 0.00029369110598054249 -0.031839264653347153 0.026051141376331174 0.076108395006302176 -0.0060252039736060775 0.12295253505775083 0.047462549388513603 0.27368442554275196 0.031392309457197426 0.050955802293836706 0.14677289553972728 0.039075448890755718 0.18643781092952907 0.20604168741216122 -6.3784033903535806e-05 0.24181679284030741 0.03814444386006631 0.025993602909561223 0.028957082461441037 0.054692882184908559 0.07135090262122927 0.003568431378821331 -0.012355250629604374 -0.023485732968549812 -0.0059018907033605034 0.048212907540761317 0.1451941493884302 -0.016989031060851485 0.23649720018574347 0.11868581971157255 0.059483405147025839 0.1707208718588068 0.31725875399634246 -0.0078308135881652099 -0.0017817803871538189 0.010088429683789002 0.043427388546646413 0.066195128691293265 0.027003165104303336 0.11858332210261974 -0.014625322725600584 0.0032244521271753354 0.020926759448987479 -0.00077463756532213037 0.044209206272430593 0.03117164572942191 0.077854793432497363 -0.0065654063215240454 0.016477498706362337 0.040944206939335141 0.027491286736422857 0.12439942402238052 0.17261133698189657 0.10968135689250767 0.14447679805688243 0.067115654832216778 -0.015433745914777617 -0.0029903028821117775 0.048272311673030373 -0.025672625674437108 -0.019492056127487896 0.011584028578039984 0.047993940921159592 0.023188034870038288 0.043367844529074523 0.034362589664736091 0.17728015424380469 0.018631951210805835 0.10738021806254337 0.12353075295048831 0.030923112769655453
leaf_weight=15369 75 28747 62 79 15641 1421 76 54 287 95 190 93 6500 2532 72 9460 50 55 121 69 15002 8130 195 256 54 270 417 196 96 71 75 235 693 68 609 63 71 106 55 97 9100 1293 147 697 1730 117 7190 2491 5706 65 20431 60 128 67 55 50 41302 22529 34387 463 177 1774 70 4504 5426 206 7543 376 178 340 117 6301 298 266 72 74 187 94 438 58102 389 129 356 311 288 3864 621 129 88 129 2225 72 73 1713
leaf_count=15369 75 28747 62 79 15641 1421 76 54 287 95 190 93 6500 2532 72 9460 50 55 121 69 15002 8130 195 256 54 270 417 196 96 71 75 235 693 68 609 63 71 106 55 97 9100 1293 147 697 1730 117 7190 2491 5706 65 20431 60 128 67 55 50 41302 22529 34387 463 177 1774 70 4504 5426 206 7543 376 178 340 117 6301 298 266 72 74 187 94 438 58102 389 129 356 311 288 3864 621 129 88 129 2225 72 73 1713
internal_value=0 -0.00546347 0.0348869 -0.0137458 0.0027503 -0.0147136 0.277106 0.0339297 -0.0166798 -0.00288654 0.0116386 0.0339705 0.0012272 0.0329605 0.0241761 0.037294 0.375314 0.0523707 0.0866202 0.0520763 0.0102631 -0.0137149 -0.0217442 0.0651345 0.118116 0.017316 0.0528384 0.0666773 0.0850403 0.147519 0.189063 0.0853821 0.0416668 0.0381162 0.0577251 0.0896011 0.101442 0.0911133 0.0741777 0.111842 0.0334011 0.0457042 0.103392 0.080891 0.00266084 0.0567259 -0.0140421 -0.0131533 0.0376709 0.0343176 -0.0164623 0.182224 0.156285 0.10688 0.150222 0.240501 -0.00440599 -0.00569582 0.00794236 0.0227442 0.0811601 0.0154329 -0.00118826 -0.00741325 0.00528019 0.0456947 -0.00635728 0.0682593 0.0686991 0.0549253 0.0471515 0.0120776 0.00228117 0.0569258 0.0570969 0.115969 0.077694 0.0933482 0.0778206 -0.0149074 0.00893873 -0.00323453 -8.16469e-05 0.0130837 0.0396743 0.0432209 0.0457567 0.0858908 0.105206 0.137013 0.0306719 0.0272291 0.0375244 0.0340071
internal_weight=0 304983 47762 151858 153125 148839 188 47574 133708 87485 8285 3019 7260 46760 15447 31313 112 6426 1047 1971 65640 84335 49373 1513 285 16251 1228 972 776 242 171 1025 6316 5795 804 814 790 719 206 152 24887 5379 222 760 15131 534 83585 76395 15787 5289 20626 243 188 613 200 105 79200 63831 49389 750 521 3504 11627 5925 5702 276 15673 513 449 610 760 9131 2830 643 448 195 377 271 506 60722 458 2620 1048 692 381 5157 6327 413 284 196 4776 4083 1858 1785
internal_count=352745 304983 47762 151858 153125 148839 188 47574 133708 87485 8285 3019 7260 46760 15447 31313 112 6426 1047 1971 65640 84335 49373 1513 285 16251 1228 972 776 242 171 1025 6316 5795 804 814 790 719 206 152 24887 5379 222 760 15131 534 83585 76395 15787 5289 20626 243 188 613 200 105 79200 63831 49389 750 521 3504 11627 5925 5702 276 15673 513 449 610 760 9131 2830 643 448 195 377 271 506 60722 458 2620 1048 692 381 5157 6327 413 284 196 4776 4083 1858 1785
is_linear=0
shrinkage=0.1


Tree=2
num_leaves=95
num_cat=0
split_feature=25 0 19 11 13 19 11 19 11 19 19 19 10 19 19 6 26 25 4 5 25 11 19 25 19 6 0 6 19 0 25 10 10 13 26 10 10 10 10 11 19 10 6 26 26 19 0 19 19 0 6 14 13 4 13 26 0 11 17 10 19 0 19 10 22 19 14 29 0 4 17 29 4 26 10 13 11 11 19 11 29 25 10 13 10 10 10 6 10 11 19 6 26 11
split_gain=5445.98 2220.86 2416.89 2216.4 2766.93 1297.95 2476.04 859.227 751.088 607.404 597.68 531.253 467.135 423.237 754.694 405.453 353.539 305.664 287.292 305.241 283.375 271.763 263.791 252.297 247.248 175.775 174.707 169.265 166.547 184.365 166.451 164.523 159.942 150.52 150.184 135.968 134.639 130.678 128.997 254.682 128.056 128.003 127.08 121.636 115.902 112.249 142.53 107.934 122.624 106.395 108.101 105.668 104.886 99.7184 99.4663 95.3611 92.4976 95.1081 92.4285 91.4802 88.6123 86.519 86.0848 133.237 84.7619 80.7368 131.835 80.679 80.3132 79.2811 76.5473 71.7922 69.2613 68.7842 67.9128 73.0784 66.786 65.135 64.1673 61.7801 61.2587 58.0613 83.5088 74.6761 66.6363 61.6226 191.028 77.5981 57.2684 63.9665 57.0669 56.7285 56.3317 55.9442
threshold=0.75000000000000011 0.062500000000000014 0.83290193939598234 0.96052631578947378 0.30645161290322587 0.83290193939598234 0.72368421052631593 0.15641081520814923 0.96052631578947378 0.041089985277197746 0.15641081520814923 0.13549765676107547 0.036795440151994943 0.020146186242682652 0.037822932641264607 0.36875000000000008 0.032069588421381696 0.91666666666666674 0.70773564550285706 0.90000000000000013 0.91666666666666674 0.51315789473684226 0.014209572425922551 0.91666666666666674 0.38420979457018156 0.41875000000000012 0.47916666666666669 0.48125000000000012 0.23042162214333975 0.31250000000000006 0.91666666666666674 0.011547392864682293 0.076841883048342857 0.16532258064516131 0.02209511068292383 0.031517838294279087 0.14270635423263675 0.011547392864682293 0.0043276335233270015 0.19736842105263161 0.02949156541229209 0.070086552670466568 0.29375000000000012 0.012671133396013685 0.012671133396013685 0.020146186242682652 0.22916666666666669 0.02949156541229209 0.020146186242682652 0.64583333333333337 0.3937500000000001 0.58522201665124907 0.53629032258064524 0.64887921045271124 0.58467741935483886 0.012671133396013685 0.14583333333333334 0.5921052631578948 1.0000000180025095e-35 0.13130673421997049 0.003542817922905219 0.64583333333333337 0.022003771856314035 0.00065442263035676602 0.15000000000000005 0.023229395353967734 0.5549259944495839 0.50000000000000011 0.22916666666666669 0.44158309026251658 0.13619643763736708 0.50000000000000011 0.76904942661925146 0.02209511068292383 0.17479417352754914 0.81854838709677424 0.75000000000000011 0.27631578947368424 0.0014171271691620873 0.72368421052631593 1.0000000180025095e-35 0.41666666666666669 0.61367954401519964 0.99596774193548399 0.033164450073886437 0.37323200337766527 0.32383364998944486 0.19375000000000003 0.090774751952712715 0.61842105263157898 0.006472824096983589 0.43125000000000008 0.04947037979376738 0.17105263157894737
decision_type=2 2 2 2 2 2 2 2 2 2 2 2 2 2 2 2 2 2 2 2 2 2 2 2 2 2 2 2 2 2 2 2 2 2 2 2 2 2 2 2 2 2 2 2 2 2 2 2 2 2 2 2 2 2 2 2 2 2 2 2 2 2 2 2 2 2 2 2 2 2 2 2 2 2 2 2 2 2 2 2 2 2 2 2 2 2 2 2 2 2 2 2 2 2
left_child=1 9 10 81 71 7 12 23 17 13 11 22 -7 44 21 -13 18 43 19 -6 -9 -15 36 32 28 33 38 79 29 -12 59 -30 42 88 -19 37 -3 53 39 62 45 -29 -2 -8 -1 70 -47 48 -34 -42 -51 92 -18 -17 -54 -16 57 -40 -23 -14 73 -44 63 -24 -61 76 67 80 -50 -43 90 -5 -65 -38 -32 -76 -60 -31 -46 -28 -67 -4 83 85 -85 86 -83 -88 -26 -90 -25 -63 -39 -52
right_child=5 2 3 4 16 6 8 20 -10 -11 24 15 30 14 55 35 52 34 -20 -21 -22 58 26 40 25 -27 27 41 31 77 74 -33 47 -35 -36 -37 60 51 56 -41 49 69 61 -45 78 46 -48 -49 68 50 93 -53 54 -55 -56 -57 -58 -59 65 64 -62 91 -64 72 -66 66 -68 -69 -70 -71 -72 -73 -74 -75 75 -77 -78 -79 -80 -81 -82 82 -84 84 -86 -87 87 -89 89 -91 -92 -93 -94 -95
leaf_value=-0.0043400078901777465 0.06141059049851403 -0.004076466395295404 0.0099957758867477969 0.66186523244414541 0.10392155604342285 0.015779713587742546 0.46533632934093472 0.026978139478919402 0.57609404655824226 -0.014827157408727932 -0.0083517436825328254 0.010939429880390355 0.090465249624604435 0.027003350081574173 0.0072448978532845022 0.10564940066109413 -0.022628023200387124 0.27000611218708487 0.056628534942865377 0.3959470005808296 0.0021385717586925152 0.17276157526121963 0.12015236930832124 0.13598154565066242 -0.0099754256956062215 0.051841625485495993 -0.00015749404731942387 0.0083441688031667752 0.031917267228261784 -0.013017120694018731 0.053504287939460805 -0.025503404279006686 0.041711471792573736 -0.013675744450958436 0.10135280790581778 0.024422271010659108 0.024361464853011997 0.010789654821157457 0.0070541958472663414 0.15596172282216597 0.017013362768496382 0.24170664937503764 0.087155049973310972 0.27748143980222079 0.106770918580393 0.079792006491607365 0.026835187707879068 0.034503429648323251 0.090528763906854867 0.038062166016934823 0.048366119369280106 0.21908036258711078 0.17014080210663807 0.0045497667597373948 0.043831240663474262 0.027151501362539788 -0.015466292595057499 -0.020298956334083362 0.079246366904190124 0.24967396525849758 0.012558503285683474 0.13550841401842378 -0.0060184121451881713 -0.0037751487638347618 0.1293573657747478 0.080915217045694598 0.030669813285625763 0.056435041835433568 0.023289341769234924 0.072343650386812022 0.023169867821040677 0.515820341266226 0.072949046203545462 0.075868636167887069 0.076167769742928673 0.17795472366194573 0.025586496365776253 -0.024130554789292259 0.018309969621557447 -0.026823029654660546 0.16562833883589315 0.017798138085020083 0.062753733574491308 0.16077103166128784 0.020253538195766623 0.00014922506448770772 0.051697864052481383 0.19838862897897211 0.0079600726621844031 -0.011967691339236745 0.046884746185578252 0.25068992244797283 0.13844527597705433 0.18055764544148778
leaf_weight=4077 1397 4678 21644 71 59 1692 60 7044 83 4044 21238 7004 683 2125 5206 250 149 88 92 91 13198 84 130 103 5586 445 16230 105 507 7400 1449 31572 1856 52788 132 323 653 50 3849 102 6620 59 331 81 84 1353 814 4247 1217 1332 51 134 87 160 220 4475 44160 1898 3583 71 3990 143 8506 624 334 190 1249 513 208 52 2405 64 145 430 292 93 248 18354 3443 918 155 9272 415 68 67 1973 65 81 6495 2142 238 61 112 86
leaf_count=4077 1397 4678 21644 71 59 1692 60 7044 83 4044 21238 7004 683 2125 5206 250 149 88 92 91 13198 84 130 103 5586 445 16230 105 507 7400 1449 31572 1856 52788 132 323 653 50 3849 102 6620 59 331 81 84 1353 814 4247 1217 1332 51 134 87 160 220 4475 44160 1898 3583 71 3990 143 8506 624 334 190 1249 513 208 52 2405 64 145 430 292 93 248 18354 3443 918 155 9272 415 68 67 1973 65 81 6495 2142 238 61 112 86
internal_value=0 -0.00491712 -0.00770832 0.0170806 0.178212 0.0313982 0.0792979 0.0257248 0.304845 0.0211717 -0.0112472 -0.00504928 0.0575938 0.026896 0.035321 0.0195507 0.0980601 0.24248 0.195754 0.281084 0.0107825 0.0577493 -0.00733304 0.0391903 -0.0152471 -0.0107997 -0.00930072 -0.000476905 -0.0190412 -0.0152493 0.0818065 -0.0245959 0.0516151 -0.0112157 0.168814 0.0781641 0.00816022 0.102751 -0.0118795 -0.00120362 0.0301502 0.087494 0.0772819 0.35742 0.00714305 0.0428843 0.0598996 0.0450279 0.0586511 0.0224159 0.046762 0.153386 0.0462139 0.0661959 0.0796258 0.0164466 -0.0139132 -0.00197944 0.0685987 0.112794 0.0194441 0.118725 -0.00290812 0.0265203 0.15045 0.0671252 0.051402 0.0815821 0.0807142 0.162365 0.0294567 0.592629 0.0106917 0.0448121 0.0634234 0.100755 0.0757727 -0.0209373 0.0204168 -0.00158501 0.118975 0.0130841 0.0186819 0.0170951 0.0910327 0.0162188 0.0195853 0.133081 -0.00208513 0.00301793 0.0737967 0.16995 0.0990454 0.131348
internal_weight=0 304983 275507 34418 833 47762 5058 42704 444 29476 241089 94562 4614 25432 17828 8033 698 361 242 150 20242 8147 86529 22462 146527 67456 76778 17364 79071 46992 2922 32079 9460 67011 220 1029 9751 706 59414 9507 13002 216 1932 141 7604 4913 2167 7528 3281 8089 1469 296 456 410 307 9681 49907 5747 6022 1088 5073 535 9405 899 405 5938 2107 858 1425 111 2746 135 769 1083 1834 385 3831 25754 3527 17148 345 33585 11941 11526 135 11391 9418 146 14223 8637 341 204 162 137
internal_count=352745 304983 275507 34418 833 47762 5058 42704 444 29476 241089 94562 4614 25432 17828 8033 698 361 242 150 20242 8147 86529 22462 146527 67456 76778 17364 79071 46992 2922 32079 9460 67011 220 1029 9751 706 59414 9507 13002 216 1932 141 7604 4913 2167 7528 3281 8089 1469 296 456 410 307 9681 49907 5747 6022 1088 5073 535 9405 899 405 5938 2107 858 1425 111 2746 135 769 1083 1834 385 3831 25754 3527 17148 345 33585 11941 11526 135 11391 9418 146 14223 8637 341 204 162 137
is_linear=0
shrinkage=0.1


Tree=3
num_leaves=95
num_cat=0
split_feature=25 0 0 11 0 31 20 12 0 11 0 25 0 0 20 25 0 16 6 16 29 16 6 6 16 25 11 6 0 6 0 6 20 11 0 31 20 31 0 31 20 16 12 25 11 0 0 14 11 31 29 20 16 4 11 11 26 28 20 24 16 29 26 31 11 6 22 6 16 31 11 20 31 29 16 0 6 0 31 0 0 11 4 22 27 31 14 12 16 6 25 0 11 31
split_gain=4411.25 1798.9 854.828 1780.45 807.475 1881.1 1583.61 1256.87 1201.71 596.593 463.987 392.743 314.918 302.295 328.945 280.059 276.52 227.957 216.229 184.54 238.116 236.672 170.027 164.14 152.244 132.394 130.876 129.487 127.782 128.057 118.607 111.923 110.221 107.133 200.441 124.126 141.409 93.7517 130.547 89.3258 87.5891 87.0638 86.4679 89.423 85.9104 106.605 90.893 85.0928 84.9571 83.7166 87.0591 80.9559 80.796 79.2965 75.9121 75.9034 75.8386 71.1932 66.3073 61.2738 61.0636 91.3514 85.2958 59.0844 57.5709 56.8469 56.4717 53.654 92.4237 51.1544 50.7169 92.8668 48.7236 48.1869 170.967 47.8145 47.4592 47.2074 74.7032 47.0155 94.3714 56.5513 50.2069 46.6644 64.561 46.5703 45.9892 45.6297 44.3133 44.009 42.7791 42.6396 42.63 42.4804
threshold=0.75000000000000011 0.062500000000000014 0.64583333333333337 0.96052631578947378 0.47916666666666669 0.95000000000000007 0.61111111111110017 0.40936785986290941 0.72916666666666674 0.77631578947368429 1.0000000180025095e-35 0.91666666666666674 0.81250000000000011 0.77083333333333337 0.72222222222221444 0.91666666666666674 0.14583333333333334 0.668546365914787 0.36875000000000008 0.5156641604010026 0.50000000000000011 0.40413533834586474 0.35625000000000012 0.093750000000000014 0.70112781954887227 0.91666666666666674 0.48684210526315791 0.3937500000000001 0.14583333333333334 0.3312500000000001 1.0000000180025095e-35 0.38125000000000003 0.61111111111110017 0.27631578947368424 0.77083333333333337 0.27222222222222231 0.61111111111110017 0.20972222222222225 0.77083333333333337 0.073611111111111127 0.61111111111110017 0.68233082706766923 0.65567402894135574 0.58333333333333337 0.25000000000000006 0.14583333333333334 1.0000000180025095e-35 0.57458371877890857 0.75000000000000011 0.18055555555555561 0.50000000000000011 1.0000000180025095e-35 0.65726817042606511 0.57593798697406806 0.53947368421052644 0.96052631578947378 0.16063251179586543 0.012845490751462201 0.27777777777777152 0.7033898305084747 0.74624060150375937 1.0000000180025095e-35 0.10341492872462821 0.01041666666666667 0.43421052631578955 0.11875000000000001 0.51666666666666672 0.41875000000000012 0.58082706766917302 0.21388888888888893 0.67105263157894746 0.72222222222221444 0.19583333333333339 1.0000000180025095e-35 0.36654135338345867 0.68750000000000011 0.13125000000000003 0.31250000000000006 0.036805555555555564 0.81250000000000011 0.77083333333333337 0.35526315789473689 0.26453430295281105 0.65000000000000002 0.0037687288938791225 0.19583333333333339 0.45686864014801115 0.36824067022086832 0.74373433583959903 0.30625000000000008 0.41666666666666669 0.18750000000000003 0.51315789473684226 0.068750000000000019
decision_type=2 2 2 2 2 2 2 2 2 2 2 2 2 2 2 2 2 2 2 2 2 2 2 2 2 2 2 2 2 2 2 2 2 2 2 2 2 2 2 2 2 2 2 2 2 2 2 2 2 2 2 2 2 2 2 2 2 2 2 2 2 2 2 2 2 2 2 2 2 2 2 2 2 2 2 2 2 2 2 2 2 2 2 2 2 2 2 2 2 2 2 2 2 2
left_child=1 10 11 9 28 8 7 -7 18 15 26 44 31 14 25 27 30 85 24 20 73 -22 -14 42 51 -11 -1 33 48 32 -13 63 -30 89 35 76 -37 67 65 -26 -28 -32 43 83 58 46 -46 -25 93 -19 60 75 -48 -9 -24 59 -42 -29 -2 -41 69 -62 -63 -10 -31 -39 -16 79 -69 -51 87 -72 -66 74 -20 -6 88 86 -79 80 81 -17 -83 84 -8 92 -34 -67 -35 -4 -53 -18 -12 -3
right_child=2 4 3 -5 5 6 23 53 12 13 17 16 22 -15 66 37 91 49 19 -21 21 -23 54 47 39 -27 40 57 29 64 41 -33 77 34 -36 36 -38 38 -40 55 56 -43 -44 -45 45 -47 52 -49 -50 50 -52 90 -54 -55 -56 -57 -58 -59 -60 -61 61 62 -64 -65 72 70 -68 68 -70 -71 71 -73 -74 -75 -76 -77 -78 78 -80 -81 -82 82 -84 -85 -86 -87 -88 -89 -90 -91 -92 -93 -94 -95
leaf_value=-0.0056977280044742777 0.13902788526949383 -0.023443870277217841 0.023585857275707375 0.5119804926571393 0.0039121592572579781 -6.1435624957084659e-06 0.12058714762810739 0.59659389955432796 0.070029957461081552 0.43716994348552918 0.026606955582886949 0.021956978403682381 -2.1802149172126842e-05 0.0037668345854259457 0.17126037493468294 0.016091403392629024 0.0033946269411770334 0.04034204774064306 0.029247366490471327 0.024591516353092344 0.37675946869102184 0.1060182425468652 0.046504413432525371 0.26035971685692116 0.0070212263542962384 0.24769022186378856 0.010142087848686396 0.10883862363809947 -0.014467349733285704 -0.0059532572445866461 0.041724063537624007 0.03007691794851259 -0.018409567110063387 0.099213109939704336 0.036942388891866837 0.30875590333232172 0.11025492528923482 0.14784093509372484 0.017500285860183845 0.014730855586024062 0.033154542005650357 0.094837837624945687 -0.035321411269251257 0.1822272269198528 0.033360982476128093 0.024944483068810395 0.049793501898158198 0.081133808654088244 -0.026620171767697987 0.124883483336166 0.055969200771695628 -0.00036755911479641635 0.10103654357907643 0.45821886357370317 0.15920699710244096 0.11220721870660783 0.013287876630720516 0.25241102530237508 0.051676572065484129 0.029783569257644932 0.084013923196018581 0.2915939212407706 0.13670262641389855 -0.020053867893782648 0.014713200687235087 0.11025338934714649 0.035171048442522689 0.17996043747455095 0.024068487789896828 0.057759645176254426 0.16345303220759064 0.033396112994152183 -0.011213117860610506 0.01055435715476051 0.23144477318253434 0.05494138725225866 0.075766859959401897 -0.0087859729910609342 -0.019111055994870906 0.052173621588047538 -0.005786813759654715 0.073935168638962809 0.032540631608841429 -0.029687724076211452 -0.010522788703914673 0.017392627062892161 -0.0066965317556054067 0.030114458612473589 0.18838850402627405 0.08046999027832609 0.0081103655671778858 0.014268739111749862 0.060685695604176838 0.0069485047837865022
leaf_weight=3408 93 492 774 84 297 64 93 76 73 62 931 3740 8258 78 62 1672 12006 935 157 1584 51 88 267 54 7914 91 11863 107 84119 10070 1479 457 3600 259 996 54 107 117 497 7690 4094 390 128 52 2888 8564 1190 52 960 165 931 16349 415 91 77 90 3621 51 1325 4171 180 53 108 27686 2950 94 60 61 101 364 132 94 961 160 57 481 1251 19759 10858 537 1020 383 1247 72 63 2217 48679 291 71 165 9359 5154 606 7048
leaf_count=3408 93 492 774 84 297 64 93 76 73 62 931 3740 8258 78 62 1672 12006 935 157 1584 51 88 267 54 7914 91 11863 107 84119 10070 1479 457 3600 259 996 54 107 117 497 7690 4094 390 128 52 2888 8564 1190 52 960 165 931 16349 415 91 77 90 3621 51 1325 4171 180 53 108 27686 2950 94 60 61 101 364 132 94 961 160 57 481 1251 19759 10858 537 1020 383 1247 72 63 2217 48679 291 71 165 9359 5154 606 7048
internal_value=0 -0.00442541 0.0282583 0.0534328 -0.00693749 0.00109816 0.15931 0.376791 -0.000284189 0.0497412 0.0190546 0.0211489 -0.0139024 0.177526 0.22681 0.0452666 0.0129612 0.0426663 0.010065 0.0414736 0.0936008 0.205355 0.00284766 0.0615704 0.00864397 0.324473 0.0123879 0.0665378 -0.0105848 -0.0111476 0.0322367 -0.0190089 -0.0119172 0.0627288 0.0727249 0.0931838 0.176833 0.0322063 0.05701 0.0152616 0.0155361 0.0528072 0.0327667 0.0638927 0.0340281 0.0314893 0.0439642 0.172438 0.00139804 0.0646193 0.0772229 0.0036806 0.0630433 0.521192 0.0717314 0.0207185 0.0238302 0.155182 0.0574055 0.0200242 0.0999668 0.132964 0.187692 -0.019817 -0.00195416 0.0839829 0.104331 0.0261548 0.0827685 0.0786962 0.0717548 0.109359 0.00834266 0.0520665 0.0831037 0.0354611 0.0846655 -0.00932934 -0.0124477 0.0242673 0.0208 0.0290128 0.0422671 0.0369042 0.0676389 0.0266665 -0.00750311 0.0496808 0.118399 0.0335815 0.00271883 0.00666066 0.0400433 0.00496534
internal_weight=0 304983 47762 10518 275507 86011 745 231 85266 10434 29476 37244 36818 353 275 10081 22769 6490 48448 2097 513 139 8602 514 46351 153 22986 3835 189496 180996 5609 28216 167015 3677 2738 1742 161 6246 1225 19865 19578 1869 408 280 14475 13057 4493 106 8500 2736 1801 26486 1605 167 344 11951 7715 158 1418 11861 870 341 161 27759 13981 728 122 5021 162 529 611 226 3911 374 214 778 1581 82896 30617 4859 4322 3302 1630 228 156 3754 52279 385 330 939 25708 17160 1537 7540
internal_count=352745 304983 47762 10518 275507 86011 745 231 85266 10434 29476 37244 36818 353 275 10081 22769 6490 48448 2097 513 139 8602 514 46351 153 22986 3835 189496 180996 5609 28216 167015 3677 2738 1742 161 6246 1225 19865 19578 1869 408 280 14475 13057 4493 106 8500 2736 1801 26486 1605 167 344 11951 7715 158 1418 11861 870 341 161 27759 13981 728 122 5021 162 529 611 226 3911 374 214 778 1581 82896 30617 4859 4322 3302 1630 228 156 3754 52279 385 330 939 25708 17160 1537 7540
is_linear=0
shrinkage=0.1


Tree=4
num_leaves=95
num_cat=0
split_feature=3 3 11 0 3 0 0 3 31 3 1 1 0 3 7 3 0 3 3 30 1 7 3 1 1 1 1 7 31 3 3 1 7 7 31 3 1 3 7 3 0 0 3 11 11 3 11 0 1 1 11 11 3 3 28 12 11 1 11 7 33 7 1 7 3 1 11 11 12 3 3 1 3 30 28 3 1 1 1 1 1 7 3 0 1 33 11 7 28 1 3 7 12 7
split_gain=24802.3 2533.94 2376.51 3278.55 3022.52 1086.29 1658.18 1319.81 1108.58 1085.67 958.152 856.114 805.527 731.363 562.758 508.949 1437.87 630.241 454.167 553.216 411.637 398.67 342.223 339.694 337.364 358.959 337.753 288.524 264.969 232.044 224.402 213.926 249.744 213.659 464.848 644.082 594.715 207.107 320.412 281.557 204.945 388.813 204.105 197.512 193.311 183.155 179.252 177.35 175.328 168.399 168.333 158.685 165.479 153.156 241.734 148.123 146.634 184.973 145.336 144.017 137.722 132.617 123.476 121.876 313.076 206.477 129.33 127.402 178.595 108.997 107.026 268.001 104.455 111.521 103.301 122.414 102.619 127.053 274.473 117.196 101.199 166.167 99.8054 96.3637 95.9431 145.5 94.6414 148.046 93.6801 92.0794 229.019 90.2101 86.9363 85.7956
threshold=1.0000000180025095e-35 0.68712229983401985 0.96052631578947378 0.68750000000000011 0.10990468308847008 0.14583333333333334 0.43750000000000006 0.08819942629169604 0.76041666666666685 0.14676625349796094 0.88725490196078438 0.20098039215686278 0.72916666666666674 0.13261964994565364 0.061277543946521427 0.099621967101829231 0.31250000000000006 0.34810487790451777 0.0085939297983322702 1.0000000180025095e-35 0.31862745098039219 0.17170091606833379 0.11664649588189059 0.13235294117647062 0.35784313725490197 0.40686274509803927 0.74019607843137269 0.12985887595939594 0.14583333333333334 0.0064523576247907692 0.36584861321493417 0.64215686274509809 0.034043079970289686 0.10460510027234464 0.19583333333333339 0.43187462936789284 0.55392156862745112 0.14555676856013114 0.19844020797227041 0.11219260721097725 0.81250000000000011 0.85416666666666674 0.19047199562868913 0.61842105263157898 0.53947368421052644 0.20706801705237779 0.90789473684210531 1.0000000180025095e-35 0.05392156862745099 0.20098039215686278 0.30263157894736847 0.56578947368421062 0.28280586231095517 0.13155302232869823 0.000224674845413383 0.55422696115765435 0.40789473684210531 0.5931372549019609 0.32894736842105271 0.015115127506808617 0.029125856130604748 0.14372369398365936 0.063725490196078441 0.064496162416439726 0.84991804767144019 0.25980392156862747 0.61842105263157898 0.30263157894736847 0.58027418126428032 0.09036103254345447 0.61315614090400794 0.43627450980392163 0.016362962313651998 1.0000000180025095e-35 0.0036552061886603922 0.019384126294182461 0.78921568627450989 0.2990196078431373 0.43627450980392163 0.72058823529411775 0.24019607843137256 0.003998514483783115 0.33990989587278614 0.27083333333333337 0.43627450980392163 0.017860364211527643 0.51315789473684226 0.082817529091359268 1.0000000180025095e-35 0.13235294117647062 0.33990989587278614 0.14298093587521668 0.5822543792840823 0.015882644218866059
decision_type=2 2 2 2 2 2 2 2 2 2 2 2 2 2 2 2 2 2 2 2 2 2 2 2 2 2 2 2 2 2 2 2 2 2 2 2 2 2 2 2 2 2 2 2 2 2 2 2 2 2 2 2 2 2 2 2 2 2 2 2 2 2 2 2 2 2 2 2 2 2 2 2 2 2 2 2 2 2 2 2 2 2 2 2 2 2 2 2 2 2 2 2 2 2
left_child=-1 2 5 -4 29 10 15 12 14 22 24 23 18 60 30 -7 33 58 19 46 28 -21 -10 48 -2 69 61 -25 -16 -5 40 63 -33 50 35 45 84 38 86 -40 -9 -42 -12 62 49 -35 -8 -44 -3 74 70 -28 88 54 -41 -29 57 -22 -18 -14 -6 -27 -39 67 -65 -66 -67 68 -13 -26 -17 -72 73 -46 -20 -76 77 89 -79 -80 -19 -82 -78 -52 85 -37 87 -30 -53 90 -47 93 -11 -83
right_child=1 11 3 4 13 6 7 8 9 92 42 31 59 -15 20 16 17 80 44 21 56 -23 -24 27 25 26 51 55 37 -31 -32 32 -34 34 -36 36 -38 43 39 53 41 -43 47 -45 72 76 -48 -49 -50 -51 83 52 -54 -55 -56 -57 -58 -59 -60 -61 -62 -63 -64 64 65 66 -68 -69 -70 -71 71 -73 -74 -75 75 -77 82 78 79 -81 81 91 -84 -85 -86 -87 -88 -89 -90 -91 -92 -93 -94 -95
leaf_value=-0.03239184679768544 0.029013061227714451 0.24111743775797609 -0.0082338827944304586 0.25363005890565765 0.56817263719504296 0.0010532303252818855 0.04341669143566463 0.018174128945976042 0.2312776843123138 0.15803718399887876 0.010352527532957533 0.05093159018956786 0.034869879432831825 0.19698379412293435 0.16796935536771262 0.016956819102156597 0.057568691945289567 0.042530340231669399 0.021552754210381768 0.1154159341299863 0.25941066224530984 0.3442526921940347 0.55568897150537022 0.18526021368179257 0.077967992202835013 0.006356474388629154 0.081910559683790657 0.4175994307508023 0.048138063638917594 0.01122849008015224 0.088013045455409819 0.09813041770781844 0.27197115414114409 0.016814285104308088 0.0050017221976403356 0.24000030106020184 0.36452089903706852 0.18096428582704888 0.04746698949505939 0.33701995450975303 0.34862746879872353 0.043636955599539687 0.037654184744180051 0.032296577768657971 0.0068785285195498425 0.039310492249740953 0.13989183523825238 0.16375265659602015 0.070778099110637427 0.014589709208865665 -0.0023649600627661939 0.14680523597743622 0.13813613002503236 0.12323176826785631 0.15656384396688305 0.24630233054284495 0.031909002327644993 0.021747810200251867 0.01921576341712157 -0.0016522797204948031 0.72894513448079434 0.040472219541954207 0.072415596711920951 0.043894966034225047 0.0066242297680151677 0.15563714860117664 0.31239793044282127 0.028957398694933391 0.23918139009224804 0.12715418969861186 0.23566339131444694 0.018306880264471356 0.049728807961145975 0.10203725629641365 0.10964820265199662 0.043320481584786623 0.022102408211103819 0.19588851835502757 0.035466540922420194 0.14792961640416988 0.078218669985833572 0.13395018033712955 0.15867958352816378 0.031690031617390271 0.054656743245125476 0.078178882466000355 0.059626260092503117 0.12785563666651154 0.040896679461656309 0.020553706510947772 0.24300546845687288 0.045738007197731495 0.0046865740781555877 0.21599557914338952
leaf_weight=141537 6526 79 523 51 184 45949 2323 6189 50 59 12450 158 1173 50 307 3838 1852 238 1807 258 65 108 93 373 2512 1470 2999 103 365 175 554 363 107 11084 20557 86 88 111 187 133 54 185 1778 1735 1145 261 210 119 257 12206 19443 86 199 199 168 99 3496 66 2118 13573 75 5067 1874 438 54 118 95 1031 74 549 80 195 4185 138 336 1619 1969 184 495 114 842 848 55 868 372 157 1542 644 2895 884 70 98 99 150
leaf_count=141537 6526 79 523 51 184 45949 2323 6189 50 59 12450 158 1173 50 307 3838 1852 238 1807 258 65 108 93 373 2512 1470 2999 103 365 175 554 363 107 11084 20557 86 88 111 187 133 54 185 1778 1735 1145 261 210 119 257 12206 19443 86 199 199 168 99 3496 66 2118 13573 75 5067 1874 438 54 118 95 1031 74 549 80 195 4185 138 336 1619 1969 184 495 114 842 848 55 868 372 157 1542 644 2895 884 70 98 99 150
internal_value=0 0.0217068 0.0203165 0.169809 0.343858 0.0195516 0.0161879 0.0300499 0.0523133 0.242628 0.0351679 0.107999 0.0196961 0.547132 0.0491083 0.00915769 0.0147203 0.0608152 0.0308719 0.0680203 0.0633148 0.182942 0.442258 0.19071 0.0481361 0.0560461 0.0486455 0.237389 0.0770508 0.0659297 0.0269461 0.0770921 0.137707 0.0100607 0.0149182 0.0278048 0.121372 0.0730393 0.0915315 0.152148 0.021683 0.112547 0.0150083 0.0569431 0.025848 0.0234533 0.051415 0.0455644 0.110828 0.0202909 0.00282625 0.0654086 0.049846 0.191299 0.2363 0.333647 0.0358012 0.139672 0.0371074 0.00125295 0.614728 0.0328005 0.0784856 0.062616 0.0959244 0.181276 0.225554 0.0440235 0.110977 0.0867897 0.0212748 0.0815379 0.0420761 0.0171138 0.0387888 0.05472 0.0417039 0.0577208 0.0888567 0.0565187 0.104069 0.111626 0.0258137 -0.000909604 0.0865795 0.135449 0.075207 0.0990183 0.0439521 0.0373991 0.082388 0.137291 0.0619504 0.146282
internal_weight=0 211208 207859 1058 535 206801 170151 57256 18175 301 36650 3349 39081 309 17874 112895 66946 6146 24335 2899 10892 366 143 911 22303 15777 12716 575 7265 226 6982 2438 470 60800 36376 15819 703 6958 3238 687 6428 239 14347 3720 21436 15116 2533 1897 336 15968 24424 6179 3180 500 301 202 3627 131 3970 14746 259 6537 1985 1968 705 267 213 1263 232 3061 4113 275 5468 1283 3762 1955 4032 2008 793 609 2176 1938 2024 20311 615 243 2551 1009 2981 1215 331 1096 158 998
internal_count=352745 211208 207859 1058 535 206801 170151 57256 18175 301 36650 3349 39081 309 17874 112895 66946 6146 24335 2899 10892 366 143 911 22303 15777 12716 575 7265 226 6982 2438 470 60800 36376 15819 703 6958 3238 687 6428 239 14347 3720 21436 15116 2533 1897 336 15968 24424 6179 3180 500 301 202 3627 131 3970 14746 259 6537 1985 1968 705 267 213 1263 232 3061 4113 275 5468 1283 3762 1955 4032 2008 793 609 2176 1938 2024 20311 615 243 2551 1009 2981 1215 331 1096 158 998
is_linear=0
shrinkage=0.1


Tree=5
num_leaves=95
num_cat=0
split_feature=3 3 10 0 3 2 3 0 10 0 2 3 0 0 6 0 10 3 10 16 3 25 3 10 3 10 3 0 10 10 3 5 3 10 3 16 29 2 3 10 0 3 26 3 25 3 0 3 10 25 3 3 3 26 26 3 3 0 2 3 16 0 0 0 3 15 5 3 0 10 3 0 16 2 3 3 10 6 10 0 10 2 10 6 3 26 21 15 10 10 3 23 3 2
split_gain=20089.9 2052.49 1449.99 2872.86 2711.85 1267.57 1940.44 1406.53 1358.4 1032.97 979.572 579.312 548.043 696.941 679.429 393.4 390.43 530.307 369.831 363.966 355.042 352.966 340.47 303.462 297.708 258.353 493.38 230.294 223.646 216.543 198.597 196.722 187.337 186.368 166.83 158.231 346.47 155.733 199.75 150.022 148.674 147.56 142.176 141.999 290.325 249.577 135.052 135.02 134.5 122.979 140.205 389.216 120.499 126.222 120.373 116.307 114.856 128.005 124.235 114.073 108.069 144.497 349.078 482.132 176.963 106.333 100.719 97.88 123.461 127.198 95.466 142.809 92.2057 91.2759 88.002 84.3822 82.4745 81.8771 81.3317 80.9275 109.115 79.0919 78.5891 78.3878 76.0831 75.9436 73.7184 101.153 73.47 71.5328 325.388 71.4965 70.5332 69.3781
threshold=1.0000000180025095e-35 0.68712229983401985 0.68123284779396254 0.68750000000000011 0.10990468308847008 0.50000000000000011 0.38563276395238139 0.43750000000000006 0.10132995566814443 0.77083333333333337 0.50000000000000011 0.13261964994565364 0.14583333333333334 0.43750000000000006 0.36875000000000008 1.0000000180025095e-35 0.64323411441840839 0.11219260721097725 0.035106607557525871 0.65476190476190477 0.084662496532889583 0.58333333333333337 0.1560841983468533 0.076841883048342857 0.076249218931934801 0.54823728097952296 0.14676625349796094 0.72916666666666674 0.15410597424530298 0.2811906269791008 0.94444661193191803 0.50000000000000011 0.31572623197503874 0.15326155794806845 0.011527134376642404 0.44423558897243109 0.50000000000000011 0.83333333333333337 0.45327201532939515 0.11315178382942793 0.68750000000000011 0.089232984784345951 0.046066200972281486 0.007487305316840184 0.75000000000000011 0.025743133842726754 0.64583333333333337 0.14676625349796094 0.18788262613468446 0.91666666666666674 0.11219260721097725 0.13060865103955349 0.12095159000752688 0.023984042530740896 0.012671133396013685 0.0064523576247907692 0.59829228213512764 0.22916666666666669 1.0000000180025095e-35 0.20485336191835218 0.66228070175438603 0.68750000000000011 0.85416666666666674 0.81250000000000011 0.10990468308847008 0.42481423543214708 0.30000000000000004 0.74190986356166022 0.68750000000000011 0.3880092885792697 0.084662496532889583 0.27083333333333337 0.72493734335839599 0.50000000000000011 0.15327282110735088 0.19774252497332109 0.32087819294912401 0.25625000000000003 0.041524171416508347 0.35416666666666669 0.0014988389275913028 0.83333333333333337 0.21617057209204144 0.23125000000000004 0.22781439555651253 0.04947037979376738 0.68181818181818199 0.4195346108721158 0.18323833649989449 0.017922735908803045 0.39579233192494445 0.63043478260869579 0.079797858423611062 0.83333333333333337
decision_type=2 2 2 2 2 2 2 2 2 2 2 2 2 2 2 2 2 2 2 2 2 2 2 2 2 2 2 2 2 2 2 2 2 2 2 2 2 2 2 2 2 2 2 2 2 2 2 2 2 2 2 2 2 2 2 2 2 2 2 2 2 2 2 2 2 2 2 2 2 2 2 2 2 2 2 2 2 2 2 2 2 2 2 2 2 2 2 2 2 2 2 2 2 2
left_child=-1 2 5 73 55 6 12 37 27 16 18 72 15 22 20 41 21 34 -3 66 -15 24 70 32 -10 47 -27 59 93 33 67 82 -24 46 -18 36 -16 89 92 60 -20 -2 -35 44 -33 -45 56 76 84 50 -47 85 -37 -54 -43 -5 57 -8 -58 -9 61 -22 63 64 -63 -48 -17 -30 69 -69 -14 -72 -6 -4 -53 -21 77 86 -73 80 -59 -49 -23 -78 -25 -52 -26 -88 -51 90 -7 -84 -39 -12
right_child=1 10 3 4 11 7 29 8 9 -11 28 -13 13 14 35 19 17 -19 40 75 39 31 23 48 25 26 -28 -29 30 -31 -32 43 -34 42 -36 52 -38 38 -40 -41 -42 54 -44 45 -46 49 65 81 -50 88 51 74 53 -55 -56 -57 58 79 -60 -61 -62 62 -64 -65 -66 -67 -68 68 -70 -71 71 78 -74 -75 -76 -77 83 -79 -80 -81 -82 -83 91 -85 -86 -87 87 -89 -90 -91 -92 -93 -94 -95
leaf_value=-0.029152662085499562 0.038416117159538569 0.11095179607314483 0.047218710281928949 0.16116991648724413 0.50934235176869802 -0.00092240775481884521 0.0603688314298641 0.010581762238382864 0.026895720812247975 -0.0099014950627033787 0.032669809517008014 0.19038999198742634 0.0038956254196584059 0.019636929754775587 0.094182241492465069 -0.0086526113365414659 0.22292161708528346 0.44395992030700049 0.24843943306883465 0.073917563183140078 0.039112513534440452 0.055482668700563599 0.051050750694668058 0.021272494980158162 0.062851871275477492 0.34635935029522941 -0.0079795012381714842 -0.010836662593886586 0.041083949909927149 0.029693102795731237 0.25578974879165067 0.086008716396549167 0.15364899047588679 0.25074274935057922 -0.0016510323677436417 0.069863633649762807 0.3367388691220965 -0.0039213609530207088 0.072737130343798084 0.03923472881244619 0.11713959502611454 0.012243431825412762 0.10753338523932282 0.0075782658596002563 0.31384196789641128 0.098351504249401353 0.23367918413432856 0.031187460608432378 0.0089774554303120174 0.18430895307660103 0.43135254154050795 0.19445901306581695 0.2939101032316685 0.10633813224908875 0.028880066847678233 0.0078907886315341836 0.20498186599244092 0.073305256553042514 0.095615927458388483 0.052999445825985869 0.050252605510115525 0.048903568617404546 0.039067959308855114 0.36430484657747703 0.26726508182194081 0.090885309041995155 0.03990324525404626 0.12096642686279886 -0.00069325404755514247 0.30165920707524996 0.0084149047821086547 0.049441588540853558 0.63432605777467999 -0.0059656512076329375 0.063236520128478677 0.13875081587087262 0.098151776829703913 0.028258099704783064 0.019723207478553852 0.0051809685822162364 0.14117903522900221 0.11999287496964997 0.16942685140296818 0.22886651709882752 0.040998267884522932 0.26031937862373894 0.1353779585852628 0.017647534341591855 0.05428218789768955 -0.0062372709045930824 0.17109649615096195 0.041082670093130547 0.019727048557841902 0.10088253588112722
leaf_weight=141537 5930 516 789 68 168 864 1239 14494 4918 2861 1465 53 27278 13081 197 450 55 60 505 2537 249 2074 1684 6224 1108 88 71 5909 237 440 82 136 199 146 83 1008 84 2922 496 3697 104 9145 132 263 95 346 124 1599 6942 50 54 83 50 127 8293 182 170 386 267 663 813 144 234 114 50 90 8430 165 58 51 14034 1371 91 546 133 218 305 451 2805 72 613 107 120 54 2851 50 353 92 332 40342 126 68 2219 166
leaf_count=141537 5930 516 789 68 168 864 1239 14494 4918 2861 1465 53 27278 13081 197 450 55 60 505 2537 249 2074 1684 6224 1108 88 71 5909 237 440 82 136 199 146 83 1008 84 2922 496 3697 104 9145 132 263 95 346 124 1599 6942 50 54 83 50 127 8293 182 170 386 267 663 813 144 234 114 50 90 8430 165 58 51 14034 1371 91 546 133 218 305 451 2805 72 613 107 120 54 2851 50 353 92 332 40342 126 68 2219 166
internal_value=0 0.0195361 0.0182848 0.105313 0.294981 0.0174832 0.0239967 0.00803453 0.0225954 0.0445528 0.0971988 0.491615 0.0217713 0.0173564 0.033709 0.0322699 0.0564021 0.195764 0.17324 0.0472941 0.0284841 0.0542713 0.0122361 0.0239192 0.0436241 0.0630824 0.188133 0.0059089 0.0587335 0.0955174 0.111325 0.0798705 0.0618936 0.104459 0.0878526 0.0992244 0.16669 -0.00345907 0.012133 0.0503156 0.226017 0.0247893 0.182744 0.107413 0.179706 0.0946754 0.0971094 0.058196 0.0194548 0.116533 0.142476 0.190186 0.0832262 0.159325 0.0201553 0.0495827 0.0911485 0.0822548 0.138161 0.0124372 0.0758556 0.102171 0.13114 0.201091 0.105182 0.173626 0.0374426 0.0881424 0.128846 0.16363 0.00763867 0.0132456 0.553256 0.0254669 0.11366 0.0790477 0.0736739 0.0657666 0.0294799 0.107574 0.114954 0.0367573 0.0610946 0.117814 0.0274695 0.349125 0.0766593 0.111038 0.0713014 -0.00558557 0.0209709 0.123004 0.00628596 0.0396124
internal_weight=0 211208 207859 1897 562 205962 121918 84044 37075 16009 3349 312 118239 83236 19848 35003 13148 198 1125 11635 18382 12950 63388 17900 9146 4228 159 21066 2224 3679 593 3804 1883 3239 138 1466 281 46969 5637 5301 609 23368 278 1542 231 1311 2961 4069 16017 1048 666 320 1185 177 17438 250 2747 2310 437 15157 1604 791 542 308 194 214 8880 511 274 216 45488 18210 259 1335 216 2755 2363 2004 4176 1071 999 1706 2262 359 9075 104 1553 445 382 41332 990 188 5141 1631
internal_count=352745 211208 207859 1897 562 205962 121918 84044 37075 16009 3349 312 118239 83236 19848 35003 13148 198 1125 11635 18382 12950 63388 17900 9146 4228 159 21066 2224 3679 593 3804 1883 3239 138 1466 281 46969 5637 5301 609 23368 278 1542 231 1311 2961 4069 16017 1048 666 320 1185 177 17438 250 2747 2310 437 15157 1604 791 542 308 194 214 8880 511 274 216 45488 18210 259 1335 216 2755 2363 2004 4176 1071 999 1706 2262 359 9075 104 1553 445 382 41332 990 188 5141 1631
is_linear=0
shrinkage=0.1


Tree=6
num_leaves=95
num_cat=0
split_feature=25 19 19 7 20 19 11 7 19 7 20 11 13 1 1 1 1 7 13 25 25 19 25 19 19 1 13 13 1 20 21 7 12 25 19 13 7 10 10 20 7 19 19 10 1 12 19 19 20 11 19 10 24 21 25 20 12 19 20 20 20 10 12 10 1 11 1 10 19 24 1 1 10 25 1 24 12 10 20 20 10 13 13 1 20 7 10 7 12 11 20 1 12 21
split_gain=2360.1 755.517 1070.33 1015.87 867.723 610.235 1162.04 502.095 415.525 345.79 265.825 245.432 168.521 167.019 221.114 236.201 166.036 163.057 208.835 162.127 161.226 151.195 150.528 131.513 353.936 130.725 120.715 117.831 116.306 110.644 113.384 110.437 106.937 103.696 97.1176 95.1114 93.6259 91.8742 91.2582 89.9789 89.4268 87.3696 84.7272 82.3963 80.9717 78.7556 78.4972 89.4978 74.0646 72.1508 71.4072 70.1129 69.2739 68.6979 67.1568 85.9546 66.0356 65.6094 65.1746 130.649 60.5795 59.9833 59.1779 58.3118 90.1519 90.2449 58.9252 58.2278 57.8501 57.5327 56.5263 55.4097 57.5165 54.8649 54.5326 54.0404 53.9555 53.7295 53.6372 52.9536 58.5566 52.9518 78.6418 51.9202 63.6235 51.5246 157.133 50.0305 57.5718 51.9044 61.2731 49.83 49.0629 48.0681
threshold=0.75000000000000011 0.041089985277197746 0.83290193939598234 0.488734835355286 0.61111111111110017 0.83290193939598234 0.72368421052631593 0.18110918544194113 0.15641081520814923 0.38474870017331031 0.72222222222221444 0.27631578947368424 0.32661290322580649 0.88725490196078438 0.269607843137255 0.36764705882352949 0.88725490196078438 0.37855904926962125 0.30645161290322587 0.91666666666666674 0.91666666666666674 0.021448411208939703 0.91666666666666674 0.15641081520814923 0.13549765676107547 0.33823529411764713 0.16532258064516131 0.77016129032258074 0.74019607843137269 0.38888888888887158 0.40909090909090912 0.019670710571923745 0.59596344249809607 0.91666666666666674 0.022003771856314035 0.32661290322580649 0.290666006437237 0.025142495250158332 0.63056786995989034 1.0000000180025095e-35 0.28571428571428575 0.020146186242682652 0.002470397362458234 0.1857715853915981 0.05392156862745099 0.57859862909367865 0.18953980135707169 0.64998261146662717 0.61111111111110017 0.61842105263157898 0.21051807105245826 0.3981422841460841 0.66949152542372892 0.13636363636363638 0.25000000000000006 0.38888888888887158 0.65567402894135574 0.020720697257207817 0.27777777777777152 0.61111111111110017 1.0000000180025095e-35 0.0025754697065653374 0.40936785986290941 0.00065442263035676602 0.73039215686274517 0.092105263157894746 0.83823529411764719 0.3880092885792697 0.14364000986626921 0.72033898305084754 0.269607843137255 0.36764705882352949 0.075997466751108314 0.58333333333333337 0.58333333333333337 0.36440677966101703 0.58789032749428793 0.018914925058053627 0.27777777777777152 0.61111111111110017 0.39518682710576325 0.49596774193548393 0.50403225806451624 0.46568627450980399 0.72222222222221444 0.010708096063382027 0.011547392864682293 0.12688784352562518 0.60144706778370149 0.61842105263157898 0.61111111111110017 0.55392156862745112 0.23252094440213253 0.31818181818181823
decision_type=2 2 2 2 2 2 2 2 2 2 2 2 2 2 2 2 2 2 2 2 2 2 2 2 2 2 2 2 2 2 2 2 2 2 2 2 2 2 2 2 2 2 2 2 2 2 2 2 2 2 2 2 2 2 2 2 2 2 2 2 2 2 2 2 2 2 2 2 2 2 2 2 2 2 2 2 2 2 2 2 2 2 2 2 2 2 2 2 2 2 2 2 2 2
left_child=1 7 23 17 35 8 11 44 16 10 19 -7 -6 14 -9 36 22 39 -19 -8 -10 43 68 24 49 26 50 -26 40 -30 53 37 38 -13 41 -5 57 61 52 -4 -23 -24 -18 74 -1 -14 -27 77 -15 -3 -25 67 -20 -31 -40 -56 -12 78 -38 -60 -52 -29 92 64 65 -46 -65 73 70 75 -2 -72 -73 -41 76 -64 91 81 -16 -69 -81 -48 -83 84 -42 86 -63 -35 89 -89 -91 -17 -57 -70
right_child=5 2 3 4 12 6 9 13 20 -11 56 33 45 48 15 21 42 18 32 -21 -22 28 34 25 27 46 -28 31 29 30 -32 -33 -34 87 -36 -37 58 -39 54 51 83 -43 -44 -45 63 -47 47 -49 -50 -51 60 -53 -54 -55 55 62 -58 -59 59 -61 -62 85 69 66 -66 -67 -68 79 93 -71 71 72 -74 -75 -76 -77 -78 -79 -80 80 -82 82 -84 -85 -86 -87 -88 88 -90 90 -92 -93 -94 -95
leaf_value=0.024896482252099297 0.027302128971349388 -0.0058185621966331908 0.050497821514468737 0.43700540914680019 0.21461411221105547 0.0070804676685513731 0.35077068155838387 0.0029255618284226024 0.018604549019297999 0.35906650387080369 0.10412580369149937 0.079654913610534783 0.076794998914360299 -0.0006145136212681358 0.012571380200626498 0.034103785272257159 0.097842306442346372 0.22578378808995089 0.19250949037075044 0.16154427798312221 -0.00013163599963570793 0.010999372380281125 0.024667240316528709 -0.020724727173863262 0.0087573643395897835 -0.0046114575795937257 -0.0089631543856452198 -0.0075182819082368199 0.022157391556732957 0.054852765684035569 0.040246836928889092 0.010153333670294248 -0.014524252285726692 0.032269966825227488 0.016793041305988073 0.27968723002983181 0.041423544850362565 0.17596155321368806 -0.0022571024974148562 0.005683959124071998 0.044265257899452515 0.061295387131464818 0.010844562604473352 0.000304661967921306 -0.018257744374843139 -0.028163841509819033 -0.011730033512561688 -0.0078074440498975342 0.015944901091433785 -0.015560598351928759 0.090752785215154286 -0.0068327092767017338 0.044753652174364444 0.11491578193991099 0.001678378215755325 0.098053401641631399 -0.038940749546656245 -0.019698802157310968 0.1467488628225746 0.052632094053559501 0.0034676398555176314 0.064554255696773338 0.16928313123244865 -0.0058992876161613941 -0.009438634127387685 0.1394594349849301 0.010368927165370814 0.0208775751847536 0.023451249159650127 0.21755879931854755 0.074622688249594574 0.065308450030145987 0.036319101460522696 0.017893363885483047 0.0056158175595647404 0.032228067472125546 0.015309041901345147 -0.016149694297420275 0.0565937839471016 0.15132163537618443 0.027568646850685281 0.12215970720424028 0.0060682197648063837 0.0036646630469476804 0.11928838827788193 0.032999905513208964 0.2531323222741485 0.19260866429518772 0.035405301415257988 0.14295108849421526 0.019509505325681475 0.1010362705347152 -0.01058726150255937 0.12543350594780789
leaf_weight=1017 2023 47940 473 66 61 1606 72 4960 7044 113 85 1117 167 6804 352 212 114 60 75 122 13198 3038 1638 1282 6322 11918 37178 139 1348 334 1223 767 324 1451 6642 92 280 65 257 23793 441 1081 6212 3666 53 125 3659 21909 4479 9035 80 3484 55 443 166 89 52 161 297 293 13096 380 51 24112 202 115 2453 376 67 53 642 886 3008 4354 556 66 318 56000 1295 78 75 61 1344 192 152 310 50 54 225 78 83 234 78 149
leaf_count=1017 2023 47940 473 66 61 1606 72 4960 7044 113 85 1117 167 6804 352 212 114 60 75 122 13198 3038 1638 1282 6322 11918 37178 139 1348 334 1223 767 324 1451 6642 92 280 65 257 23793 441 1081 6212 3666 53 125 3659 21909 4479 9035 80 3484 55 443 166 89 52 161 297 293 13096 380 51 24112 202 115 2453 376 67 53 642 886 3008 4354 556 66 318 56000 1295 78 75 61 1344 192 152 310 50 54 225 78 83 234 78 149
internal_value=0 -0.00323697 -0.00567531 0.0106789 0.150625 0.0206696 0.0535133 0.00692257 0.0167795 0.208027 0.156464 0.0386446 0.063444 0.0156691 0.0212038 0.027315 0.0261436 0.00856987 0.0436667 0.231773 0.00638836 0.0213927 0.0315268 -0.00833625 -0.00459283 -0.00999705 -0.00594796 0.0150581 0.0306918 0.0443006 0.0592252 0.0383386 0.0346659 0.0554969 0.02331 0.345402 0.0541997 0.0612391 0.0525733 0.00719968 0.0187739 0.0392296 0.0124123 0.00801846 -0.00280214 0.031864 -0.0122004 -0.0132905 0.00595906 -0.00736344 0.00180546 0.00656286 0.129997 0.0890972 0.0393297 0.0605779 0.0498232 0.0412293 0.0811543 0.10001 0.0039976 0.0527556 0.0895907 -0.00384797 0.0355772 0.0897034 -0.00439709 0.00819036 0.04288 0.131124 0.0412031 0.0474028 0.042915 0.00757261 0.0294418 0.09197 0.0467811 -0.0152577 0.0471852 0.0410599 0.0906584 -0.00539352 0.0111085 0.0488617 0.0634955 0.0640773 0.0864819 0.041227 0.0707649 0.107769 0.0793135 0.0692208 0.0473111 0.0938001
internal_weight=0 304983 245953 34418 511 47762 5058 59030 42704 444 331 4614 353 31078 19795 14835 22462 33907 1274 194 20242 12157 16136 211535 65008 146527 51636 8033 7171 3348 2000 1711 1214 3008 9361 158 2678 944 890 32633 3823 2719 6326 4986 27952 292 94891 82973 11283 56975 14458 32160 130 777 760 503 137 1808 870 590 13176 879 337 26935 370 168 26565 28676 6775 170 6559 4536 3894 28147 1320 117 764 61064 1647 529 153 5064 1405 785 593 740 430 1891 440 215 161 446 167 216
internal_count=352745 304983 245953 34418 511 47762 5058 59030 42704 444 331 4614 353 31078 19795 14835 22462 33907 1274 194 20242 12157 16136 211535 65008 146527 51636 8033 7171 3348 2000 1711 1214 3008 9361 158 2678 944 890 32633 3823 2719 6326 4986 27952 292 94891 82973 11283 56975 14458 32160 130 777 760 503 137 1808 870 590 13176 879 337 26935 370 168 26565 28676 6775 170 6559 4536 3894 28147 1320 117 764 61064 1647 529 153 5064 1405 785 593 740 430 1891 440 215 161 446 167 216
is_linear=0
shrinkage=0.1


Tree=7
num_leaves=95
num_cat=0
split_feature=30 2 1 1 11 13 11 1 12 12 26 11 6 1 1 16 2 1 1 11 2 1 1 11 11 26 6 17 13 1 11 6 13 12 1 1 17 17 1 6 15 11 4 13 13 1 1 1 1 26 1 17 16 11 6 17 24 13 6 14 16 17 2 13 11 1 1 1 1 6 1 11 11 1 1 1 1 13 12 12 27 27 4 17 13 12 13 16 11 11 11 17 11 4
split_gain=1911.68 907.787 589.158 732.646 765.652 1136.97 295.654 525.811 252.27 386.534 271.826 215.187 138.314 133.021 262.076 131.718 129.866 112.688 133.818 95.4393 107.085 188.638 275.965 290.423 148.886 158.968 112.792 105.417 93.7035 87.902 86.4298 79.8066 81.2346 71.3905 65.1797 269.609 84.5759 65.0881 63.3095 63.0151 62.3264 58.4441 57.2436 56.6035 53.2818 51.6618 78.4333 123.226 67.9262 67.8965 51.5886 51.009 55.3378 50.7302 48.4963 48.0354 46.7885 46.3008 59.3377 43.2336 43.0709 42.8104 42.0968 42.0449 51.8755 43.6079 40.7235 123.169 259.084 125.177 71.2141 51.8303 42.5463 38.9232 46.0428 38.3398 37.2841 38.8217 36.5459 71.3888 42.0182 37.4758 37.4302 36.3642 36.2453 37.8078 34.0556 33.4959 32.6933 32.2381 55.1633 38.2228 43.0174 67.8316
threshold=1.0000000180025095e-35 0.50000000000000011 0.22058823529411767 0.20098039215686278 0.96052631578947378 0.30645161290322587 0.96052631578947378 0.20098039215686278 0.5822543792840823 0.40936785986290941 0.0665135780617543 0.48684210526315791 0.36875000000000008 0.23039215686274514 0.13235294117647062 0.66478696741854637 0.83333333333333337 0.33823529411764713 0.84803921568627461 0.82894736842105277 0.50000000000000011 0.32843137254901966 0.20098039215686278 0.27631578947368424 0.69736842105263164 0.015720790598931885 0.43125000000000008 0.29781808904450108 0.67338709677419362 0.13235294117647062 0.61842105263157898 0.13125000000000003 0.81854838709677424 0.19741051028179743 0.24019607843137256 0.20098039215686278 0.18944700468883954 0.16066478310546006 0.014705882352941178 0.10625000000000002 0.44319515056707087 0.88157894736842113 0.2105526031885564 0.81854838709677424 0.81048387096774199 0.83823529411764719 0.75000000000000011 0.74019607843137269 0.5931372549019609 0.15938842822405469 0.20098039215686278 0.25899995618024058 0.4592731829573935 0.5921052631578948 0.48125000000000012 0.12507988085265256 0.72033898305084754 0.17338709677419359 0.28125000000000006 0.55862627197039794 0.7550125313283208 0.13163553244681009 0.83333333333333337 0.91532258064516137 0.17105263157894737 0.42647058823529421 0.46568627450980399 0.34803921568627455 0.36764705882352949 0.5062500000000002 0.43627450980392163 0.5921052631578948 0.61842105263157898 0.83823529411764719 0.84803921568627461 0.35784313725490197 0.13235294117647062 0.41532258064516131 0.35544554455445548 0.35255140898705256 0.0045841789289394206 0.00013791255871814075 0.096675590362408623 0.44437697330413656 0.028225806451612906 0.26953541507996953 0.17338709677419359 0.49436090225563911 0.22368421052631582 0.11842105263157895 0.32894736842105271 0.24046017913187454 0.77631578947368429 0.14650177807967399
decision_type=2 2 2 2 2 2 2 2 2 2 2 2 2 2 2 2 2 2 2 2 2 2 2 2 2 2 2 2 2 2 2 2 2 2 2 2 2 2 2 2 2 2 2 2 2 2 2 2 2 2 2 2 2 2 2 2 2 2 2 2 2 2 2 2 2 2 2 2 2 2 2 2 2 2 2 2 2 2 2 2 2 2 2 2 2 2 2 2 2 2 2 2 2 2
left_child=1 11 3 16 42 -6 19 -8 9 59 37 12 63 14 -14 38 29 -17 45 20 26 22 -22 -24 31 -26 30 50 -16 -3 57 32 55 -30 35 -21 -37 -11 -13 -34 -12 -38 89 -27 51 46 47 48 75 60 -28 -35 -53 -47 62 -25 84 -2 61 -7 -49 -59 -4 73 65 -65 67 69 72 86 -70 -72 -69 -1 -75 -19 -18 87 79 81 82 -33 -80 -15 -44 -86 -40 -78 -89 -5 -91 92 -92 -94
right_child=6 2 54 4 5 8 7 -9 -10 10 40 15 13 83 28 17 76 18 -20 34 21 -23 23 24 25 43 27 -29 33 -31 -32 78 39 44 -36 36 41 -39 66 -41 -42 -43 56 -45 -46 53 -48 49 -50 -51 -52 52 -54 -55 -56 -57 -58 58 -60 -61 -62 -63 -64 64 -66 -67 -68 68 70 -71 71 -73 -74 74 -76 -77 77 -79 80 -81 -82 -83 -84 -85 85 -87 -88 88 -90 90 91 -93 93 -95
leaf_value=-0.0029831053576053548 0.015897362269881959 -0.019000692920207701 -0.014496289838242003 0.059084468237038147 0.36979658162152329 0.060350119224134482 -0.014807200049887401 0.32014363957255076 -0.03704081347419156 0.17579721561991252 0.021253507439252389 -0.010981324695882267 -0.0050089202373099512 0.0034450203510179665 0.022543236645245244 -0.00097492120838274217 0.00031847124917147465 0.010933192856384694 0.0081408631890084009 0.021940485189757747 -0.0015628651244609781 -0.00069824927202155824 0.0011120899294532044 0.14851352038234475 0.20462076727833067 0.038576957232390463 0.10908793444978074 0.17640484338979934 0.1619661582775157 -0.0082033296005201845 0.012116107732536487 0.071984501241081175 0.090367766191442336 0.14752093565132882 0.01914515803928751 0.08463218635634373 0.31094208509446336 0.31632822212245731 0.012783559091512934 0.22622379507741025 0.15632268267649194 0.15952185803651811 0.073209267593255009 0.1527720618666264 0.01769857533349126 0.085122427468023398 -0.011569755726843357 0.084931970939871079 0.0072495743659151211 0.047304405644281844 0.02344944106890157 0.12689226889654118 0.018120580223890452 0.023160516450492045 0.06410083737224341 0.043249324368358669 0.010504625336894599 0.040097229595495547 0.042511223415676327 -0.04569424486586026 0.18743235921221121 0.022174914330443656 -0.0069504044663358695 0.069070494857717407 0.0042534168049368605 0.0044517209221209796 0.0019515901868380299 0.040542672126619883 -0.006238329028444109 0.16136881160363556 0.010452146289953071 0.046603035647356794 0.072665442821143553 0.026088243869793633 0.0015435742403502423 0.035854020122194914 -0.013981021645550547 0.009219685544820307 0.078720433544367557 0.15726572680851503 0.063122379144008908 0.020046109206324339 0.01847537739882632 0.070034825097813849 -0.0076884888176666222 0.0038750544803579992 0.00072235356196805934 0.10484390658814283 0.040856437550199763 -0.0043238086954347395 0.022633880004643645 0.011854715733427501 0.038155592619852331 0.1461381909815041
leaf_weight=68692 5680 14476 79419 162 135 53 99 89 216 52 93 2651 665 3459 205 3967 885 786 7066 309 3156 7482 1565 50 126 182 99 79 145 15736 9297 292 83 135 346 57 52 90 2855 58 54 50 70 57 102 294 541 153 1911 687 243 85 104 240 80 326 8910 1493 2002 140 56 12420 8152 259 1689 175 22648 1169 2133 50 1533 535 637 823 10710 2877 65 447 112 66 325 265 1302 84 3725 11735 13004 126 218 1330 1735 3408 272 74
leaf_count=68692 5680 14476 79419 162 135 53 99 89 216 52 93 2651 665 3459 205 3967 885 786 7066 309 3156 7482 1565 50 126 182 99 79 145 15736 9297 292 83 135 346 57 52 90 2855 58 54 50 70 57 102 294 541 153 1911 687 243 85 104 240 80 326 8910 1493 2002 140 56 12420 8152 259 1689 175 22648 1169 2133 50 1533 535 637 823 10710 2877 65 447 112 66 325 265 1302 84 3725 11735 13004 126 218 1330 1735 3408 272 74
internal_value=0 -0.00291327 -0.00839173 -0.00111419 0.00951793 0.104144 0.0186026 0.14376 0.0527644 0.093009 0.16619 0.00251986 -0.000733925 0.0154426 0.0410593 0.00683885 -0.0118465 0.0139719 0.01803 0.018108 0.0175171 0.0107036 0.0214141 0.0364932 0.0535621 0.113729 0.0208782 0.0722896 0.0805379 -0.0133769 0.0201776 0.045934 0.0815212 0.101359 0.0520552 0.0763862 0.182196 0.264866 0.00403217 0.146252 0.0708708 0.236716 0.0070093 0.0658118 0.08073 0.0272914 0.0250077 0.0280662 0.0225331 0.0624876 0.0482395 0.100573 0.0670391 0.0572744 -0.0137227 0.0572472 0.00472811 0.0236482 0.0264144 -0.0165733 0.112396 0.0240982 -0.0137938 -0.00171298 0.0121773 0.0430145 0.00492528 0.0079983 0.0201984 0.00339173 0.00658163 0.0198045 0.0518728 -0.00208056 0.00329509 0.0305066 0.0147107 0.0295905 0.0381446 0.0589265 0.0306995 0.0472741 0.0232473 0.00502378 0.00141396 0.00108888 0.00289366 0.051854 0.0642937 0.0149956 0.0139482 0.0183755 0.0290545 0.0612501
internal_weight=0 304983 151858 64207 32254 833 47762 188 698 482 289 153125 87332 4984 1441 65793 31953 18578 14611 47574 46760 15447 7965 4809 3244 365 31313 421 776 30212 30892 2879 517 571 814 468 159 142 47215 141 147 102 31421 239 426 7545 7011 6470 5574 896 342 324 189 534 87651 376 24440 21595 15915 193 209 13913 87571 82348 2123 434 44564 21916 6007 15909 4201 2068 1806 80225 11533 3663 1741 856 2362 623 1739 557 1414 3543 15530 15460 15859 409 344 6981 6819 5489 2081 346
internal_count=352745 304983 151858 64207 32254 833 47762 188 698 482 289 153125 87332 4984 1441 65793 31953 18578 14611 47574 46760 15447 7965 4809 3244 365 31313 421 776 30212 30892 2879 517 571 814 468 159 142 47215 141 147 102 31421 239 426 7545 7011 6470 5574 896 342 324 189 534 87651 376 24440 21595 15915 193 209 13913 87571 82348 2123 434 44564 21916 6007 15909 4201 2068 1806 80225 11533 3663 1741 856 2362 623 1739 557 1414 3543 15530 15460 15859 409 344 6981 6819 5489 2081 346
is_linear=0
shrinkage=0.1


Tree=8
num_leaves=95
num_cat=0
split_feature=3 3 10 0 3 3 2 3 20 2 0 10 0 10 0 0 3 3 10 0 10 3 0 0 10 16 3 3 25 3 3 10 20 10 20 10 20 25 10 3 0 0 2 0 20 10 3 0 16 25 20 0 2 2 3 3 16 29 29 25 20 10 10 3 20 3 10 10 3 16 10 3 3 3 10 10 0 0 3 24 3 16 29 16 10 10 25 24 25 10 14 10 3 28
split_gain=14700.9 1715.75 883.255 1729.27 2502.77 1048.24 865.109 1600.39 1016.68 769.528 717.346 773.261 554.186 299.769 297.901 501.2 320.386 311.047 306.702 306.286 270.287 217.128 216.851 858.553 477.84 204.472 198.99 192.015 259.877 293.105 247.443 609.457 183.329 178.382 161.284 153.962 241.647 146.109 139.16 131.902 153.944 121.727 119.43 118.503 116.925 115.379 114.241 124.392 113.953 113.23 118.506 112.283 110.684 102.706 162.288 97.9394 93.1857 142.661 112.125 85.9249 220.892 85.7361 85.5297 83.8771 106.501 79.6292 79.4332 85.1018 76.1637 75.0903 75.0656 73.2822 96.1167 80.375 67.1254 67.0843 146.966 74.636 66.0216 65.0778 65.0023 64.7104 223.659 189.595 62.4006 106.897 62.2083 61.5823 60.9219 59.6655 59.4972 59.4884 259.683 57.8127
threshold=1.0000000180025095e-35 0.68712229983401985 0.63901203293223574 0.68750000000000011 0.10990468308847008 0.14428404105383583 0.50000000000000011 0.43187462936789284 1.0000000180025095e-35 0.50000000000000011 0.35416666666666669 0.10132995566814443 0.77083333333333337 0.035106607557525871 0.64583333333333337 0.14583333333333334 0.20272042221496764 0.084662496532889583 0.12750686088241509 1.0000000180025095e-35 0.21363732320033782 0.0035094875188795018 0.85416666666666674 0.81250000000000011 0.10892970234325526 0.65476190476190477 0.28915713474615817 0.082573865866227114 0.75000000000000011 0.01055820443904666 0.14676625349796094 0.54823728097952296 0.72222222222221444 0.17732742241925273 1.0000000180025095e-35 0.21363732320033782 0.27777777777777152 0.25000000000000006 0.29280135106607569 0.74190986356166022 0.68750000000000011 0.77083333333333337 0.50000000000000011 0.68750000000000011 0.72222222222221444 0.031517838294279087 0.085929977981649822 0.27083333333333337 0.70864661654135341 0.91666666666666674 0.72222222222221444 0.72916666666666674 0.83333333333333337 0.83333333333333337 0.45327201532939515 0.31572623197503874 0.7399749373433584 0.50000000000000011 1.0000000180025095e-35 0.58333333333333337 0.61111111111110017 0.2216592780240659 0.17352754908169732 0.089232984784345951 0.61111111111110017 0.13957582777803426 0.3981422841460841 0.22757019210470766 0.21254026514549179 0.4692982456140351 0.080641756385898281 0.04363156822719972 0.007487305316840184 0.021082333888974427 0.083175005277601882 0.15072830905636483 0.31250000000000006 0.64583333333333337 0.021082333888974427 0.059322033898305093 0.74190986356166022 0.44799498746867167 0.50000000000000011 0.36654135338345867 0.062064597846738449 0.13215115051720502 0.75000000000000011 0.44915254237288144 0.58333333333333337 0.15875026388009292 0.60881128584643862 0.017922735908803045 0.39579233192494445 0.0038199261460147133
decision_type=2 2 2 2 2 2 2 2 2 2 2 2 2 2 2 2 2 2 2 2 2 2 2 2 2 2 2 2 2 2 2 2 2 2 2 2 2 2 2 2 2 2 2 2 2 2 2 2 2 2 2 2 2 2 2 2 2 2 2 2 2 2 2 2 2 2 2 2 2 2 2 2 2 2 2 2 2 2 2 2 2 2 2 2 2 2 2 2 2 2 2 2 2 2
left_child=42 2 6 56 21 32 7 14 20 13 53 51 27 -3 15 19 34 41 55 63 87 -5 23 26 -25 78 88 28 71 38 31 35 86 80 74 48 37 -37 -30 -35 66 45 -1 84 75 81 -36 -48 -29 50 -31 68 89 91 -55 -18 -4 58 -58 -38 -61 65 -20 -2 -65 -27 67 -41 -12 -57 -49 72 79 -74 -17 77 -77 -9 -21 -13 -11 82 -16 -84 -15 -86 -6 -8 -19 -32 -85 92 -10 -56
right_child=1 9 3 4 5 -7 8 44 10 33 11 12 -14 43 17 16 18 22 62 25 -22 -23 -24 24 -26 61 -28 30 29 49 52 -33 -34 39 46 36 59 -39 -40 40 -42 -43 -44 -45 -46 -47 47 70 -50 -51 -52 -53 -54 54 93 69 57 -59 -60 60 -62 -63 -64 64 -66 -67 -68 -69 -70 -71 -72 -73 73 -75 -76 76 -78 -79 -80 -81 -82 -83 83 90 85 -87 -88 -89 -90 -91 -92 -93 -94 -95
leaf_value=-0.028284885151257939 0.029712885173861031 0.099037010152914468 0.010379129140815043 0.17673787733782895 0.43500634722141407 0.076825496887788183 0.081171455641548013 0.10017874009880784 0.00079150526324662195 0.0068181137655445034 0.0072064167202061215 0.13456279444305794 -0.0067497136580620667 0.32023590350330905 0.041306991104745373 0.18127987784717015 0.046080535989863475 0.027816315196033833 0.031755254255160306 0.013340776444381404 0.35633800029754642 0.0082014129319912307 0.0317876626007862 0.34595670857616972 0.11938095326023777 0.067581796668121974 0.22431286414321816 0.031472428257321043 0.13111827019730518 0.20444053232117937 0.044320208098862501 0.33569328493850176 0.58770995736122134 0.041349617396131418 0.0033165062325045212 0.074461209440025794 0.05646974724428408 0.26829975880051066 0.3091242999548004 0.25498588995622667 0.0028688106821341949 0.012207623932962205 -0.022416829049164866 0.10542719782545017 0.075917823299920584 0.022926898591475522 0.0085877629825362716 0.040082209039669497 0.076487257602506339 0.021226297583849398 0.053801668232598278 -0.007571427934529815 0.10605530365647094 0.0052817892796750542 0.032897243239892494 0.19263985552119489 0.052641303436177081 0.014396618136696985 0.19733755280641785 0.26428239364412764 0.064529743990298469 0.041615545235468676 0.010565651910780884 0.0094717518155941517 0.02538965350537184 0.12428202874994919 0.29790427797617247 0.10575081586804508 0.042765985109589726 0.080186580335636817 0.016865419524679327 0.041066015347979642 -0.0096555051056078003 0.022720917177194013 0.057362619755811334 0.23027606412921267 0.051494728833869366 0.22194241999455222 0.036153190047959027 0.03454063076560359 0.050620847716795925 0.039902671089727816 0.32144522713655133 0.030872818360389288 0.17039301482701882 0.27038588157781313 0.31986802239571849 0.17728254141037664 0.06644758480985298 0.011983171329681233 0.17835299317158906 -0.0045038983435503567 0.15505650882497432 0.10161427672784536
leaf_weight=60811 5930 516 1877 92 193 100 120 1003 859 456 14736 69 2810 58 436 51 1714 1222 2923 1544 69 452 2512 155 233 1282 61 1272 145 81 991 86 72 173 29015 58 638 118 63 58 55 6238 80726 104 1639 4493 19893 2120 1008 463 147 5898 185 5044 258 66 114 307 101 79 185 1041 5469 10338 7083 307 52 112 628 592 4059 1665 1496 1573 306 134 70 53 7114 1136 1318 1372 59 59 270 177 62 150 613 1345 51 39506 125 233
leaf_count=60811 5930 516 1877 92 193 100 120 1003 859 456 14736 69 2810 58 436 51 1714 1222 2923 1544 69 452 2512 155 233 1282 61 1272 145 81 991 86 72 173 29015 58 638 118 63 58 55 6238 80726 104 1639 4493 19893 2120 1008 463 147 5898 185 5044 258 66 114 307 101 79 185 1041 5469 10338 7083 307 52 112 628 592 4059 1665 1496 1573 306 134 70 53 7114 1136 1318 1372 59 59 270 177 62 150 613 1345 51 39506 125 233
internal_value=0 0.0167117 0.0155677 0.0663461 0.178942 0.360154 0.0147309 0.02012 0.00688071 0.0877183 0.00617398 0.0165664 0.0334652 0.155116 0.018322 0.0162318 0.0111326 0.0303643 0.0269204 0.0259782 0.179706 0.0367039 0.0520635 0.0743634 0.209894 0.0395029 0.0466282 0.0422916 0.0308535 0.0809603 0.0554036 0.0728292 0.446799 0.0536254 0.00806749 0.0660971 0.0972376 0.204421 0.185034 0.109857 0.152643 0.0221751 -0.024938 0.202631 0.0935264 0.0317851 0.0076333 0.0124374 0.0513737 0.0496329 0.107318 0.00415739 0.0315981 -0.0021524 0.0106242 0.0586706 0.0207727 0.0581455 0.120615 0.0763237 0.124304 0.0639225 0.0179462 0.0194403 0.0159436 0.0785365 0.189749 0.156666 0.00865991 0.0914661 0.024831 0.0232688 0.0163356 0.00693886 0.0750651 0.116432 0.16893 0.10629 0.032085 0.040268 0.0393615 0.0519166 0.0791613 0.176821 0.22265 0.209988 0.407012 0.134567 0.0407215 0.0257015 0.09925 -0.00389896 0.0203882 0.0655063
internal_weight=0 211208 207859 3370 971 427 204489 121250 83239 3349 82900 36875 15613 1125 118351 100847 66208 17504 10764 34639 339 544 4796 2284 388 11288 1896 12803 6838 899 5965 3444 327 2224 55444 3358 1078 176 208 450 277 12708 141537 609 2899 6470 55087 26072 2280 691 228 21262 2521 46025 5535 2372 2399 522 215 902 264 2630 8392 23351 17421 1589 222 170 15364 658 6179 5939 4274 3069 357 1260 204 1056 8658 1205 1774 1977 605 169 505 447 255 270 1835 2336 110 40490 984 491
internal_count=352745 211208 207859 3370 971 427 204489 121250 83239 3349 82900 36875 15613 1125 118351 100847 66208 17504 10764 34639 339 544 4796 2284 388 11288 1896 12803 6838 899 5965 3444 327 2224 55444 3358 1078 176 208 450 277 12708 141537 609 2899 6470 55087 26072 2280 691 228 21262 2521 46025 5535 2372 2399 522 215 902 264 2630 8392 23351 17421 1589 222 170 15364 658 6179 5939 4274 3069 357 1260 204 1056 8658 1205 1774 1977 605 169 505 447 255 270 1835 2336 110 40490 984 491
is_linear=0
shrinkage=0.1


Tree=9
num_leaves=95
num_cat=0
split_feature=25 0 25 1 1 11 0 11 20 5 1 1 0 1 0 11 23 20 0 1 23 23 20 20 20 11 0 1 1 20 16 11 16 29 21 16 29 25 11 23 11 20 21 26 11 26 14 26 29 1 11 1 21 16 26 11 0 0 1 1 5 1 1 1 0 0 11 23 26 14 32 29 32 21 21 16 16 15 0 5 26 14 1 1 0 20 1 11 1 14 20 0 11 0
split_gain=1200.34 508.864 387.642 261.529 383.922 473.591 244.077 394.251 231.414 236.16 184.205 302.353 185.735 106.065 98.5059 227.469 126.914 103.084 98.0444 81.7498 79.3718 75.5222 73.2617 142.212 73.2494 72.8155 121.592 71.1125 114.972 68.3894 62.6015 62.305 59.8343 217.655 221.984 131.383 58.3963 51.6997 51.1467 50.1373 47.5947 88.9789 46.9234 57.6843 45.5046 58.5732 43.8852 62.1637 41.8404 41.1221 44.0859 40.8632 39.471 38.313 47.9894 45.6533 49.2813 37.9233 72.9341 49.7643 37.506 37.3253 59.4356 58.8541 67.7962 98.5871 54.9848 58.0274 56.3376 38.5234 36.9502 198.644 154.169 156.97 58.1666 46.0458 110.528 42.0334 35.5277 35.0484 37.9819 47.3949 34.7257 39.5364 37.2257 34.4092 34.0973 72.324 51.6466 40.4565 37.9747 34.1004 68.1679 37.5996
threshold=0.75000000000000011 0.062500000000000014 0.91666666666666674 0.23039215686274514 0.15196078431372553 0.96052631578947378 0.64583333333333337 0.82894736842105277 0.61111111111110017 0.90000000000000013 0.35784313725490197 0.40686274509803927 1.0000000180025095e-35 0.74019607843137269 0.64583333333333337 0.85526315789473695 0.80434782608695665 1.0000000180025095e-35 0.14583333333333334 0.88725490196078438 0.67391304347826098 0.71739130434782616 0.27777777777777152 0.61111111111110017 0.61111111111110017 0.72368421052631593 0.77083333333333337 0.96568627450980404 0.98529411764705899 0.38888888888887158 0.69360902255639101 0.69736842105263164 0.4667919799498747 0.50000000000000011 0.86363636363636376 0.38408521303258153 0.50000000000000011 0.41666666666666669 0.30263157894736847 0.282608695652174 0.27631578947368424 0.16666666666667143 0.13636363636363638 1.0000000180025095e-35 0.64473684210526327 0.072018985778785918 0.57735892691951907 0.095253284615606587 0.50000000000000011 0.52450980392156876 0.43421052631578955 0.25000000000000006 0.31818181818181823 0.55827067669172936 0.073310183844619362 0.35526315789473689 0.72916666666666674 0.14583333333333334 0.88725490196078438 0.014705882352941178 1.0000000180025095e-35 0.33823529411764713 0.43627450980392163 0.63235294117647067 0.22916666666666669 0.27083333333333337 0.64473684210526327 0.63043478260869579 0.020042873989789621 0.57527752081406125 0.38175757043219022 0.50000000000000011 0.15868746795143074 0.22727272727272727 1.0000000180025095e-35 0.59586466165413532 0.73621553884711777 0.46216269065310916 0.52083333333333337 0.50000000000000011 0.012671133396013685 0.56001387604070318 0.42647058823529421 0.68137254901960798 0.93750000000000011 1.0000000180025095e-35 0.13235294117647062 0.27631578947368424 0.0931372549019608 0.50381591119333968 0.72222222222221444 0.18750000000000003 0.51315789473684226 0.64583333333333337
decision_type=2 2 2 2 2 2 2 2 2 2 2 2 2 2 2 2 2 2 2 2 2 2 2 2 2 2 2 2 2 2 2 2 2 2 2 2 2 2 2 2 2 2 2 2 2 2 2 2 2 2 2 2 2 2 2 2 2 2 2 2 2 2 2 2 2 2 2 2 2 2 2 2 2 2 2 2 2 2 2 2 2 2 2 2 2 2 2 2 2 2 2 2 2 2
left_child=1 10 6 4 86 32 40 21 9 -7 -1 22 24 -14 18 17 -17 -16 19 30 53 25 -12 31 -13 -8 -27 38 78 -15 -4 -24 33 -6 -35 -36 42 44 51 -20 41 -2 -31 -44 -34 85 47 48 -10 50 -26 -5 -49 54 -19 -55 79 58 59 -42 -30 -40 -63 64 -64 66 67 69 -69 -66 71 72 74 -74 -39 -75 -77 -78 -29 -57 -81 -82 84 -84 -53 -46 88 89 91 -88 -89 92 -3 -93
right_child=2 3 14 27 5 8 7 -9 46 -11 11 12 13 29 15 16 -18 20 39 -21 -22 -23 23 -25 49 26 -28 28 60 36 -32 -33 37 34 35 -37 -38 70 61 -41 57 -43 43 -45 45 -47 -48 52 -50 -51 -52 82 -54 55 -56 56 -58 -59 -60 -61 -62 62 63 -65 65 -67 -68 68 -70 -71 -72 -73 73 75 -76 76 77 -79 -80 80 81 -83 83 -85 -86 -87 87 90 -90 -91 -92 93 -94 -95
leaf_value=-0.0096448578214395776 0.16082741921640761 0.035073276325326641 0.019678115680133529 -0.013828160720767375 0.0075078617995281045 0.014712047640313496 0.048344151059043265 0.24399887348711491 0.16926489348578103 0.20283750392820524 0.017522962439457258 -0.0014760824525474104 0.0014644797004339052 0.01639493476821316 0.15446888195737354 0.20812102656657855 0.011991524308919907 0.099967776790119547 0.0094558828113480986 0.001685264366211306 0.00012282856838969936 0.021897601304342824 0.067316026284440778 0.029786618694328998 -0.011132372987432112 0.21532926627833932 0.026865818190610787 0.011072555823587569 0.00031903061421960886 0.031476183380246603 0.055659072938280464 0.12431917323667235 0.0052437740213086732 0.25283629494543008 0.16869379460339007 0.00026479441237946353 0.027916878507370041 0.10104438687434024 -0.003257703643110114 -0.0026181683106287737 -0.004329984498520692 0.03154105630604525 0.16901120565154337 0.063204920977388585 0.039744634542833363 0.0097418808925926158 0.006353881244109647 -0.026898469927686231 0.061291242224213331 0.0083760414973437624 0.037555582077511029 0.002374595725432417 0.077721845702483111 0.0042018969964168033 0.028406881069770875 0.032158012454169507 0.010221575578009791 0.013920767035723716 0.0089893862046986003 0.039766031138905179 -0.014709298566999866 -0.011619747232373996 -0.0064214809533543402 -0.0090383005277667253 0.10073778706066537 0.00026753364605839323 -0.013248928781898543 0.0527446268261689 0.16377103982369107 0.017903987427509607 0.0071465392852935426 0.001948621906291418 0.22418785422109067 0.0071270583281188866 0.015471770604807727 0.19297963783120442 0.013708576837877844 0.10284592564752762 0.051544449681268457 0.12636262693188408 0.10686527753805186 0.0045725494894114406 -0.0080661852911570707 0.0010852155514368225 0.054868904298959964 -0.011237247074139258 0.10177279634277026 -0.0057196303708327983 -0.0092337994375845372 0.023052368664075548 0.0044438872492175941 -0.010005725295588075 -0.0042785735731139894 0.0030713403106948966
leaf_weight=4044 55 733 2680 3091 1287 94 2577 100 68 230 661 9752 1577 1897 53 97 50 138 4759 2339 2404 1189 618 973 228 70 67 4875 3370 501 590 278 19041 74 67 150 1644 89 19236 12401 285 1657 55 816 136 2164 219 81 76 5423 1009 9682 65 1226 292 1069 911 8271 1698 2509 3274 32713 26131 44249 66 10270 174 117 75 376 10938 2450 80 89 739 76 121 94 227 88 77 110 11160 8182 137 4982 75 12264 25968 504 5250 4451 1102 4345
leaf_count=4044 55 733 2680 3091 1287 94 2577 100 68 230 661 9752 1577 1897 53 97 50 138 4759 2339 2404 1189 618 973 228 70 67 4875 3370 501 590 278 19041 74 67 150 1644 89 19236 12401 285 1657 55 816 136 2164 219 81 76 5423 1009 9682 65 1226 292 1069 911 8271 1698 2509 3274 32713 26131 44249 66 10270 174 117 75 376 10938 2450 80 89 739 76 121 94 227 88 77 110 11160 8182 137 4982 75 12264 25968 504 5250 4451 1102 4345
internal_value=0 -0.00230847 0.0147407 -0.00364455 0.000498667 0.00752048 0.026082 0.0479371 0.0821949 0.148258 0.0101796 0.0133319 0.0097079 0.0240287 0.00758442 0.018427 0.14141 0.015588 0.004482 0.0159597 0.0144224 0.0429137 0.0461372 0.056257 0.00404484 0.0521208 0.123161 -0.00593568 0.00158319 0.0312715 0.0261701 0.0850023 0.00605951 0.0251677 0.103272 0.0522682 0.0406286 0.00532406 -0.0064688 0.00073034 0.020038 0.0356945 0.0558603 0.0698861 0.00267255 -0.00405071 0.040143 0.0656596 0.112279 0.0121289 0.0285816 -0.00289515 0.0196791 0.023212 0.0513729 0.0197334 0.0281775 0.0179379 0.0253346 0.035268 -0.00708656 -0.00733275 -0.00801933 -0.00657343 -0.00364221 0.00291359 0.0365461 0.0502122 0.0961143 0.0302728 0.0100798 0.0186631 0.050457 0.096874 0.0246698 0.0700711 0.089322 0.0526803 0.0128732 0.0403485 0.0721873 0.0466931 -0.00173628 -0.00419498 0.00310702 -0.00988251 -0.00507467 -0.00152345 -0.00683024 0.0332493 -0.00267301 -0.000959156 0.0114407 -0.00354599
internal_weight=0 304983 47762 275507 98102 43410 18478 4003 833 324 29476 25432 22902 6490 29284 6515 147 6368 22769 5609 6315 3903 2530 1869 16412 2714 137 177405 11746 4913 3270 896 42577 1578 291 217 3016 40999 165659 17160 14475 1712 1372 871 26323 7282 509 290 144 6660 1237 32252 146 3911 430 3481 2255 12763 4492 2794 6644 133407 114171 81458 37209 11078 808 634 192 442 14676 3738 1288 460 828 380 291 215 5102 1344 275 187 29161 19342 9819 5118 54692 18093 36599 579 17514 10631 1835 8796
internal_count=352745 304983 47762 275507 98102 43410 18478 4003 833 324 29476 25432 22902 6490 29284 6515 147 6368 22769 5609 6315 3903 2530 1869 16412 2714 137 177405 11746 4913 3270 896 42577 1578 291 217 3016 40999 165659 17160 14475 1712 1372 871 26323 7282 509 290 144 6660 1237 32252 146 3911 430 3481 2255 12763 4492 2794 6644 133407 114171 81458 37209 11078 808 634 192 442 14676 3738 1288 460 828 380 291 215 5102 1344 275 187 29161 19342 9819 5118 54692 18093 36599 579 17514 10631 1835 8796
is_linear=0
shrinkage=0.1


Tree=10
num_leaves=95
num_cat=0
split_feature=3 3 19 7 3 2 3 19 3 7 19 19 7 3 3 31 0 3 11 19 2 3 11 10 7 3 2 7 3 26 2 3 13 3 19 0 3 0 7 19 19 0 13 13 3 7 19 3 19 2 10 3 3 4 3 10 3 19 3 31 3 7 7 4 2 31 27 3 27 19 19 7 11 19 3 26 19 0 31 13 27 10 10 10 3 19 19 10 3 10 19 13 19 7
split_gain=11390.5 1401.92 808.207 1980 2145.06 1428.54 1289.99 772.62 732.152 652.067 431.889 359.429 357.124 271.676 207.042 265.066 261.984 570.986 207.363 170.689 186.181 163.464 290.475 201.306 338.667 221.796 160.841 156.48 200.072 166.058 147.805 135.807 135.71 133.513 132.413 397.881 195.038 191.914 148.772 148.039 131.215 130.723 261.993 186.738 127.109 125.888 123.622 116.682 146.489 115.633 113.75 113.095 112.371 111.806 110.04 168.76 114.588 108.092 106.624 104.586 104.083 240.34 103.605 113.325 102.813 95.8681 88.7931 88.214 84.7241 80.4875 79.2133 111.884 112.231 78.708 98.9026 77.8372 77.5789 109.827 76.077 88.9622 78.1875 79.4787 177.112 140.894 74.2743 73.4861 73.2629 72.0642 198.165 70.7551 178.715 73.3159 97.4317 70.3697
threshold=1.0000000180025095e-35 0.68712229983401985 0.83290193939598234 0.37855904926962125 0.10990468308847008 0.50000000000000011 0.43187462936789284 0.62533800398021244 0.14676625349796094 0.082817529091359268 0.037822932641264607 0.024646522523129818 0.067962366922505582 0.27061288208889062 0.16378305985590882 0.065277777777777796 0.81250000000000011 0.082573865866227114 0.40789473684210531 0.83290193939598234 0.50000000000000011 0.082573865866227114 0.51315789473684226 0.21363732320033782 0.15362713542956183 0.14555676856013114 0.83333333333333337 0.19844020797227041 0.1133025590193749 0.02209511068292383 1.0000000180025095e-35 0.13261964994565364 0.81854838709677424 0.007487305316840184 0.020146186242682652 0.22916666666666669 0.11219260721097725 1.0000000180025095e-35 0.14372369398365936 0.031330000658772637 0.023229395353967734 0.64583333333333337 0.76209677419354849 0.81048387096774199 0.025743133842726754 0.12911611785095325 0.0080623045705032273 0.59829228213512764 0.38420979457018156 1.0000000180025095e-35 0.007705298712265149 0.10990468308847008 0.57182142668574631 0.81965477284532728 0.0053217103091855733 0.59679121807050894 0.025743133842726754 0.13549765676107547 0.011527134376642404 0.31666666666666671 0.84991804767144019 0.10782371874226294 0.019670710571923745 0.42062572421784478 0.50000000000000011 0.30555555555555564 0.00079682498169835251 0.09036103254345447 0.00032270437645113718 0.13005167535071985 0.39152102174102893 0.13332508046546179 0.61842105263157898 0.084723905326712937 0.085929977981649822 0.1042401774474441 0.061843238158561985 0.31250000000000006 0.17638888888888893 0.59274193548387111 0.00017495081505259673 0.11315178382942793 0.10892970234325526 0.13130673421997049 0.1418947603504849 0.022003771856314035 0.50422820956323389 0.017922735908803045 0.39579233192494445 0.00065442263035676602 0.021448411208939703 0.92741935483870974 0.022003771856314035 0.041470661054716522
decision_type=2 2 2 2 2 2 2 2 2 2 2 2 2 2 2 2 2 2 2 2 2 2 2 2 2 2 2 2 2 2 2 2 2 2 2 2 2 2 2 2 2 2 2 2 2 2 2 2 2 2 2 2 2 2 2 2 2 2 2 2 2 2 2 2 2 2 2 2 2 2 2 2 2 2 2 2 2 2 2 2 2 2 2 2 2 2 2 2 2 2 2 2 2 2
left_child=19 2 5 9 33 6 10 12 66 30 13 93 69 34 16 76 41 -18 -19 20 -1 54 78 -24 -25 27 87 51 -29 31 -4 -30 -32 68 37 40 89 -2 -39 84 67 73 58 44 53 -41 -40 48 57 -49 -28 -26 85 62 55 -11 -56 -13 -43 -17 64 -62 63 -44 -9 -63 -6 -36 -5 -3 -14 -72 -73 -12 -75 -54 -16 -78 79 80 81 82 -23 -83 -38 -52 -71 88 -7 90 -37 -91 -93 -8
right_child=1 7 3 4 8 26 11 60 -10 21 14 47 70 -15 15 59 17 18 -20 -21 -22 22 23 24 25 -27 50 28 29 -31 32 -33 -34 -35 35 36 39 38 46 45 -42 42 43 -45 -46 -47 -48 49 -50 -51 52 -53 75 -55 56 -57 -58 -59 -60 -61 61 65 -64 -65 -66 -67 -68 -69 -70 86 71 72 -74 74 -76 -77 77 -79 -80 -81 -82 83 -84 -85 -86 -87 -88 -89 -90 91 -92 92 -94 -95
leaf_value=-0.024992067994308819 0.0039448816554554485 0.14863770659911732 0.076293598015147901 0.014075882297295792 0.3613168861438979 0.0070035113529580938 0.18751590027050538 0.1197926304915822 0.075330793327884754 0.050954621037389097 0.011703686193808335 0.078448514265156935 0.14519990550675496 0.095228831854395679 0.0054211092593138069 0.023518845438214392 0.023046503782230009 0.41715082536341952 0.15912021698517492 -0.03343382254082717 -0.017391555372395933 0.22832851687506325 0.021054119012243227 0.2807404592423372 0.1389551123739545 0.015905978854084363 -0.0026880054348334525 0.029859389803562494 0.27799813536212858 0.095317155073377458 0.019621705181589674 0.12145232486097438 0.00044024655272045489 -0.00084737746482105986 0.049836469378260223 0.17511076054043984 0.13658463063777662 0.011527753116064436 0.059777641626960268 0.24628461824369527 0.029079430346460655 0.077835144409594145 0.25199179700442725 0.025710978314627028 0.063753272653094079 0.085803226822608214 0.027606469237453871 0.1760743626081859 0.039353421112287817 0.077500100482325515 0.071879517559165038 0.0094349491320407167 0.037856015103752728 0.28382355375032797 0.0077107795508802538 0.21204140345965114 0.038057953831770332 0.16243437178089548 0.0095817429581327475 0.0087559779006961373 0.034549038015281523 0.24734710957400685 -0.0032798397712982619 0.072051150777510231 -0.0018971908830308064 0.077610447557110884 0.472973074883069 0.08815828138683672 0.157599827687123 0.057005028232522598 0.15871326170484487 0.35485339455716758 0.20223392575847365 -0.0016497225086858664 0.009179772595758081 0.17917618247876435 0.044543842603013202 0.10964702259033002 0.186671009018857 0.062630633327134158 0.083084423634183446 0.29775743478909139 -0.0015157650186590954 0.092014885471578239 0.0065875276388694184 0.016578465922629362 0.12916903821763925 -0.0039423375715032828 0.13933904044522299 0.0061859536993627753 -0.0099948919559311542 0.14919184400343602 0.024196387826021751 0.35143185944110156
leaf_weight=59877 6189 184 338 65 268 1110 55 76 92 917 19101 1065 284 548 181 12376 462 51 80 11861 69799 62 2023 71 86 738 2796 191 133 255 6932 95 7883 367 4880 89 51 4122 1621 62 3176 236 70 938 490 231 4539 216 1016 265 257 312 80 51 2070 70 3119 179 7586 7838 729 82 52 70 803 56 97 685 112 568 183 84 113 17166 16577 76 530 507 93 518 278 80 73 57 318 3696 187 51139 126 6987 126 81 271 50
leaf_count=59877 6189 184 338 65 268 1110 55 76 92 917 19101 1065 284 548 181 12376 462 51 80 11861 69799 62 2023 71 86 738 2796 191 133 255 6932 95 7883 367 4880 89 51 4122 1621 62 3176 236 70 938 490 231 4539 216 1016 265 257 312 80 51 2070 70 3119 179 7586 7838 729 82 52 70 803 56 97 685 112 568 183 84 113 17166 16577 76 530 507 93 518 278 80 73 57 318 3696 187 51139 126 6987 126 81 271 50
internal_value=0 0.0147102 0.0136761 0.0296804 0.167729 0.0112466 0.0174694 0.0788952 0.327444 0.0244449 0.0158693 0.083999 0.129023 0.0253888 0.0120355 0.0205244 0.00914441 0.0752981 0.259575 -0.0219513 -0.020901 0.0426939 0.0560099 0.0429504 0.0664996 0.0580957 -0.00147435 0.0871405 0.1165 0.150761 0.0109071 0.212771 0.00941533 0.0335572 0.0242439 0.0304468 0.014647 0.0178579 0.0262325 0.0666931 0.0452976 0.0085151 0.0193195 0.0552624 0.0930785 0.119762 0.0360723 0.0770434 0.067525 0.121766 0.0128714 0.0374217 0.023459 0.152212 0.0317734 0.0623792 0.0259518 0.0905333 0.011641 0.0177945 0.0328727 0.0574566 0.117252 0.162021 0.00862434 0.178468 0.39099 0.0545535 0.104893 0.0893321 0.185153 0.215012 0.26731 0.00657418 0.00367051 0.106704 0.0658296 0.0763735 0.0999239 0.0923701 0.120379 0.158497 0.104042 0.212157 0.0245546 0.0201738 0.0748788 -0.00336566 0.020494 0.0100859 0.0666302 0.00842935 0.0529595 0.265571
internal_weight=0 211208 207859 27395 1001 180464 121184 3349 457 26394 118338 2846 1603 33976 84362 21432 62930 593 131 141537 129676 11241 5065 3904 1881 1810 59280 1072 674 483 15153 228 14815 544 33428 16957 8216 16471 10282 662 8741 62337 9493 1671 733 293 6160 2741 2260 481 6905 398 4109 243 6176 987 5189 1244 7822 20214 1746 867 192 140 879 138 365 5565 177 939 664 380 197 52844 33743 156 1218 1037 1161 1068 550 272 135 137 369 3953 755 52375 1236 7554 215 7339 352 105
internal_count=352745 211208 207859 27395 1001 180464 121184 3349 457 26394 118338 2846 1603 33976 84362 21432 62930 593 131 141537 129676 11241 5065 3904 1881 1810 59280 1072 674 483 15153 228 14815 544 33428 16957 8216 16471 10282 662 8741 62337 9493 1671 733 293 6160 2741 2260 481 6905 398 4109 243 6176 987 5189 1244 7822 20214 1746 867 192 140 879 138 365 5565 177 939 664 380 197 52844 33743 156 1218 1037 1161 1068 550 272 135 137 369 3953 755 52375 1236 7554 215 7339 352 105
is_linear=0
shrinkage=0.1


Tree=11
num_leaves=95
num_cat=0
split_feature=25 2 19 7 25 7 19 31 25 7 19 19 20 31 19 19 7 20 5 7 19 10 20 20 2 31 5 31 12 19 2 4 19 7 10 12 12 7 20 15 20 4 7 27 2 10 20 20 4 7 19 19 19 19 19 32 29 7 19 10 20 10 20 20 10 10 20 10 20 25 4 19 19 19 19 27 29 32 19 12 4 24 20 20 10 10 19 19 12 12 10 10 19 32
split_gain=743.765 469.66 560.173 396.667 296.158 262.237 191.898 390.627 160.98 127.356 115.33 173.879 110.012 171.9 85.4601 112.814 231.612 88.1619 144.282 82.092 67.4831 66.6926 75.0307 63.6647 62.9287 62.0079 94.2124 62.5231 61.6296 51.5923 51.5311 49.6134 47.4161 45.992 77.1214 143.838 43.4975 42.3751 59.4382 42.372 42.2716 42.8763 41.9848 46.9074 41.7229 41.4967 251.602 41.4944 52.7676 47.4209 40.7945 57.5509 38.4791 73.4229 44.2161 65.617 88.4246 73.1195 44.643 61.8935 43.5655 38.3277 39.0523 38.0262 37.9194 76.4339 126.395 51.164 82.7776 79.0187 67.5655 35.8009 35.2266 35.9252 67.0079 36.7796 33.7605 35.8816 33.1811 33.1469 39.2531 56.1541 32.7521 61.6576 31.7354 31.3816 31.2804 44.4222 30.5815 65.8605 94.827 31.6504 30.3392 29.2815
threshold=0.75000000000000011 0.50000000000000011 0.83290193939598234 0.52092102005446905 0.91666666666666674 0.53206239168110925 0.83290193939598234 0.37638888888888894 0.58333333333333337 0.36494181728150538 0.022003771856314035 0.020146186242682652 0.72222222222221444 0.22361111111111115 0.037822932641264607 0.83290193939598234 0.42683832631839569 0.27777777777777152 0.50000000000000011 0.0025129982668977472 0.39152102174102893 0.036795440151994943 0.16666666666667143 1.0000000180025095e-35 0.50000000000000011 0.28333333333333338 0.50000000000000011 0.21944444444444447 0.81401370906321413 0.02949156541229209 0.83333333333333337 0.46236065049746283 0.020146186242682652 0.082817529091359268 0.10977411864048979 0.84623000761614631 0.22536176694592538 0.14520921020054472 0.49999999999998584 0.25840829096597578 0.83333333333332871 0.8385543612898072 0.08356028719980195 0.0005153450957429052 0.83333333333333337 0.20265991133628883 0.38888888888887158 0.38888888888887158 0.46675590362408609 0.05706858133201289 0.022003771856314035 0.020146186242682652 0.041089985277197746 0.027844633837319936 0.02949156541229209 0.51722423167199372 0.50000000000000011 0.44169348848724937 0.039988264655009979 0.23094785729364584 0.72222222222221444 0.067131095630145687 0.38888888888887158 0.61111111111110017 0.82478361832383384 0.68123284779396254 0.38888888888887158 0.63056786995989034 0.38888888888887158 0.25000000000000006 0.64524313741159556 0.003542817922905219 0.0014171271691620873 0.020146186242682652 0.022003771856314035 6.6239729529936388e-06 0.50000000000000011 0.39254069162813715 0.50422820956323389 0.73130236100533141 0.81965477284532728 0.66949152542372892 0.16666666666667143 0.61111111111110017 0.027675744141861944 0.14650622757019216 0.50422820956323389 0.62533800398021244 0.066793602437166796 0.10060929169840062 0.0062486805995355726 0.0014143972978678491 0.061843238158561985 0.62347619878824312
decision_type=2 2 2 2 2 2 2 2 2 2 2 2 2 2 2 2 2 2 2 2 2 2 2 2 2 2 2 2 2 2 2 2 2 2 2 2 2 2 2 2 2 2 2 2 2 2 2 2 2 2 2 2 2 2 2 2 2 2 2 2 2 2 2 2 2 2 2 2 2 2 2 2 2 2 2 2 2 2 2 2 2 2 2 2 2 2 2 2 2 2 2 2 2 2
left_child=1 8 30 9 6 -5 21 12 10 23 11 37 13 36 72 24 17 18 -17 -13 52 22 -2 -4 -16 26 33 -28 40 32 78 -15 -23 88 35 42 -8 -1 -39 -24 41 64 -35 -44 -36 -29 -47 -38 49 -49 51 -10 53 -12 55 56 57 -55 -56 -60 -61 -19 -63 -57 65 67 -67 -11 -69 -70 -71 -40 -6 75 -75 85 77 -46 84 80 -64 -82 -21 -84 -3 -74 -32 -88 -25 -90 91 -91 -54 -22
