tree
version=v4
num_class=1
num_tree_per_iteration=1
label_index=0
max_feature_idx=33
objective=regression
feature_names=Column_0 Column_1 Column_2 Column_3 Column_4 Column_5 Column_6 Column_7 Column_8 Column_9 Column_10 Column_11 Column_12 Column_13 Column_14 Column_15 Column_16 Column_17 Column_18 Column_19 Column_20 Column_21 Column_22 Column_23 Column_24 Column_25 Column_26 Column_27 Column_28 Column_29 Column_30 Column_31 Column_32 Column_33
feature_infos=[0:1] [0:1] [0:1] [0:0.99973257662785842] [0:1] [0:1] [0:1] [0:0.99999999999999989] [0:1] [0:1] [0:1.0000000000000002] [0:1] [0.00015232292460015231:0.99999999999999989] [0:1] [0:1] [0:1] [0.017543859649122862:0.99999999999999978] [0:1] [0:1] [0:1.0000000000000002] [0:1] [0:0.99999999999999989] [0:0.99999999999999989] [0:1] [0:1] [0:1] [0:1] [0:0.99999999999999989] [0:0.99999999999999989] [0:1] [0:1] [0:1] [0:1] [0:1]
tree_sizes=8625 8629 8696 8614 8520 8445 8649 8574 8555 8735 8497 8625 8715 8497 8534 8575 8592 8568 8571 8524 8614 8615 8531 8607 8557 8527 8573 8472 8557 8652 8580 8568 8609 8552 8585 8622 8553 8556 8613 8639 8555 8517 8567 8724 8625 8587 8677 8621 8631 8614 8523 8615 8684 8641 8559 8513 8588 8600 8628 8482 8514 8494 8683 8510 8499 8487 8597 8575 8506 8633 8645 8586 8526 8644 8364 8611 8622 8543 8597 8638 8538 8732 8612 8470 8598 8568 8463 8665 8597 8586 8621 8591 8537 8563 8589 8554 8543 8572 8630 8545 8581 8479 8550 8630 8588 8553 8557 8498 8578 8590 8514 8500 8599 8514 8719 8537 8528 8521 8637 8514 8498 8547 8562 8530 8573 8530 8500 8567 8541 8558 8584 8608 8601 8570 8524 8551 8510 8607 8561 8485 8590 8573 8613 8487 8553 8518 8519 8513 8617 8679 8581 8625 8533 8470 8614 8518 8670 8644 8497 8551 8552 8488 8593 8565 8578 8555 8583 8483 8607 8539 8502 8487 8530 8592 8527 8591 8513 8554 8535 8552 8574 8544 8550 8556 8524 8625 8596 8653 8549 8581 8518 8551 8573 8448

Tree=0
num_leaves=95
num_cat=0
split_feature=25 0 19 7 2 19 11 16 11 19 19 7 19 19 6 0 7 6 12 25 16 7 25 2 19 7 19 6 25 19 7 7 6 16 0 16 29 22 2 19 16 19 19 7 19 0 7 0 19 19 25 12 24 17 27 19 19 7 6 16 25 17 11 7 6 12 29 19 29 2 12 16 7 19 19 0 19 19 12 2 6 6 0 6 7 19 22 19 6 19 6 19 0 19
split_gain=8407.86 3015.03 3034.71 3023.77 2873.02 1702.41 3413.51 1240.28 1227.61 1124.33 754.882 599.533 513.801 902.084 475.885 645.885 422.554 412.044 552.208 391.299 390.018 381.821 357.222 344.91 241.269 225.581 209.849 208.302 202.657 201.127 197.087 190.585 185.165 170.239 158.453 158.242 334.116 157.29 154.191 152.493 148.789 212.005 136.519 168.336 131.375 192.452 128.006 121.094 110.937 106.791 104.688 103.802 119.486 101.943 101.524 100.265 147.807 132.144 99.11 178.66 127.224 98.9419 98.087 198.72 97.0812 92.2708 90.6679 109.647 141.845 90.5415 82.9659 82.7133 81.9335 81.898 77.5863 82.417 80.1134 77.0395 106.785 76.9312 139.251 76.5716 76.0024 74.0391 78.7473 279.891 73.2618 73.1988 72.8419 72.2005 72.1188 69.5621 68.6762 68.2805
threshold=0.75000000000000011 0.062500000000000014 0.83290193939598234 0.45654865065610306 0.50000000000000011 0.83290193939598234 0.72368421052631593 0.68734335839599003 0.96052631578947378 0.15641081520814923 0.041089985277197746 0.041470661054716522 0.020146186242682652 0.037822932641264607 0.34375000000000006 0.64583333333333337 0.51844515969299343 0.093750000000000014 0.64866717440974875 0.91666666666666674 0.69235588972431084 0.17170091606833379 0.91666666666666674 0.83333333333333337 0.014496827933185135 0.14520921020054472 0.64998261146662717 0.36875000000000008 0.91666666666666674 0.50422820956323389 0.12688784352562518 0.36494181728150538 0.36875000000000008 0.64223057644110282 0.60416666666666674 0.4617794486215539 0.83333333333333348 0.15000000000000005 0.50000000000000011 0.035204119933387373 0.70238095238095244 0.023229395353967734 0.15641081520814923 0.012144095073037882 0.020146186242682652 0.22916666666666669 0.19101262688784357 0.64583333333333337 0.50422820956323389 0.62533800398021244 0.91666666666666674 0.6911652703731912 0.87288135593220351 0.092756583420194313 0.00015468925072579265 0.02949156541229209 0.020146186242682652 0.078856152512998282 0.14375000000000004 0.7199248120300753 0.25000000000000006 0.21483479509234546 0.61842105263157898 0.082817529091359268 0.15625000000000003 0.37844630616907843 0.50000000000000011 0.027844633837319936 1.0000000180025095e-35 0.83333333333333337 0.65567402894135574 0.73120300751879708 0.53206239168110925 0.0047492910534080767 0.39152102174102893 0.14583333333333334 0.066979175124745507 0.39152102174102893 0.091012947448591022 0.50000000000000011 0.3312500000000001 0.29375000000000012 1.0000000180025095e-35 0.2687500000000001 0.0033547907897994557 0.024033710774302972 0.58333333333333337 0.62533800398021244 0.068750000000000019 0.003542817922905219 0.18125000000000005 0.14364000986626921 0.22916666666666669 0.14364000986626921
decision_type=2 2 2 2 2 2 2 2 2 2 2 2 2 2 2 2 2 2 2 2 2 2 2 2 2 2 2 2 2 2 2 2 2 2 2 2 2 2 2 2 2 2 2 2 2 2 2 2 2 2 2 2 2 2 2 2 2 2 2 2 2 2 2 2 2 2 2 2 2 2 2 2 2 2 2 2 2 2 2 2 2 2 2 2 2 2 2 2 2 2 2 2 2 2
left_child=1 10 4 31 14 9 11 16 20 19 12 -7 33 21 24 77 -5 51 -19 32 50 -14 -11 29 25 -3 74 -17 -22 42 65 62 55 -1 -34 36 -29 71 -24 44 41 -23 43 -6 53 -46 93 -41 81 -50 -8 52 88 73 -15 56 82 -57 -33 -60 -61 89 63 -4 -39 -13 67 -42 -69 -65 -30 -32 -70 -21 75 76 -26 -16 -79 80 -49 -25 -2 84 85 -77 -62 -76 -9 -27 -64 -82 -58 -37
right_child=5 2 3 7 23 6 8 17 -10 22 -12 30 13 54 15 27 -18 18 -20 39 28 40 38 48 26 61 -28 35 70 -31 37 58 34 -35 -36 46 -38 64 -40 47 66 -43 -44 -45 45 -47 -48 79 49 -51 -52 -53 -54 -55 -56 57 92 -59 59 60 86 -63 90 69 -66 -67 -68 68 72 -71 -72 -73 -74 -75 87 83 -78 78 -80 -81 91 -83 -84 -85 -86 -87 -88 -89 -90 -91 -92 -93 -94 -95
leaf_value=-0.0042040424715856185 0.029790904063213421 -0.0079151092912728375 0.010929228790187123 0.34878697999634906 0.043221519820087907 0.027365793904574512 0.51354725645888744 0.037578824648290599 0.6905311554905974 0.033644209906374095 -0.015720293547518728 0.11833990344062448 0.028497964073330863 0.010272378758141545 0.0013282941591348223 0.022304867401424469 0.69236642583243901 0.14511231193177743 0.50630342557065533 0.2160824123846215 0.32034832571795446 0.081576230175392964 0.016737390551944873 -0.013703637466644894 -0.035579633899203281 0.078765951400859735 0.033478778912645578 0.087357132250503261 0.18244087243913903 -0.020510916224406772 0.32830994841554084 0.026066410729273889 0.080669909853950811 0.026148030196958313 0.21700246763469325 0.032656857128868066 0.32041152136132867 0.18724616715548476 -0.0048847211556073133 0.022479010476445162 0.093917457128904244 0.032725282923817836 -0.03207592115414324 -0.023362207752975137 0.09255404547479916 0.034801778703199199 0.224800173925855 0.054077040820403682 0.050087957244804263 -0.013842404947429096 0.33150630278757298 -0.015377677989595788 0.22758856260809143 0.030145100921662778 0.030965682542995553 0.079591538283813337 0.1076270201094742 0.0432230248462478 0.035286517431441816 0.062452288949751925 0.15522605882203752 0.016495369511026012 -0.0015602753383667681 0.028674346516245515 0.095541331749099456 0.069674722118473906 0.07662946309598824 0.10321976932498204 0.17602078804072047 0.068091734379316177 0.024719492637508438 0.16751749358620907 0.31084285938340489 0.066702860890174631 0.01178292472353574 0.14567760633548804 0.013403709451170731 0.152482469174819 0.022489337888923266 0.013153594848743105 0.076657832492621758 0.014648746687452323 0.07020291013539505 6.2001106386811963e-05 -0.0092710328941434522 -0.0012792296702655915 0.30524362585623965 -0.0045648289102165123 0.14276474177524462 0.031229219912057224 0.013531651162097254 0.21765005755728581 0.06301494143837004 0.085644055032154026
leaf_weight=4308 752 3476 14685 126 388 2000 59 154 89 7060 4064 550 2183 5478 6405 650 50 125 64 50 85 3083 6505 7554 375 487 1350 210 93 41339 63 667 218 3236 140 393 87 166 6690 6580 540 1248 49615 17751 1332 1018 53 831 637 443 68 77 72 2567 4180 1319 1221 4119 334 101 90 3700 6717 4387 379 1336 752 198 130 672 52 65 69 138 4323 147 3046 68 894 317 59 1090 1221 10570 75903 1095 51 7475 115 929 5990 86 481 638
leaf_count=4308 752 3476 14685 126 388 2000 59 154 89 7060 4064 550 2183 5478 6405 650 50 125 64 50 85 3083 6505 7554 375 487 1350 210 93 41339 63 667 218 3236 140 393 87 166 6690 6580 540 1248 49615 17751 1332 1018 53 831 637 443 68 77 72 2567 4180 1319 1221 4119 334 101 90 3700 6717 4387 379 1336 752 198 130 672 52 65 69 138 4323 147 3046 68 894 317 59 1090 1221 10570 75903 1095 51 7475 115 929 5990 86 481 638
internal_value=-5.52304e-09 -0.00610571 -0.00935687 0.0183936 -0.0133253 0.039038 0.0942158 0.212663 0.358253 0.0325711 0.0242963 0.0683854 0.0306976 0.0399401 -0.00256433 0.0190562 0.446395 0.144893 0.26742 0.0479838 0.275417 0.0643254 0.0154888 -0.0243993 -0.00436445 0.0117424 -0.0056915 0.0689849 0.197748 -0.0260079 0.100445 0.013879 0.0634386 0.00881548 0.133984 0.090956 0.155626 0.146902 0.00577476 0.0367054 0.0773172 0.0674996 -0.0293618 -0.021938 0.0501669 0.0675363 0.0732375 0.0279767 -0.00635297 0.0238647 0.416077 0.0894913 0.113171 0.0353508 0.0192285 0.0606672 0.0734267 0.0520443 0.0523069 0.082693 0.148122 0.0250985 0.0124071 0.0168177 0.123473 0.0838666 0.102492 0.123248 0.163145 0.0339103 0.125879 0.246658 0.222768 0.106431 -0.00620523 -0.00719304 0.0080343 0.00529143 0.031678 0.0559539 0.0698553 -0.0101284 0.0548001 -0.00778692 -0.00886234 0.0161142 0.209488 0.00142528 0.0825468 0.0475784 0.00555396 0.160281 0.0950193 0.0654462
internal_weight=0 305037 275568 34477 241091 47709 5005 783 446 42704 29469 4559 25405 17861 122274 9398 176 607 189 22449 357 8203 20255 118817 112876 8592 104284 2031 230 109093 2559 33694 9471 7544 358 1381 297 673 13195 12978 6020 4331 67754 18139 5105 2350 1084 7873 9724 1080 127 418 341 2755 9658 9113 3675 5438 1243 576 242 5116 32451 19744 545 1886 1689 937 397 5059 145 128 199 188 102934 91136 3421 7367 962 1293 976 8644 1973 87715 77145 1242 141 11798 269 1416 12707 145 1702 1031
internal_count=352746 305037 275568 34477 241091 47709 5005 783 446 42704 29469 4559 25405 17861 122274 9398 176 607 189 22449 357 8203 20255 118817 112876 8592 104284 2031 230 109093 2559 33694 9471 7544 358 1381 297 673 13195 12978 6020 4331 67754 18139 5105 2350 1084 7873 9724 1080 127 418 341 2755 9658 9113 3675 5438 1243 576 242 5116 32451 19744 545 1886 1689 937 397 5059 145 128 199 188 102934 91136 3421 7367 962 1293 976 8644 1973 87715 77145 1242 141 11798 269 1416 12707 145 1702 1031
is_linear=0
shrinkage=1


Tree=1
num_leaves=95
num_cat=0
split_feature=30 2 11 31 31 2 33 11 13 13 13 10 2 10 2 33 13 13 10 14 20 10 10 2 10 29 33 31 10 13 13 13 13 27 31 27 31 27 4 14 20 13 10 27 11 24 4 24 24 13 13 15 29 20 27 31 29 33 10 10 31 11 18 18 18 13 2 13 11 4 11 20 10 13 10 4 27 20 24 14 18 10 4 13 13 18 13 14 10 20 20 14 27 13
split_gain=6810.37 2073.65 1273.4 725.688 658.245 513.836 297.873 242.315 195.642 195.529 670.609 229.856 188.457 312.862 179.956 170.082 156.243 307.57 113.871 109.358 101.33 100.699 98.5261 83.9668 83.6325 83.6043 81.6723 97.4462 108.928 198.185 91.4347 132.135 154.855 119.232 78.1751 78.0255 72.1026 70.4982 69.3166 68.5691 68.3464 65.8874 62.0997 58.2253 69.3602 57.0922 56.7254 56.5287 55.7026 55.6432 98.1556 55.253 99.8993 52.2262 52.2148 51.6148 51.1771 91.7323 50.6801 51.4519 48.6831 70.5852 60.5005 47.117 49.4863 46.5672 45.1631 44.4356 55.0346 44.2894 43.7765 43.697 43.4197 43.2115 43.1817 42.9579 67.0758 42.1675 41.3798 40.115 40.0572 39.9112 38.3495 38.0913 37.5275 37.1931 37.186 36.7068 36.0967 36.0965 35.4966 35.4806 34.2563 34.0324
threshold=1.0000000180025095e-35 0.50000000000000011 0.96052631578947378 0.81250000000000011 0.17083333333333336 0.83333333333333337 0.092231556852825192 0.82894736842105277 0.40725806451612906 0.77016129032258074 0.77822580645161299 0.0062486805995355726 0.50000000000000011 0.10132995566814443 1.0000000180025095e-35 0.08134798660929439 0.77016129032258074 0.77822580645161299 0.017880515093941316 0.57851526364477357 1.0000000180025095e-35 0.34114418408275288 0.10132995566814443 0.83333333333333337 0.63056786995989034 0.83333333333333348 0.014832109697237585 0.95000000000000007 0.82478361832383384 0.53629032258064524 0.22983870967741937 0.53629032258064524 0.59274193548387111 0.0059569778411739617 0.040277777777777787 0.00012663477704252546 0.22361111111111115 0.034355898117996816 0.46184121149158913 0.57550878815911211 0.16666666666667143 0.30241935483870974 0.007705298712265149 0.0075093253849814129 0.56578947368421062 0.6186440677966103 0.82588804091581103 0.12711864406779663 0.55084745762711873 0.52016129032258074 0.43951612903225812 0.35754790770434108 0.50000000000000011 0.27777777777777152 0.0015430739816732594 0.023611111111111114 0.50000000000000011 0.032479737877736371 0.16803884314967285 0.007705298712265149 0.35000000000000003 0.80263157894736858 0.32608695652173919 0.23913043478260873 0.71739130434782616 0.41532258064516131 0.83333333333333337 0.58467741935483886 0.22368421052631582 0.11423662444559878 0.48684210526315791 0.38888888888887158 0.026789107029765679 0.59274193548387111 0.12117373865315603 0.13461461621448836 0.014356487261944155 0.61111111111110017 0.44915254237288144 0.49086493987049035 0.45652173913043487 0.00065442263035676602 0.48609501738122834 0.39919354838709681 0.39919354838709681 0.41304347826086957 0.97177419354838723 0.63818223866790025 0.20899303356554785 1.0000000180025095e-35 1.0000000180025095e-35 0.58175300647548578 0.0065819691715623026 0.75403225806451624
decision_type=2 2 2 2 2 2 2 2 2 2 2 2 2 2 2 2 2 2 2 2 2 2 2 2 2 2 2 2 2 2 2 2 2 2 2 2 2 2 2 2 2 2 2 2 2 2 2 2 2 2 2 2 2 2 2 2 2 2 2 2 2 2 2 2 2 2 2 2 2 2 2 2 2 2 2 2 2 2 2 2 2 2 2 2 2 2 2 2 2 2 2 2 2 2
left_child=1 4 7 5 9 8 38 12 22 63 18 46 14 65 21 25 40 -18 55 24 80 58 -3 35 -6 26 27 -5 29 84 33 -32 -33 -28 49 47 70 39 -4 74 -16 -9 91 44 -38 -31 77 -15 -36 50 -7 52 -20 -21 -34 85 57 -25 59 -2 93 62 -62 -1 -65 66 -14 68 -51 73 -37 -27 86 -43 -22 76 -17 78 -12 -26 -10 -42 -64 -77 -29 -11 -41 -60 -50 -61 -24 -19 -76 -46
right_child=2 3 6 15 19 34 -8 41 20 10 11 -13 13 23 16 75 17 42 51 53 37 -23 90 56 79 71 30 28 -30 45 31 32 54 -35 48 36 43 -39 -40 72 81 69 -44 -45 60 -47 -48 -49 88 67 -52 -53 -54 -55 -56 -57 -58 -59 87 89 61 -63 82 64 -66 -67 -68 -69 -70 -71 -72 -73 -74 -75 92 83 -78 -79 -80 -81 -82 -83 -84 -85 -86 -87 -88 -89 -90 -91 -92 -93 -94 -95
leaf_value=0.00048695106037547199 0.096403192512608982 -0.025520960191640119 0.42669324446935958 -0.007262139341503146 0.015994285964564883 0.015007098450557929 0.081633590542090448 0.19906811403669419 -0.0056595741362357203 0.068631478026509291 0.050813682205401937 -0.0050376384864688727 -0.0026690267278832542 0.15987872249779425 0.13749845455995346 0.13520262856036425 0.2086257766317178 0.16132791573443683 0.031375270677420006 0.0030216237532806754 -0.012577992726703178 0.025879501231801855 0.025903497978436704 0.20439481060977466 0.076314295513783492 0.047708506400502004 0.22714432738721371 0.060988160685038699 -0.026359010999606525 0.12397418722229184 -0.025420235877282149 0.20530880821793521 0.11441816252899235 0.042833788625218652 -0.0050496468118714577 0.046107217014916588 0.16384543049117101 -0.025258374979217454 0.2880119852759917 -0.005206259651471202 0.10305141277829043 0.075005015913218814 0.040671238109589426 0.020092509891036867 0.034236345696169131 0.23985004054093864 -0.0060886133495704139 0.062339388255033469 0.03054230515331724 0.11917541722626719 -0.015184122750039875 0.043739245900134865 0.19405453833996467 0.010107844666129455 0.0010974726517393131 0.19201357156342391 0.045327903048363427 0.075028215446774016 0.04854873941659478 0.086653442793641275 0.047155296730164158 0.040942273594225406 0.22681279495407486 -0.007729793139676153 -0.001903054857613051 0.017065866428961626 0.038348986256013934 0.003718434513571098 0.018317991382393397 0.071270681679661288 0.016909133098275676 -0.013832696064947601 -0.01550330562883432 0.20460215291219219 0.0033982028977679194 0.026760430998165319 -0.016235722164165672 0.051079600624156042 0.15576856252475735 0.025047703466293487 0.041229052815578177 0.04398686205707536 0.11767829672757511 -0.018446445692276322 -0.0083223451524972927 0.13920095860200046 0.04940527631112069 0.022921174922888778 0.0042889790263835941 0.033444985395955029 -0.016857748123214163 0.061861251742050698 -0.0097420131689173184 0.071266559710208441
leaf_weight=15399 134 28753 78 253 15628 1409 51 50 303 132 65 6524 2551 70 83 58 187 80 75 14927 8771 9119 196 73 343 215 97 357 112 106 107 99 69 55 954 668 58 5343 67 2586 118 50 413 593 992 71 132 393 1873 73 4568 471 76 34299 99 98 245 220 5671 129 65 194 57 41343 22513 6259 300 5458 209 672 2220 249 58827 53 4472 261 59 464 89 275 457 3754 74 652 100 172 131 620 727 10952 20317 65 3566 331
leaf_count=15399 134 28753 78 253 15628 1409 51 50 303 132 65 6524 2551 70 83 58 187 80 75 14927 8771 9119 196 73 343 215 97 357 112 106 107 99 69 55 954 668 58 5343 67 2586 118 50 413 593 992 71 132 393 1873 73 4568 471 76 34299 99 98 245 220 5671 129 65 194 57 41343 22513 6259 300 5458 209 672 2220 249 58827 53 4472 261 59 464 89 275 457 3754 74 652 100 172 131 620 727 10952 20317 65 3566 331
internal_value=0 -0.00549513 0.0351342 -0.0137676 0.00272254 -0.0147511 0.289501 0.0340849 -0.0167356 -0.00294905 0.0116558 0.000989548 0.0331356 0.0240634 0.037585 0.0347711 0.0556248 0.0976342 0.0874236 0.0103069 -0.0138143 0.0344005 -0.0217437 0.0412882 0.0174211 0.0518515 0.0631604 0.046368 0.0645562 0.080617 0.0950532 0.0684736 0.106101 0.160453 0.0026268 0.0377328 0.0342635 -0.0141443 0.362613 -0.0133865 0.0477115 0.0878078 0.0604381 0.047214 0.0562954 0.170455 0.053418 0.0770862 0.015618 -0.0013137 -0.00806694 0.0606149 0.113254 0.00795906 0.0476399 0.128904 0.0790564 0.107259 0.0388391 0.0348093 0.0526539 0.0837036 0.126029 -0.00447817 -0.00567552 0.0122405 0.00164714 0.00571838 0.0444265 0.0806298 0.0236627 0.0146832 -0.0149325 0.141691 -0.00772591 0.00178761 0.0588363 0.0661282 0.111469 0.0535015 0.0225353 0.0457869 0.165164 -0.00552312 0.0458217 0.108559 -0.00257317 0.0460231 0.0232015 0.0340644 -0.0164492 0.116739 -0.00243136 0.0435009
internal_weight=0 305037 47709 152012 153025 148993 196 47513 133722 87553 8298 7274 46688 15363 31325 3019 4700 745 1024 65472 84456 26625 49266 6253 16246 1989 1525 999 746 634 526 374 267 152 15271 5715 5252 83696 145 78353 3955 825 558 2364 1771 177 750 463 3554 11717 5977 622 151 49226 168 402 538 293 17506 11215 1713 390 196 79255 63856 9110 2851 5740 282 775 2888 464 61544 103 16809 1030 117 618 154 618 760 3872 131 913 457 304 2717 6291 2600 11081 20513 145 8038 1323
internal_count=352746 305037 47709 152012 153025 148993 196 47513 133722 87553 8298 7274 46688 15363 31325 3019 4700 745 1024 65472 84456 26625 49266 6253 16246 1989 1525 999 746 634 526 374 267 152 15271 5715 5252 83696 145 78353 3955 825 558 2364 1771 177 750 463 3554 11717 5977 622 151 49226 168 402 538 293 17506 11215 1713 390 196 79255 63856 9110 2851 5740 282 775 2888 464 61544 103 16809 1030 117 618 154 618 760 3872 131 913 457 304 2717 6291 2600 11081 20513 145 8038 1323
is_linear=0
shrinkage=0.1


Tree=2
num_leaves=95
num_cat=0
split_feature=25 0 19 11 13 19 11 19 11 19 19 19 11 19 19 6 13 26 26 5 0 25 25 0 19 23 25 6 0 13 6 4 5 10 10 0 10 5 19 13 10 6 6 0 11 26 17 19 19 6 29 26 11 10 19 10 11 19 0 0 19 4 0 10 11 11 11 17 4 13 25 0 29 19 9 25 10 10 10 6 17 19 19 19 0 0 19 6 0 11 10 19 19 26
split_gain=5516.4 2215.2 2473.76 2167.93 2931.63 1358.06 2540.61 873.231 859.107 615.399 608.014 528.599 475.631 409.634 728.207 408.351 385.644 340.067 335.567 536.779 332.385 314.365 283.015 239.71 230.751 184.851 179.164 174.866 165.618 163.98 156.55 162.179 155.444 155.042 132.169 130.936 133.309 124.85 124.608 121.754 119.459 121.317 114.953 122.749 114.934 112.191 111.881 110.355 124.191 107.987 103.952 103.525 102.566 147.119 101.494 130.357 113.619 100.453 156.903 100.235 93.2348 92.4249 90.6225 90.0048 88.1192 85.3461 84.1899 81.8528 78.3718 77.9733 77.7027 76.7858 72.6704 71.4735 115.95 71.225 92.9828 75.1819 75.5448 147.776 71.9054 66.9642 84.6951 146.069 66.3603 65.7688 65.6726 64.8049 64.6354 63.9595 80.4079 117.874 90.6768 63.5839
threshold=0.75000000000000011 0.062500000000000014 0.83290193939598234 0.96052631578947378 0.30241935483870974 0.83290193939598234 0.72368421052631593 0.15641081520814923 0.96052631578947378 0.15641081520814923 0.041089985277197746 0.13549765676107547 0.27631578947368424 0.020146186242682652 0.023229395353967734 0.36875000000000008 0.53629032258064524 0.022167984599311238 0.032187514761441202 0.90000000000000013 1.0000000180025095e-35 0.91666666666666674 0.91666666666666674 0.31250000000000006 0.014209572425922551 0.67391304347826098 0.91666666666666674 0.15625000000000003 0.47916666666666669 0.16532258064516131 0.48125000000000012 0.4407040396371919 0.50000000000000011 0.076841883048342857 0.13172894236858776 0.64583333333333337 0.0025754697065653374 1.0000000180025095e-35 0.035204119933387373 0.58467741935483886 0.018914925058053627 0.3312500000000001 0.29375000000000012 0.64583333333333337 0.67105263157894746 0.012671133396013685 0.20512926909114307 0.02949156541229209 0.020146186242682652 0.41875000000000012 0.50000000000000011 0.095199786623165084 0.19736842105263161 0.0078319611568503297 0.024646522523129818 0.0014143972978678491 0.092105263157894746 0.020146186242682652 0.22916666666666669 0.14583333333333334 0.003542817922905219 0.77134694529907721 0.64583333333333337 0.38505383153894879 0.5921052631578948 0.51315789473684226 0.17105263157894737 0.092756583420194313 0.1381907539856955 0.60887096774193561 0.91666666666666674 0.22916666666666669 0.50000000000000011 0.039988264655009979 0.75000000000000011 0.41666666666666669 0.61367954401519964 0.3981422841460841 0.29280135106607569 0.25625000000000003 0.12016703892143782 0.18953980135707169 0.38420979457018156 0.29638774284580588 0.35416666666666669 0.27083333333333337 0.0047492910534080767 0.3937500000000001 0.64583333333333337 0.61842105263157898 0.10850749419463798 0.50422820956323389 0.62533800398021244 0.022167984599311238
decision_type=2 2 2 2 2 2 2 2 2 2 2 2 2 2 2 2 2 2 2 2 2 2 2 2 2 2 2 2 2 2 2 2 2 2 2 2 2 2 2 2 2 2 2 2 2 2 2 2 2 2 2 2 2 2 2 2 2 2 2 2 2 2 2 2 2 2 2 2 2 2 2 2 2 2 2 2 2 2 2 2 2 2 2 2 2 2 2 2 2 2 2 2 2 2
left_child=1 10 9 75 50 7 12 21 17 11 13 24 -7 45 65 -13 -6 25 19 -18 73 33 -9 29 34 -8 -19 32 37 89 -30 -32 -14 42 -3 -17 -37 52 57 -20 41 -25 -2 -44 70 -1 63 48 -35 81 -5 -48 54 -54 55 56 -26 67 -59 64 93 -57 -40 -22 -39 -15 -45 86 -51 -43 -29 -50 -53 -16 -75 -4 77 78 -77 80 -80 -31 83 -83 85 -61 -23 -68 -49 90 -11 -92 -93 -36
right_child=5 2 3 4 16 6 8 22 -10 23 -12 15 27 14 20 35 18 26 39 -21 46 38 -24 40 28 -27 -28 44 30 49 31 -33 -34 47 60 36 -38 59 62 -41 -42 69 43 66 -46 -47 51 88 71 68 -52 72 53 -55 -56 61 -58 58 -60 84 -62 -63 -64 -65 -66 -67 87 -69 -70 -71 -72 -73 -74 74 -76 76 -78 -79 79 -81 -82 82 -84 -85 -86 -87 -88 -89 -90 -91 91 92 -94 -95
leaf_value=-0.004030922559381634 0.063272869353904249 -0.0063617971077201728 0.009875642984713667 0.69413300578410819 -0.011507365734280435 0.015030098907098 0.43520470413436396 0.026950414739007073 0.5866610988472285 -0.0098715475171057485 -0.014799798089449374 0.010958339905331092 0.093739374845939305 0.042112061213375247 0.0099394323223416358 0.020241098694395332 0.067329474021406738 0.27365429199956082 0.17554431915590443 0.40992325980855959 0.07895378299793343 0.19041466289758682 0.0021440037471557464 -0.013991652309177083 -0.017070548825155376 0.19891570830345154 0.083611883805133402 0.087177066318548907 -0.0016475217689779578 -0.0041974444895386143 0.17983658447688849 0.0084024634077650272 0.19365741042874696 0.043298440146077179 0.023653648542865217 0.0046372987033949662 0.11987702591585131 0.0069048674818664923 0.016672496024924162 0.041244539418803149 -0.023271612120061857 -0.0078738480401710463 0.080442881848557329 0.07239207557656549 0.13482998004143543 0.020421561282185315 0.029183950649221121 0.03161746931820289 0.092338588881735559 0.14957312202819115 0.51789969817019887 0.10105378748661574 0.15937363560846513 -0.00059980366731414924 -0.0069776358004301365 -0.0072617552375858156 0.14909754209939446 0.079265054158766612 0.027118699684174075 -0.022645886566082043 0.010801058298959181 0.070315545864556878 0.045630979716913038 0.24753709643219529 -0.019241438695251304 0.075089026646888546 0.16516531151368896 0.023867144230554548 0.019372855319345027 0.05265803639895314 0.046024160448985323 0.028038038542604751 0.05105705231870581 0.018443141185337072 0.068272328070729735 0.017893007278264244 0.065943919938917336 -0.0038806970107678682 0.11922094378988822 0.16804757835445824 0.025760303050558042 -0.013495097821129984 -0.013925238609681782 -0.031479831710395922 -0.023322347306363816 -0.011331410984337808 0.056648457455583778 0.29985575347111143 0.069304152071203148 -0.016912667594907171 -0.0035745830259092171 0.049183208857202669 0.0093587072169246249 0.07232240805263325
leaf_weight=4042 1394 4103 21691 65 233 1616 98 7060 89 9133 4064 7030 491 987 7598 276 85 81 97 99 81 50 13195 5089 59 50 128 718 17198 5202 97 128 228 1826 672 120 614 3881 6580 222 40380 375 339 55 235 3502 1155 3747 1222 53 69 484 94 148 11543 737 136 1332 1018 6459 4446 194 1293 52 1930 3831 93 2567 362 492 1271 219 728 2363 582 9053 416 1402 91 91 863 9729 52779 8428 9140 25110 138 58 518 3975 7630 783 2119 447
leaf_count=4042 1394 4103 21691 65 233 1616 98 7060 89 9133 4064 7030 491 987 7598 276 85 81 97 99 81 50 13195 5089 59 50 128 718 17198 5202 97 128 228 1826 672 120 614 3881 6580 222 40380 375 339 55 235 3502 1155 3747 1222 53 69 484 94 148 11543 737 136 1332 1018 6459 4446 194 1293 52 1930 3831 93 2567 362 492 1271 219 728 2363 582 9053 416 1402 91 91 863 9729 52779 8428 9140 25110 138 58 518 3975 7630 783 2119 447
internal_value=0 -0.00494562 -0.00773237 0.0173224 0.173175 0.0316208 0.0809032 0.0258448 0.308693 -0.0113153 0.0211136 -0.00502617 0.0586189 0.0268586 0.0351112 0.0195006 0.0948482 0.239395 0.144114 0.25166 0.022839 0.0394279 0.0107904 -0.015374 -0.0073053 0.355377 0.157265 0.0825535 -0.00913695 -0.0126234 -0.000563302 0.0823096 0.125424 0.0532803 0.00725511 0.0789579 0.101037 -0.0116504 0.0293188 0.0820818 -0.0213216 -0.00810082 0.0784972 0.117438 0.0686937 0.00732016 0.0556217 0.0467885 0.0606186 -0.0148715 0.603386 0.0506071 -0.00295028 0.0615386 -0.00418213 0.0244755 0.098821 0.0414874 0.0566757 -0.014065 0.0172947 0.00890365 0.0214284 0.144866 -0.00177907 0.0683335 0.178318 0.0285318 0.0360008 0.0264764 0.0608798 0.0825663 0.0710227 0.0150655 0.0282905 0.0132878 0.019499 0.0178189 0.0208316 0.0462895 0.0346753 -0.0151488 -0.0159519 -0.0218431 -0.0158188 -0.0136463 0.0922246 0.216901 0.0361947 -0.00534337 -0.0030048 0.00294982 0.0201039 0.0430951
internal_weight=0 305037 275568 34477 870 47709 5005 42704 446 241091 29469 94562 4559 25405 17861 8040 736 357 503 184 13043 22449 20255 146529 86522 148 209 2943 76854 100193 17423 225 719 9471 9668 1010 734 59431 12978 319 46336 5956 1939 545 2224 7544 2500 7532 3267 76553 134 2367 12911 242 12669 1126 195 5105 2350 46520 5565 931 7873 133 5811 4818 206 2755 415 867 1989 1441 1212 10543 2945 33607 11916 11500 10098 1045 954 76138 70936 18157 40709 31569 188 151 4265 23640 19665 10532 2902 1119
internal_count=352746 305037 275568 34477 870 47709 5005 42704 446 241091 29469 94562 4559 25405 17861 8040 736 357 503 184 13043 22449 20255 146529 86522 148 209 2943 76854 100193 17423 225 719 9471 9668 1010 734 59431 12978 319 46336 5956 1939 545 2224 7544 2500 7532 3267 76553 134 2367 12911 242 12669 1126 195 5105 2350 46520 5565 931 7873 133 5811 4818 206 2755 415 867 1989 1441 1212 10543 2945 33607 11916 11500 10098 1045 954 76138 70936 18157 40709 31569 188 151 4265 23640 19665 10532 2902 1119
is_linear=0
shrinkage=0.1


Tree=3
num_leaves=95
num_cat=0
split_feature=25 0 0 11 0 11 0 20 12 31 11 0 25 25 20 0 0 6 16 12 12 25 6 16 29 16 16 4 11 6 0 6 0 20 4 26 6 11 0 31 22 0 31 31 0 20 0 16 20 31 11 0 11 16 29 31 0 6 24 6 11 26 11 16 29 12 4 26 20 31 20 12 31 31 16 31 31 20 25 4 16 4 12 6 16 31 20 31 12 14 31 31 0 31
split_gain=4468.28 1794.31 913.728 1980.23 791.172 1854.75 1217.45 756.917 823.633 1150.54 541.958 444.262 426.854 329.724 293.091 289.109 269.252 231.811 230.072 221.531 1069.07 214.605 197.018 161.64 243.633 152.469 151.661 139.354 133.075 133.062 131.064 132.085 125.574 106.454 105.484 106.935 103.148 100.72 182.51 173.078 122.118 99.2259 160.559 98.8815 126.207 97.5828 94.2931 94.3976 90.3511 88.0628 87.6381 85.9001 187.692 83.6746 83.4735 76.3282 73.9256 71.0714 70.3545 68.6092 78.3643 66.5033 61.2195 60.3199 86.5454 59.7363 59.5256 59.3108 58.4283 57.5756 51.3886 50.9814 49.2605 47.6269 64.2719 57.4706 47.3764 46.174 45.6844 51.8537 97.5382 46.6255 44.9078 44.1089 44.0293 43.5572 47.9859 43.4703 59.6846 53.5868 43.0086 42.9869 42.7372 82.5575
threshold=0.75000000000000011 0.062500000000000014 0.64583333333333337 0.96052631578947378 0.47916666666666669 0.96052631578947378 0.72916666666666674 0.61111111111110017 0.40936785986290941 0.95000000000000007 0.77631578947368429 1.0000000180025095e-35 0.91666666666666674 0.91666666666666674 0.72222222222221444 0.81250000000000011 0.14583333333333334 0.36875000000000008 0.66478696741854637 0.65567402894135574 0.64866717440974875 0.91666666666666674 0.35625000000000012 0.51190476190476197 0.50000000000000011 0.70112781954887227 0.40413533834586474 0.46184121149158913 0.48684210526315791 0.4562500000000001 0.14583333333333334 0.3312500000000001 1.0000000180025095e-35 0.61111111111110017 0.51300595357014445 0.089479239873087452 0.38125000000000003 0.27631578947368424 0.77083333333333337 0.22361111111111115 0.15000000000000005 0.72916666666666674 0.22361111111111115 0.034722222222222231 0.14583333333333334 0.61111111111110017 1.0000000180025095e-35 0.65726817042606511 0.16666666666667143 0.18055555555555561 0.75000000000000011 0.85416666666666674 0.38157894736842107 0.69611528822055135 0.50000000000000011 0.071527777777777787 0.81250000000000011 0.30625000000000008 0.82203389830508489 0.41875000000000012 0.35526315789473689 0.07614098987417646 0.43421052631578955 0.74624060150375937 1.0000000180025095e-35 0.65567402894135574 0.24271786470611742 0.10114171860460074 1.0000000180025095e-35 0.01041666666666667 0.27777777777777152 0.66633663366336637 0.21388888888888893 0.14583333333333334 0.68233082706766923 0.068750000000000019 0.19583333333333339 1.0000000180025095e-35 0.58333333333333337 0.22289926878970714 0.77631578947368418 0.11821233068286253 0.16976389946686979 0.13125000000000003 0.7299498746867169 0.12361111111111113 0.61111111111110017 0.29444444444444451 0.73579588728103584 0.56926456984273843 0.023611111111111114 0.068750000000000019 0.31250000000000006 0.036805555555555564
decision_type=2 2 2 2 2 2 2 2 2 2 2 2 2 2 2 2 2 2 2 2 2 2 2 2 2 2 2 2 2 2 2 2 2 2 2 2 2 2 2 2 2 2 2 2 2 2 2 2 2 2 2 2 2 2 2 2 2 2 2 2 2 2 2 2 2 2 2 2 2 2 2 2 2 2 2 2 2 2 2 2 2 2 2 2 2 2 2 2 2 2 2 2 2 2
left_child=1 11 12 10 30 6 17 8 -7 -10 13 28 43 29 21 36 32 25 -13 20 34 -12 85 24 -19 68 -26 -11 -1 37 50 33 -14 -32 35 -9 69 57 39 83 -41 42 59 48 46 -30 -45 -48 -2 -20 91 52 -24 -34 63 -27 90 -4 78 60 -15 -47 -33 72 -65 -16 -62 -66 -6 -8 -44 -42 -51 74 75 -58 -64 -18 -57 80 81 -80 -68 -39 -63 86 -17 88 89 -72 -43 -3 -35 -94
right_child=2 4 3 -5 5 7 15 19 9 27 14 18 16 41 65 22 77 23 49 -21 -22 -23 51 -25 26 55 -28 -29 45 -31 31 62 53 92 -36 -37 -38 38 -40 40 71 56 70 44 -46 61 47 -49 -50 54 -52 -53 -54 -55 -56 58 73 -59 -60 -61 66 84 76 64 67 -67 82 -69 -70 -71 87 -73 -74 -75 -76 -77 -78 -79 79 -81 -82 -83 -84 -85 -86 -87 -88 -89 -90 -91 -92 -93 93 -95
leaf_value=-0.0056952437632071772 0.18949806319549681 -0.023284794845415929 0.025397608156624642 0.52164643029371893 0.030094079902790519 -0.014491683208798789 0.067017198329497332 0.19432161054861399 0.054620532420548533 0.61395442612243434 0.38956603845453835 0.025752937536739146 0.02111441362861179 0.015854274358283498 0.12663269729421633 0.03472691451771906 0.081726527350586789 0.051620933581907405 0.039616484138955764 -0.027805207369965501 0.53567818517868337 0.17345307416042255 0.034383684275885118 0.026776884576985654 0.34523085852464042 0.0074420019933096292 0.12171593312670788 0.42782619763346558 0.0099430350560541694 0.21967782653097451 -0.014433512996110499 -0.0059337881788717392 0.042582724951664847 -0.0076403555498915331 0.0038538038079599735 0.044048423960543516 0.027738580359670119 0.11691435690390301 0.042953477296454018 0.30119001373013654 0.17150275111515201 0.082095204173181696 0.18648838032375684 0.034254548752731491 0.02419261578721554 0.042425799844753975 0.049642116734802143 0.1042601671384048 0.053078552872823884 0.12351343445296428 -0.026852633324765403 0.008944105254929691 0.21900383586946287 0.096470543773093526 0.056324621171480016 0.012103191589551381 0.069810844654692158 0.088824544947502401 0.032532951991785145 0.11516687999258168 0.080346930317368503 0.0128080251128428 0.015044102224177559 0.08372931740379759 0.27319637755505166 0.00086037309175091134 0.092999841011033993 0.14339933377271946 0.0026004330906051068 -0.020140593227109947 0.22185840512914906 0.074920879220911146 0.057615587655512605 0.023823173969267405 -0.0035113352632372462 0.19817699087115956 -0.010590461762937164 0.0060464508352859273 0.0068457549599188032 0.021674869783909076 0.18619207264038556 0.095469535954930282 0.030601159756571079 0.07369992820059755 0.030219086534327318 -0.0051783773806204211 0.0005604037070674274 0.04783478550974557 0.032988228791338559 0.10343692549098965 -0.0031393803700855861 0.0071393251828090858 -0.00849466882724308 -0.019337664088516886
leaf_weight=3432 50 497 773 90 797 83 76 81 88 66 73 3714 3729 1651 82 628 81 378 982 160 52 124 131 1591 51 7935 75 103 11812 58 84067 10078 1494 52157 206 114 462 296 1006 55 147 62 55 2895 8277 1618 1161 435 1673 165 965 126 95 357 949 7167 102 229 3294 101 395 3712 2961 175 52 70 127 109 25629 27761 58 87 363 577 67 53 953 17115 153 1102 57 97 1256 1169 2386 6396 1190 188 68 112 1311 7082 19776 10888
leaf_count=3432 50 497 773 90 797 83 76 81 88 66 73 3714 3729 1651 82 628 81 378 982 160 52 124 131 1591 51 7935 75 103 11812 58 84067 10078 1494 52157 206 114 462 296 1006 55 147 62 55 2895 8277 1618 1161 435 1673 165 965 126 95 357 949 7167 102 229 3294 101 395 3712 2961 175 52 70 127 109 25629 27761 58 87 363 577 67 53 953 17115 153 1102 57 97 1256 1169 2386 6396 1190 188 68 112 1311 7082 19776 10888
internal_value=0 -0.00445106 0.0284587 0.0546031 -0.00695913 0.000986454 -0.000565502 0.13972 0.259385 0.347835 0.0505427 0.0190023 0.0211332 0.0462688 0.173039 -0.0142526 0.0125966 0.00987559 0.0420626 0.0733473 0.109074 0.253536 0.00184346 0.0424106 0.0917623 0.00840123 0.212186 0.500515 0.0124648 0.069367 -0.0105725 -0.0111442 0.0316836 -0.0119267 0.0537543 0.10647 -0.0191249 0.0670496 0.0769085 0.0963833 0.167109 0.0319982 0.0413204 0.0345506 0.031516 0.0156564 0.0450133 0.0645286 0.0570373 0.0637349 0.00153036 0.0751039 0.11199 0.052976 0.0767985 0.0150349 0.0147831 0.0398934 0.0201107 0.0339349 0.0315423 0.0244027 -0.0018116 0.0992865 0.132409 0.0687112 0.0461097 0.185321 0.00342963 -0.0199026 0.0955213 0.135594 0.0782087 0.0389672 0.0783281 0.113704 0.00880247 0.00640293 0.0153393 0.0318003 0.0681462 0.0412318 0.0363312 0.0824313 0.0196206 -0.00129602 0.0123627 0.0837767 0.112168 0.14384 0.000709523 0.00514424 -0.00938213 -0.0123447
internal_weight=0 305037 47709 10442 275568 86144 85191 953 340 257 10352 29469 37267 10003 349 36865 22776 48326 6509 613 453 197 8566 2095 504 46231 126 169 22960 3820 189424 180880 5580 166888 401 195 28299 3762 2760 1754 289 6183 4011 14491 12768 19528 4491 1596 1723 2795 8544 352 226 1851 1813 19805 2172 1002 11870 3530 3429 7716 13992 864 336 152 1778 161 26426 27837 481 234 528 799 222 155 3914 17196 8576 1409 307 250 1383 1465 6098 8214 1818 426 238 170 1373 7579 82821 30664
internal_count=352746 305037 47709 10442 275568 86144 85191 953 340 257 10352 29469 37267 10003 349 36865 22776 48326 6509 613 453 197 8566 2095 504 46231 126 169 22960 3820 189424 180880 5580 166888 401 195 28299 3762 2760 1754 289 6183 4011 14491 12768 19528 4491 1596 1723 2795 8544 352 226 1851 1813 19805 2172 1002 11870 3530 3429 7716 13992 864 336 152 1778 161 26426 27837 481 234 528 799 222 155 3914 17196 8576 1409 307 250 1383 1465 6098 8214 1818 426 238 170 1373 7579 82821 30664
is_linear=0
shrinkage=0.1


Tree=4
num_leaves=95
num_cat=0
split_feature=3 11 0 3 3 0 0 3 31 3 1 3 0 1 7 3 0 3 3 30 1 7 1 1 1 31 1 7 3 0 0 3 7 3 3 3 28 11 3 1 3 11 0 3 11 1 11 3 1 1 7 11 3 7 31 3 1 11 31 1 1 31 11 3 1 7 0 3 3 3 7 1 3 0 3 7 3 7 30 7 1 28 1 1 1 1 7 0 11 31 1 1 33 7
split_gain=24765.1 2397.34 3240.87 3169.1 2316.34 1093.22 1648.12 1327.22 1054.85 1145.45 928.297 843.598 806.398 776.364 571.168 495.97 1349.99 752.146 476.219 542.492 415.174 368.544 350.249 362.651 337.997 277.859 265.927 278.583 249.542 293.85 357.731 244.943 363.025 270.352 231.652 230.141 236.507 211.506 204.666 201.11 599.424 195.691 186.08 860.794 173.867 173.253 171.057 166.383 165.989 164.275 157.332 147.86 189.716 146.801 286.956 367.225 158.892 145.783 144.354 188.601 412.107 143.139 136.786 139.281 260.815 136.158 134.983 127.984 123.919 123.814 232.078 156.84 136.195 123.016 121.833 117.669 116.226 109.379 100.058 97.9541 164.333 97.6805 96.9873 191.465 288.036 95.7217 93.8569 113.158 89.998 127.726 88.8381 83.9556 83.3808 80.5342
threshold=1.0000000180025095e-35 0.96052631578947378 0.68750000000000011 0.093183007358229888 0.69014256403249996 0.14583333333333334 0.43750000000000006 0.088433630049972831 0.76041666666666685 0.14571383720589434 0.88725490196078438 0.13272936881051497 0.72916666666666674 0.20098039215686278 0.061277543946521427 0.085135352454808605 0.31250000000000006 0.35033328176867801 0.0087348210414964818 1.0000000180025095e-35 0.31862745098039219 0.17417677642980942 0.35784313725490197 0.40686274509803927 0.74019607843137269 0.14583333333333334 0.13235294117647062 0.12985887595939594 0.21064664289511356 0.81250000000000011 0.85416666666666674 0.14571383720589434 0.19844020797227041 0.1123036561045135 0.0064984086675449514 0.13168554194944146 0.000224674845413383 0.53947368421052644 0.18928965479194251 0.97549019607843146 0.37917466913254 0.61842105263157898 0.22916666666666669 0.31076489723574802 0.61842105263157898 0.64215686274509809 0.32894736842105271 0.11776233028440571 0.20098039215686278 0.12254901960784315 0.031567219608814069 0.56578947368421062 0.28491688464392179 0.10460510027234464 0.19583333333333339 0.22955367574991412 0.13235294117647062 0.90789473684210531 0.078472222222222235 0.5931372549019609 0.54411764705882371 0.27222222222222231 0.30263157894736847 0.60177655397449092 0.43627450980392163 0.01516464471403813 1.0000000180025095e-35 0.091818026726813731 0.017545887429425252 0.74828660148554738 0.10460510027234464 0.33823529411764713 0.85611189340123917 0.68750000000000011 0.61618650182930612 0.14372369398365936 0.34263395153927562 0.0200916068333746 1.0000000180025095e-35 0.003998514483783115 0.24019607843137256 1.0000000180025095e-35 0.93627450980392168 0.2990196078431373 0.43627450980392163 0.46568627450980399 0.17095815795989108 0.81250000000000011 0.51315789473684226 0.17638888888888893 0.72058823529411775 0.17156862745098042 0.034884452829413382 0.14298093587521668
decision_type=2 2 2 2 2 2 2 2 2 2 2 2 2 2 2 2 2 2 2 2 2 2 2 2 2 2 2 2 2 2 2 2 2 2 2 2 2 2 2 2 2 2 2 2 2 2 2 2 2 2 2 2 2 2 2 2 2 2 2 2 2 2 2 2 2 2 2 2 2 2 2 2 2 2 2 2 2 2 2 2 2 2 2 2 2 2 2 2 2 2 2 2 2 2
left_child=-1 4 -3 34 5 10 15 12 14 47 22 92 18 26 28 -7 39 46 19 57 25 -21 -2 67 75 -16 49 -28 29 -9 -31 32 88 -34 -4 36 -35 48 -12 42 -41 -29 53 85 61 69 -18 -10 77 -6 -47 -26 81 62 55 -55 76 -8 59 60 -22 -33 63 -17 -65 -14 -40 -24 73 -15 -71 -72 -73 -39 82 -25 -57 91 -75 -19 -81 -53 83 -58 -85 -44 87 -67 89 -27 -86 -20 -5 -82
right_child=1 2 3 11 13 6 7 8 9 -11 38 -13 65 45 20 16 17 79 37 21 58 -23 23 24 51 31 27 41 -30 30 -32 44 33 35 -36 -37 -38 68 66 40 -42 -43 43 -45 -46 50 -48 -49 -50 -51 -52 52 -54 54 -56 56 74 -59 -60 -61 -62 -63 -64 64 -66 86 -68 -69 -70 70 71 72 -74 78 -76 -77 -78 -79 -80 80 93 -83 -84 84 90 -87 -88 -89 -90 -91 -92 -93 -94 -95
leaf_value=-0.0323696917267986 0.028616178190668314 -0.0066902629810758965 0.24190189721537569 0.56870155186225213 0.19608715627470671 0.00033337108268081982 0.045556103670595621 0.016294633753875118 0.30866380759897377 0.051285065914644525 0.010763341097787546 0.17579799828204243 0.033911445054996235 0.020068579046629901 0.17147220403047755 0.012197503459870987 0.05310041989289465 0.077838892829914935 0.013540408315915046 0.11676399404564092 0.065437699552593667 0.33751773537145158 0.078180150229224851 0.0078911884718647456 0.081224424710022822 0.090607040371362343 0.17628261519350474 0.43961796217104965 0.077679539006210233 0.36804735976486258 0.053633642983975029 0.07073279319740057 0.053876161702315919 0.35727753524235856 0.00090296846595618258 0.11386229662214949 0.17500890051992035 0.068601689858120415 0.039139101985010326 0.02407104308952655 0.28731827970424834 0.23371040869946824 0.12211035277578049 0.43688789957075147 0.032663958934856067 0.097820141475178105 0.016411266216720361 0.52965217635206796 0.014272267368467715 0.055229205562651089 0.23561442046495223 0.14614758391833896 0.14568485273561682 0.013790135416198277 0.0035089290224413214 0.066112322029140261 0.022803979392448551 0.1323046396552669 0.029705617457087947 0.027516152886339358 0.40487873390457541 0.20898960226406463 -0.002752305821349871 0.2255933436492665 0.026533318830901112 -0.010238988794895626 0.1504352253604809 0.13370854056318374 0.051566112030956783 0.057440956293069383 0.023040448328538334 0.09733999407826327 0.26424568440224833 -0.0090255453299052622 0.18091470340350227 0.040069292088063556 0.20452492913852136 0.024427715579047955 0.11483167322884713 0.04461671685823039 0.14570486842690375 0.040929525699308356 0.0035678156190591366 0.18896403925906305 0.04332093513015825 0.021040415128992518 0.013229721348582524 0.021402364270148896 0.061821800939130145 0.23362758244151502 0.15054252975625623 0.071780657143908869 0.68837538383093233 0.049805205084461096
leaf_weight=141526 6540 541 51 195 145 40356 2366 5978 56 156 12443 55 1172 519 302 3157 2429 868 314 247 110 109 2518 1470 3030 918 349 85 854 52 119 1874 176 127 183 192 162 343 1799 5068 88 101 96 51 1722 356 2665 87 12257 193 108 91 196 9722 20348 126 955 211 3295 181 53 78 19932 90 245 9028 116 497 4043 1149 64 78 131 956 67 5008 117 2237 70 232 997 2901 471 212 634 3921 3241 1292 1580 67 88 1169 83 96
leaf_count=141526 6540 541 51 195 145 40356 2366 5978 56 156 12443 55 1172 519 302 3157 2429 868 314 247 110 109 2518 1470 3030 918 349 85 854 52 119 1874 176 127 183 192 162 343 1799 5068 88 101 96 51 1722 356 2665 87 12257 193 108 91 196 9722 20348 126 955 211 3295 181 53 78 19932 90 245 9028 116 497 4043 1149 64 78 131 956 67 5008 117 2237 70 232 997 2901 471 212 634 3921 3241 1292 1580 67 88 1169 83 96
internal_value=0 0.021689 0.168397 0.335455 0.0209154 0.0195936 0.016222 0.0300547 0.0524073 0.23868 0.0352705 0.533636 0.0196731 0.104318 0.0492853 0.00922266 0.0141588 0.0549858 0.0308567 0.0686438 0.0636691 0.184354 0.048062 0.0561567 0.0487529 0.0775861 0.185094 0.228962 0.0270268 0.0199919 0.149245 0.0734745 0.0935997 0.159923 0.0534284 0.198726 0.255106 0.0256751 0.0154471 0.00960898 0.028564 0.327808 0.00798639 0.028639 0.0558252 0.0749975 0.033906 0.443111 0.0198875 0.115656 0.129893 0.0654069 0.0503733 0.0064905 0.0108149 0.0228115 0.0556602 0.0526589 0.036141 0.0977824 0.175808 0.0762574 0.000446236 0.0187032 0.0800121 0.00121062 0.0458808 0.0873336 0.0427609 0.0618746 0.0771329 0.160012 0.201956 0.0167569 0.0479411 0.0327674 0.132755 0.0383893 -0.000575248 0.103951 0.121057 0.0441297 0.044166 0.0542887 0.0864814 0.0234558 -0.00161553 -0.00627769 0.0766116 0.100335 0.0563895 0.0594493 0.604432 0.137282
internal_weight=0 211220 1108 567 210112 206834 170225 57194 18139 299 36609 333 39055 3278 17840 113031 72675 7287 24322 2933 10837 356 22251 15711 12696 7198 873 535 7003 6149 171 6896 3222 657 234 481 289 21389 14358 65388 5156 186 60232 4068 3674 2405 5094 143 15977 338 464 6218 3188 56164 32740 12392 2670 2577 3639 344 163 1952 23424 3492 335 14733 1915 3015 5412 1941 1422 273 209 1369 2427 6478 243 3720 1026 2193 1325 2992 2360 1889 934 4017 13561 10320 2565 985 722 1483 278 1093
internal_count=352746 211220 1108 567 210112 206834 170225 57194 18139 299 36609 333 39055 3278 17840 113031 72675 7287 24322 2933 10837 356 22251 15711 12696 7198 873 535 7003 6149 171 6896 3222 657 234 481 289 21389 14358 65388 5156 186 60232 4068 3674 2405 5094 143 15977 338 464 6218 3188 56164 32740 12392 2670 2577 3639 344 163 1952 23424 3492 335 14733 1915 3015 5412 1941 1422 273 209 1369 2427 6478 243 3720 1026 2193 1325 2992 2360 1889 934 4017 13561 10320 2565 985 722 1483 278 1093
is_linear=0
shrinkage=0.1


Tree=5
num_leaves=95
num_cat=0
split_feature=3 3 10 0 3 2 3 0 10 0 2 3 0 0 6 0 25 16 3 3 3 10 3 3 10 5 10 10 0 10 10 3 3 25 25 3 3 26 3 0 0 10 3 26 2 3 10 0 3 26 0 3 16 29 24 23 3 0 0 26 2 3 5 25 6 25 25 25 10 0 15 10 3 21 3 10 3 0 21 6 2 3 3 0 10 0 10 6 6 10 10 2 10 3
split_gain=20059.7 1857.6 1537.55 2867.24 2922.97 1259.01 1978.44 1413.08 1378.4 1093.38 931.234 597.124 545.484 686.844 739.916 375.404 372.789 360.792 340.262 327.463 309.672 581.758 587.466 570.054 287.905 284.643 221.301 248.912 217.993 215.904 211.925 192.012 390.038 276.76 251.132 373.932 181.684 180.229 165.788 150.336 639.692 449.513 145.017 144.711 142.219 190.825 141.153 140.009 137.375 132.203 131.149 129.416 129.237 281.389 129.165 126.885 122.498 188.033 227.474 122.41 121.216 112.527 109.826 103.881 103.367 103.149 141.099 102.941 98.512 94.866 90.7455 88.1277 87.6045 104.483 87.5539 144.659 80.2339 79.4757 96.6406 109.083 78.411 78.4039 76.5927 117.388 79.0845 116.469 75.9032 92.651 91.1963 96.2287 116.333 75.7982 74.1464 309.621
threshold=1.0000000180025095e-35 0.69014256403249996 0.68123284779396254 0.68750000000000011 0.10765342633838454 0.50000000000000011 0.38971562302766544 0.43750000000000006 0.10259658011399624 0.77083333333333337 0.50000000000000011 0.13272936881051497 0.14583333333333334 0.64583333333333337 0.36875000000000008 1.0000000180025095e-35 0.58333333333333337 0.65476190476190477 0.082919258131547199 0.15361116459072952 0.076670915254367214 0.54823728097952296 0.14571383720589434 0.11563407153388462 0.076841883048342857 0.50000000000000011 0.2811906269791008 0.15326155794806845 0.72916666666666674 0.029660122440363104 0.16803884314967285 0.1123036561045135 0.14571383720589434 0.91666666666666674 0.75000000000000011 0.010740022616728078 0.74828660148554738 0.044387906767550382 0.31076489723574802 0.85416666666666674 0.81250000000000011 0.10850749419463798 0.088433630049972831 0.062167073486988113 0.83333333333333337 0.43720214285851305 0.19041587502638807 0.68750000000000011 0.14698836706155977 0.012671133396013685 0.64583333333333337 0.21064664289511356 0.43796992481203006 0.50000000000000011 0.41525423728813565 0.50000000000000011 0.12101876435637643 0.85416666666666674 0.81250000000000011 0.015701239380344695 0.50000000000000011 0.0076091257549802923 0.30000000000000004 0.75000000000000011 0.13125000000000003 0.58333333333333337 0.91666666666666674 0.58333333333333337 0.2165927802406587 0.68750000000000011 0.42481423543214708 0.29280135106607569 0.28491688464392179 0.5 0.0053718637988350833 0.59679121807050894 0.017545887429425252 0.72916666666666674 0.68181818181818199 0.4562500000000001 0.83333333333333337 0.18483115705011999 0.60177655397449092 0.22916666666666669 0.0014988389275913028 0.35416666666666669 0.32320033776651896 0.18125000000000005 0.15625000000000003 0.2165927802406587 0.18788262613468446 0.83333333333333337 0.016233903314333973 0.38971562302766544
decision_type=2 2 2 2 2 2 2 2 2 2 2 2 2 2 2 2 2 2 2 2 2 2 2 2 2 2 2 2 2 2 2 2 2 2 2 2 2 2 2 2 2 2 2 2 2 2 2 2 2 2 2 2 2 2 2 2 2 2 2 2 2 2 2 2 2 2 2 2 2 2 2 2 2 2 2 2 2 2 2 2 2 2 2 2 2 2 2 2 2 2 2 2 2 2
left_child=-1 2 5 60 61 6 12 44 28 16 29 63 15 19 18 42 20 62 76 65 74 48 23 -23 38 68 27 50 51 -3 80 34 33 37 -27 71 -32 -33 -21 40 67 55 -2 54 92 -46 -26 64 86 -44 82 -9 53 -16 -29 -42 77 58 -58 -37 72 -5 -17 -6 -38 -14 -67 -20 -18 -31 -52 -36 -4 -74 75 -10 -15 78 79 -54 -12 -69 83 -8 -85 -86 88 -88 89 90 -22 -50 93 -7
right_child=1 10 3 4 11 7 26 8 9 -11 30 -13 13 14 52 17 25 -19 39 24 21 22 -24 -25 46 31 -28 43 -30 69 36 32 -34 -35 35 59 47 -39 -40 -41 41 -43 49 -45 45 -47 -48 -49 91 -51 70 -53 56 -55 -56 -57 57 -59 -60 -61 -62 -63 -64 -65 -66 66 -68 81 -70 -71 -72 -73 73 -75 -76 -77 -78 -79 -80 -81 -82 -83 -84 84 85 -87 87 -89 -90 -91 -92 -93 -94 -95
leaf_value=-0.029132722716884281 0.038611757748570182 0.11644183880497012 0.035437789863322758 0.14346092649172118 0.58848582880169742 -0.0016589726372308667 0.063191985013478877 0.010393759901922333 0.043790516388578539 -0.011045586357337663 0.030931071822263231 0.18893252464908142 0.0049365137777946898 0.043444593108352567 0.10169318207371675 -0.010661647505102493 0.054055542988198493 0.078269739418914783 0.031315785152810242 0.049466539596171269 0.10917359334727128 0.09736019456211259 0.016030847879103673 0.52518274835892953 0.02742862578089263 0.047409660873019094 0.028675849510305135 0.37535705944833658 -0.010280909613768069 0.22524452869463893 0.042780884316093046 0.42104063869865488 0.067872324276292556 0.12387694151257166 0.20093415620235297 0.19110230580791013 0.31850104014604141 0.22314704121890094 0.14008244499155695 0.035000344780015569 0.44492361372032274 0.10650552123593138 0.012082246457648138 0.11011656244486195 0.0054855374307723062 0.068038812762922007 0.0087726679512492838 0.021764735564968343 0.030324351473264333 0.029483456695989504 0.23131842274865988 0.056510550395400427 0.10079875122392323 0.32955370764066649 0.18794387822529596 0.24495840925843484 0.095188772117641443 0.0045526377595961091 0.36725387547224292 0.055127848453298524 -0.0091227232055135065 0.0021288019318032913 0.039627665112123206 0.44415394609624692 0.16015763289210896 0.022770538302650609 0.0036459133387769602 0.070237353891914517 0.13007066149717716 0.13050888796035845 0.098418727349796953 0.37443062067031863 0.20075726467781727 0.037597899361737547 0.023671067735528656 0.17295913807671481 0.016846027058475047 0.044631425130941815 0.051913323074157504 0.2344376230805085 0.1036132965157881 0.19432711498146613 0.13077804278560001 0.072510411787850143 0.14228314382047877 0.0096307332287668378 0.060256745094253175 0.16519893421184109 0.054369381917202877 0.03364506212696363 0.27523183786869049 0.11656454495931848 -0.0060430486008553469 0.17433357119039333
leaf_weight=141526 5809 464 651 81 204 654 1242 14588 698 2858 1478 54 31376 1276 183 458 2044 2790 1211 1764 270 51 81 80 9680 590 426 60 5932 515 228 86 242 128 52 91 52 99 228 2435 65 199 9159 109 5122 539 6980 59 1568 8343 118 635 205 77 95 62 60 50 63 243 554 185 8379 66 199 9287 6599 561 186 133 91 67 78 79 4183 99 10196 426 212 87 165 56 417 399 627 74 155 184 1532 132 50 109 40575 118
leaf_count=141526 5809 464 651 81 204 654 1242 14588 698 2858 1478 54 31376 1276 183 458 2044 2790 1211 1764 270 51 81 80 9680 590 426 60 5932 515 228 86 242 128 52 91 52 99 228 2435 65 199 9159 109 5122 539 6980 59 1568 8343 118 635 205 77 95 62 60 50 63 243 554 185 8379 66 199 9287 6599 561 186 133 91 67 78 79 4183 99 10196 426 212 87 165 56 417 399 627 74 155 184 1532 132 50 109 40575 118
internal_value=0 0.0195201 0.0183399 0.106674 0.290817 0.0175028 0.0239935 0.00808557 0.0226949 0.044964 0.0940393 0.492493 0.0217533 0.0173562 0.0350134 0.0322419 0.0572585 0.0469192 0.0290103 0.0126886 0.0463389 0.0662969 0.227729 0.358626 0.0239084 0.0834793 0.0964246 0.105354 0.00598071 0.168514 0.0560678 0.115692 0.163212 0.236924 0.090406 0.146406 0.110542 0.315141 0.0598382 0.0520237 0.0712678 0.200313 0.0249212 0.198405 -0.00342368 0.0114414 0.0196124 0.160379 0.057741 0.0203772 0.0970776 0.0123174 0.105752 0.169175 0.260491 0.347303 0.0908018 0.168069 0.234539 0.0921748 0.0269055 0.045166 0.0370213 0.553205 0.192962 0.0082607 0.0148262 0.0482543 0.0603958 0.2058 0.173453 0.298617 0.051608 0.118658 0.0294588 0.0598353 0.0198045 0.0764284 0.103304 0.140616 0.0382303 0.0815 0.091292 0.0842614 0.108051 0.12828 0.0734868 0.117217 0.0660149 0.105486 0.13512 0.0359297 -0.00545893 0.0252414
internal_weight=0 211220 207927 1952 590 205975 121934 84041 37033 15878 3293 324 118276 83338 17424 34938 13020 11627 16061 65914 9192 4212 212 131 18652 3828 3658 3232 21155 1112 2181 1598 555 313 1043 453 538 185 1992 4589 2154 326 23311 264 47008 5661 16660 310 4000 17502 2968 15223 1363 260 155 127 1103 173 123 334 1362 266 8837 270 251 47262 15886 1828 2230 648 209 119 808 157 4980 797 11472 930 504 292 1643 617 2759 2342 1100 701 2323 339 1984 452 320 1677 41347 772
internal_count=352746 211220 207927 1952 590 205975 121934 84041 37033 15878 3293 324 118276 83338 17424 34938 13020 11627 16061 65914 9192 4212 212 131 18652 3828 3658 3232 21155 1112 2181 1598 555 313 1043 453 538 185 1992 4589 2154 326 23311 264 47008 5661 16660 310 4000 17502 2968 15223 1363 260 155 127 1103 173 123 334 1362 266 8837 270 251 47262 15886 1828 2230 648 209 119 808 157 4980 797 11472 930 504 292 1643 617 2759 2342 1100 701 2323 339 1984 452 320 1677 41347 772
is_linear=0
shrinkage=0.1


Tree=6
num_leaves=95
num_cat=0
split_feature=25 19 19 7 13 19 11 7 19 7 20 20 11 25 25 12 25 1 1 1 12 19 19 19 1 20 1 25 1 13 13 10 7 10 4 13 21 7 13 19 19 20 7 29 1 11 10 19 20 20 33 19 10 25 20 7 10 20 22 12 7 12 10 10 13 13 7 10 19 1 1 1 19 7 10 12 24 1 21 14 10 1 10 14 12 12 7 1 20 10 20 19 19 1
split_gain=2373.77 784.615 1086.46 972.775 1117.91 640.625 1204.33 495.516 423.437 400.594 373.36 257.472 251.631 180.982 179.273 165.02 155.394 151.536 221.811 299.235 149.088 140.914 125.905 336.679 123.143 132.296 118.851 117.69 115.921 115.841 115.441 105.223 100.968 128.368 98.9721 118.138 90.1454 83.451 99.6685 80.7268 87.7169 80.279 79.3415 79.0492 76.866 75.7215 73.7778 73.2971 70.7814 138.868 69.2838 68.2391 66.3983 65.0959 68.5984 60.8024 59.1793 100.556 75.3948 61.008 58.172 103.401 57.9374 57.4429 58.0159 67.7154 56.778 160.635 56.5612 56.0815 54.3817 51.8634 64.8187 53.7565 51.692 56.2705 61.7736 51.1171 50.269 48.3035 48.2328 57.3223 47.6274 48.543 47.076 47.0247 45.4046 45.0132 59.6438 44.9535 44.8957 44.2456 46.6007 51.5016
threshold=0.75000000000000011 0.83290193939598234 0.041089985277197746 0.45654865065610306 0.30241935483870974 0.83290193939598234 0.72368421052631593 0.16922505570685817 0.15641081520814923 0.38474870017331031 0.38888888888887158 0.72222222222221444 0.27631578947368424 0.91666666666666674 0.91666666666666674 0.5822543792840823 0.91666666666666674 0.88725490196078438 0.35784313725490197 0.36764705882352949 0.40936785986290941 0.021448411208939703 0.15641081520814923 0.13549765676107547 0.74019607843137269 0.38888888888887158 0.33823529411764713 0.91666666666666674 0.88725490196078438 0.77016129032258074 0.16532258064516131 0.17606079797340093 0.019868779400841797 0.026789107029765679 0.51300595357014445 0.71370967741935498 0.5 0.36494181728150538 0.30241935483870974 0.18953980135707169 0.64998261146662717 0.61111111111110017 0.290666006437237 0.50000000000000011 0.05392156862745099 0.61842105263157898 0.3981422841460841 0.037822932641264607 0.27777777777777152 0.61111111111110017 0.0025526086305594337 0.21051807105245826 0.0025754697065653374 0.58333333333333337 1.0000000180025095e-35 0.24461500371379058 0.13763985644922952 0.72222222222221444 0.2166666666666667 0.22536176694592538 0.0028596187175043333 0.74295506473724304 0.041566392231370076 0.018914925058053627 0.49596774193548393 0.50403225806451624 0.01068333745976727 0.011462951234958838 0.0043854340775421356 0.83823529411764719 0.42647058823529421 0.8970588235294118 0.002470397362458234 0.15560782371874229 0.63056786995989034 0.59596344249809607 0.66949152542372892 0.83823529411764719 0.13636363636363638 0.55862627197039794 0.25796917880515102 0.83823529411764719 0.3880092885792697 0.57620259019426479 0.65567402894135574 0.68370144706778369 0.43179004704134694 0.46568627450980399 0.72222222222221444 0.0023432552248258396 0.38888888888887158 0.056466389573620913 0.075440764850343719 0.30882352941176477
decision_type=2 2 2 2 2 2 2 2 2 2 2 2 2 2 2 2 2 2 2 2 2 2 2 2 2 2 2 2 2 2 2 2 2 2 2 2 2 2 2 2 2 2 2 2 2 2 2 2 2 2 2 2 2 2 2 2 2 2 2 2 2 2 2 2 2 2 2 2 2 2 2 2 2 2 2 2 2 2 2 2 2 2 2 2 2 2 2 2 2 2 2 2 2 2
left_child=1 2 7 37 43 8 12 44 13 11 -6 14 -7 28 -8 20 -10 18 -9 42 79 31 23 45 55 -26 30 56 62 -25 51 68 33 52 35 -22 78 46 -39 -28 63 -19 -20 -5 -1 91 53 71 -44 -50 -40 -24 -31 54 -3 -23 59 58 -58 -14 61 -46 -2 64 -41 -66 67 -54 85 -62 -67 73 -73 -15 75 76 -52 -64 -27 -12 81 -38 -56 -84 -13 -21 -65 88 -57 -30 -76 -4 -93 -94
right_child=5 3 22 4 10 6 9 17 16 -11 15 84 27 47 -16 -17 -18 41 19 21 34 24 26 29 25 36 39 -29 89 32 -32 -33 -34 -35 -36 -37 80 38 50 40 -42 -43 48 -45 60 -47 -48 -49 49 -51 74 -53 66 -55 82 87 57 -59 -60 -61 69 -63 77 86 65 70 -68 -69 -70 -71 -72 72 -74 -75 90 -77 -78 -79 -80 -81 -82 -83 83 -85 -86 -87 -88 -89 -90 -91 -92 92 93 -95
leaf_value=0.02499259309195339 0.062608658026907058 0.050349559117263812 -0.010168047074435633 0.4869862145391004 0.27174203830000793 0.007543426320267773 0.34912550862630209 0.0032420053761580965 0.018266801936740181 0.36763171876470246 0.078645054304174011 0.096431892953905071 0.1395191371056837 0.019484304693238457 0.15073770388703922 -0.03157007852287004 -0.00011450721915886398 -0.00063024283471074165 0.045995260324651233 0.10450535600908138 0.27483626148766943 0.010719640102996192 -0.020577035490953126 0.0082773672736519022 0.019705790211182003 0.051328696753712613 -0.0044302334931275045 0.041297245250402501 0.097150791283800386 -0.010956882840566387 -0.0091197041866906154 0.0025322406256241587 0.010427707393015913 0.21256827333798778 0.057319849611508968 0.083063512578092774 0.028342456588501021 0.17072881451424432 0.12236499892522211 -0.011587022394519171 -0.0078098853060924777 0.016616440301231432 0.042568459250456235 0.32392774756814613 0.0085609465697079178 -0.015810898547126914 -0.0067095430504910611 0.012241040025238341 0.15267844703626532 0.053397499843344201 0.14486962953954938 0.0035445794907214036 0.062987477172104026 0.020100774873621285 0.0057636147766394587 0.036977831807554221 0.26363388128719872 0.058669771556607908 0.12583576147382458 0.054215762464285902 -0.0061791266872354691 0.11573558378432479 0.036284022875772731 -0.016714706753944122 0.11369540259715111 0.031321166050412491 0.029599389768574364 0.24599018447778442 0.018537107930751518 0.0096791500995238797 -0.0096120644965024503 0.11005393301405141 0.0023010704902262941 0.042136654169364657 -0.024927321131582615 0.0063154170314144156 0.028917734237278211 0.071325359402900343 0.099441196450869573 -0.037778917494781163 0.024194674321099008 0.10658396864213895 0.092401617603590266 0.018638018114739155 -0.024107047116935808 0.024175230730651767 -0.0029531790469792827 0.0045185926353562521 0.10700745286914753 0.017057130032424317 0.025155574571307956 0.0030250958460678315 -0.013228016282702065 -0.002990161319454088
leaf_weight=956 1310 360 15894 58 81 1616 75 5353 7060 120 56 81 97 1828 116 198 13195 6791 1552 202 72 2984 1287 6372 1364 336 11927 1851 72 145 37059 4484 743 52 101 58 181 51 73 3650 21972 4479 275 61 631 9084 3314 7599 290 274 100 13216 375 4497 23826 507 54 173 150 618 23303 105 5013 53513 63 560 298 55 388 2466 772 59 1038 2454 270 133 85 454 614 98 684 194 122 332 54 114 2510 257 160 2622 531 7771 6838 17460
leaf_count=956 1310 360 15894 58 81 1616 75 5353 7060 120 56 81 97 1828 116 198 13195 6791 1552 202 72 2984 1287 6372 1364 336 11927 1851 72 145 37059 4484 743 52 101 58 181 51 73 3650 21972 4479 275 61 631 9084 3314 7599 290 274 100 13216 375 4497 23826 507 54 173 150 618 23303 105 5013 53513 63 560 298 55 388 2466 772 59 1038 2454 270 133 85 454 614 98 684 194 122 332 54 114 2510 257 160 2622 531 7771 6838 17460
internal_value=0 -0.00324423 -0.00505468 0.0109633 0.121152 0.0207426 0.0545907 0.00695221 0.0167756 0.211424 0.0705681 0.153924 0.039248 0.0262342 0.228639 0.0426177 0.00629241 0.0155153 0.0206957 0.026983 0.0807714 0.020769 -0.0083991 -0.00473926 0.0297426 0.043741 -0.0100248 0.0566569 0.0367447 0.0144187 -0.00615966 0.00817522 0.0378795 0.0599299 0.131581 0.189276 0.0600596 0.00840269 0.033831 -0.0121233 -0.0132283 0.00622405 0.0593888 0.403402 -0.00286502 -0.00743931 0.00742869 0.0185639 0.0841645 0.104446 0.0279738 0.00140402 0.0508381 0.00903675 0.00701747 0.0176606 0.0826925 0.114752 0.162312 0.0657884 -0.00386981 0.0238508 0.0437201 -0.0151778 -0.00495748 0.0123886 0.0631461 0.0863948 0.0441171 -0.00466155 0.0075971 0.0274963 0.00809635 0.0324663 0.021816 0.0559274 0.0915944 0.039194 0.0824246 0.00455707 0.0399966 0.0688194 0.00637499 0.03846 0.0482163 0.0755255 -0.0160981 0.040076 0.0537765 0.0191977 0.0082737 -0.00585377 -0.00371553 -0.00587132
internal_weight=0 305037 270560 34477 783 47709 5005 58944 42704 446 664 326 4559 22449 191 583 20255 31483 20213 14860 385 12469 211616 65087 7281 3373 146529 2943 9471 8040 51562 5188 1668 925 231 130 2009 33694 1243 94967 83040 11270 2391 119 27461 57047 32451 12978 839 564 1192 14503 873 29137 24640 3908 1092 377 204 715 26505 736 6777 61068 5045 1395 728 430 704 25769 1332 5379 1097 4282 1119 318 185 5467 950 154 1059 375 24280 454 135 316 56023 924 667 2694 801 47963 32069 24298
internal_count=352746 305037 270560 34477 783 47709 5005 58944 42704 446 664 326 4559 22449 191 583 20255 31483 20213 14860 385 12469 211616 65087 7281 3373 146529 2943 9471 8040 51562 5188 1668 925 231 130 2009 33694 1243 94967 83040 11270 2391 119 27461 57047 32451 12978 839 564 1192 14503 873 29137 24640 3908 1092 377 204 715 26505 736 6777 61068 5045 1395 728 430 704 25769 1332 5379 1097 4282 1119 318 185 5467 950 154 1059 375 24280 454 135 316 56023 924 667 2694 801 47963 32069 24298
is_linear=0
shrinkage=0.1


Tree=7
num_leaves=95
num_cat=0
split_feature=30 2 1 1 11 13 11 1 12 12 26 11 6 16 2 1 1 1 1 1 1 11 2 26 1 1 1 1 6 2 11 11 13 4 1 26 1 12 24 4 11 24 24 16 6 26 11 11 11 1 1 1 1 27 27 6 4 16 24 2 13 11 1 6 13 22 24 16 11 1 11 17 11 2 6 27 15 13 11 1 11 14 11 11 11 17 11 4 13 6 12 14 11 1
split_gain=1922.75 896.878 602.317 741.794 719.122 1061.69 362.015 601.483 254.146 354.287 245.581 214.011 147.989 135.939 135.853 121.629 273.994 120.668 127.847 88.0752 385.028 401.449 239.591 149.654 96.917 127.547 153.537 101.345 94.2262 191.12 146.863 97.418 82.4481 78.6742 74.4426 70.9822 65.2636 64.4281 61.2811 61.5493 60.6917 58.2447 54.9345 54.2043 49.8914 49.7904 48.3485 53.1102 47.0336 45.7185 82.5529 118.777 74.9732 51.4577 45.3941 45.2852 43.7278 43.6464 41.6203 40.6719 40.3357 69.7402 39.9703 131.306 67.0785 53.5981 59.3253 46.8506 38.6168 38.5952 37.9852 37.5601 47.9415 63.5745 39.2678 57.5218 38.0341 58.103 36.9831 36.1715 35.8121 35.6788 35.6318 35.3829 44.8416 35.4391 49.8233 124.199 39.2158 44.9159 35.7772 35.1539 35.1496 34.383
threshold=1.0000000180025095e-35 0.50000000000000011 0.22058823529411767 0.20098039215686278 0.96052631578947378 0.30241935483870974 0.96052631578947378 0.20098039215686278 0.5822543792840823 0.40936785986290941 0.054160994385892607 0.48684210526315791 0.36875000000000008 0.66478696741854637 0.83333333333333337 0.23039215686274514 0.13235294117647062 0.33823529411764713 0.84803921568627461 0.15196078431372553 0.22058823529411767 0.69736842105263164 0.50000000000000011 0.012671133396013685 0.86764705882352955 0.35784313725490197 0.36764705882352949 0.83823529411764719 0.35625000000000012 0.50000000000000011 0.27631578947368424 0.17105263157894737 0.67338709677419362 0.51300595357014445 0.13235294117647062 0.053469320080196246 0.014705882352941178 0.19741051028179743 0.66949152542372892 0.66150557398010168 0.14473684210526319 0.7033898305084747 0.60169491525423735 0.65726817042606511 0.13125000000000003 0.031030161896292652 0.5921052631578948 0.51315789473684226 0.25000000000000006 0.83823529411764719 0.75000000000000011 0.74019607843137269 0.60294117647058831 0.033051365091724884 0.00055181591153115252 0.38125000000000003 0.19776641227474331 0.7550125313283208 0.72033898305084754 0.50000000000000011 0.97177419354838723 0.17105263157894737 0.20098039215686278 0.16875000000000004 0.59274193548387111 0.45000000000000007 0.27966101694915263 0.69987468671679209 0.27631578947368424 0.35784313725490197 0.69736842105263164 0.23576512786362802 0.40789473684210531 0.83333333333333337 0.18125000000000005 0.001421504595712435 0.47017989831834189 0.59274193548387111 0.065789473684210537 0.54411764705882371 0.56578947368421062 0.52694264569842753 0.30263157894736847 0.11842105263157895 0.32894736842105271 0.24110896963070449 0.77631578947368429 0.15213569345107289 0.59274193548387111 0.15625000000000003 0.067250571210967267 0.55862627197039794 0.77631578947368429 0.13235294117647062
decision_type=2 2 2 2 2 2 2 2 2 2 2 2 2 2 2 2 2 2 2 2 2 2 2 2 2 2 2 2 2 2 2 2 2 2 2 2 2 2 2 2 2 2 2 2 2 2 2 2 2 2 2 2 2 2 2 2 2 2 2 2 2 2 2 2 2 2 2 2 2 2 2 2 2 2 2 2 2 2 2 2 2 2 2 2 2 2 2 2 2 2 2 2 2 2
left_child=1 11 3 14 56 -6 19 -8 9 91 42 12 60 36 34 16 -14 -15 49 59 21 28 24 41 25 -22 -27 43 30 31 -21 -30 -18 -12 -3 -34 -13 -37 44 -40 54 92 -11 48 -25 -45 47 -29 -28 50 51 52 69 57 -26 -4 83 -53 78 -2 -1 79 -32 64 -64 66 -66 -67 -61 -19 -38 72 -60 76 -75 -76 -74 -78 -58 -62 -51 -47 -57 -5 -85 86 90 88 89 -88 -86 -7 -23 -16
right_child=6 2 55 4 5 8 7 -9 -10 10 33 13 15 17 93 -17 32 18 -20 20 22 23 -24 38 40 26 27 46 29 -31 62 -33 35 -35 -36 37 70 -39 39 -41 -42 -43 -44 45 -46 81 -48 -49 -50 80 -52 53 -54 -55 -56 82 58 -59 71 68 61 -63 63 -65 65 67 -68 -69 -70 -71 -72 -73 73 74 75 -77 77 -79 -80 -81 -82 -83 -84 84 85 -87 87 -89 -90 -91 -92 -93 -94 -95
leaf_value=-0.0020731293011691742 0.014196371848937857 -0.018608475743437217 -0.014010715396721156 0.063162173687525053 0.35826528081253395 0.060648027473482594 -0.015602763233972037 0.3349208741752725 -0.033567521800386149 0.2073873257014289 0.14838821312476849 -0.011233328900301754 -0.0065171201086768916 -0.0014608183459539515 0.001414257906655145 0.0060957073272366108 0.027559975470455758 0.011256154973111171 0.0085833597929647586 0.0073332198095857962 0.011357799820912269 0.17188876376392834 0.00053442629906191104 0.13113520036417026 0.14365644410514075 0.071515132336386539 0.039018912672811955 0.045094911211272952 0.074779733663348308 0.017399338244460525 0.026804130176274716 0.22805285327291736 0.19197173933622738 0.0091227038910514421 -0.0086507258205464899 0.14917831759080291 0.0077218406562876559 0.065757973919979992 0.084824759675625805 0.22126623521394589 0.0093659918803424488 0.11079889376450219 0.33971310288219131 0.068719300023093829 0.019612518679768515 0.045379529475401831 0.01836860105279316 0.09386496983958198 0.015460424469226429 0.080899034172890127 -0.012019368888617737 0.077665971765735586 0.0062323819995823556 0.046649760009828387 0.031212262286007715 0.026106526502426942 -0.028289805133779024 0.17648796460084748 0.0074608508499304131 0.045956386532431448 0.078252500274472614 0.0027388443684710209 0.054634206237926933 0.034074646082029272 0.24291469085402789 -0.00029948460548345388 0.11636948928145784 0.10524588190080003 -0.0027740989561080998 0.036273278385835876 0.0018753982884904636 0.0039101837414269444 0.015433584548475 0.040140940004075282 0.17245139657561459 0.047204482586720942 0.0097211788175627593 0.15057007775262551 0.002968651022937056 0.01139399250241695 0.028458288422669755 0.022067121586737348 -0.0086988066695246249 -0.0040996070276911514 0.084421404770442424 0.010928936036563017 -0.029704344418964218 0.20694920257026075 0.084563043003327384 0.078713723265662283 0.017422717138652632 -0.030696086488760911 0.26987091143114061 0.029095844710192512
leaf_weight=80869 5358 14385 86610 146 134 58 101 95 235 67 87 2671 660 3940 921 3559 207 781 7041 1748 5145 69 7921 54 57 835 989 526 73 200 1168 96 75 76 15703 125 22708 357 94 51 6991 66 59 375 156 996 281 388 5921 273 549 207 1820 650 97 494 388 57 2548 172 220 1184 440 1856 50 58 143 153 2982 2931 21764 4284 1671 278 67 81 64 54 15463 128 249 1926 727 1194 84 3219 112 51 107 58 1558 154 78 875
leaf_count=80869 5358 14385 86610 146 134 58 101 95 235 67 87 2671 660 3940 921 3559 207 781 7041 1748 5145 69 7921 54 57 835 989 526 73 200 1168 96 75 76 15703 125 22708 357 94 51 6991 66 59 375 156 996 281 388 5921 273 549 207 1820 650 97 494 388 57 2548 172 220 1184 440 1856 50 58 143 153 2982 2931 21764 4284 1671 278 67 81 64 54 15463 128 249 1926 727 1194 84 3219 112 51 107 58 1558 154 78 875
internal_value=0 -0.00291981 -0.00836023 -0.000996561 0.00968522 0.0993686 0.0186684 0.154294 0.0522325 0.0924781 0.164502 0.0024846 -0.000756616 0.00679944 -0.0118167 0.0159781 0.0406772 0.0140644 0.0182661 0.0181089 0.0201203 0.04223 0.0156552 0.122574 0.0205384 0.0245686 0.0301231 0.0270918 0.034605 0.0835552 0.0313887 0.161846 0.0814472 0.0834546 -0.0134115 0.101474 0.00394883 0.0873919 0.082814 0.132815 0.0107339 0.18884 0.269349 0.023866 0.0482898 0.0344158 0.0546453 0.0657982 0.0188323 0.0273358 0.0252053 0.0283757 0.0228581 0.0617714 0.0728312 -0.0137411 0.0072025 0.0990025 0.00529234 0.00889289 -0.00176861 0.014306 0.0422597 0.0489457 0.081648 0.111069 0.149153 0.0762334 -0.000116634 0.0310097 0.00486067 0.0107042 0.016815 0.0275754 0.0622934 0.103904 0.0193083 0.0741775 0.00220351 0.0536609 0.0558842 0.0300134 0.00538296 0.0144868 0.0133734 0.017394 0.0279579 0.0635401 0.0371363 0.00728535 0.0208502 -0.00570572 0.223879 0.0149006
internal_weight=0 305037 152012 64181 32297 870 47709 196 736 501 289 153025 87384 65641 31884 4983 1424 18498 14558 47513 39001 6553 32448 568 24527 17382 12237 11402 5985 369 5616 169 764 163 30088 557 47143 482 355 145 7145 213 126 10207 210 3297 1195 914 6910 7517 6995 6446 5532 914 154 87831 31427 264 24898 8512 82401 1532 3868 2700 844 404 193 211 3154 3712 44472 9047 4763 2215 426 148 1789 118 15851 348 522 2922 1221 6529 6383 5189 1970 328 277 170 1642 212 147 1796
internal_count=352746 305037 152012 64181 32297 870 47709 196 736 501 289 153025 87384 65641 31884 4983 1424 18498 14558 47513 39001 6553 32448 568 24527 17382 12237 11402 5985 369 5616 169 764 163 30088 557 47143 482 355 145 7145 213 126 10207 210 3297 1195 914 6910 7517 6995 6446 5532 914 154 87831 31427 264 24898 8512 82401 1532 3868 2700 844 404 193 211 3154 3712 44472 9047 4763 2215 426 148 1789 118 15851 348 522 2922 1221 6529 6383 5189 1970 328 277 170 1642 212 147 1796
is_linear=0
shrinkage=0.1


Tree=8
num_leaves=95
num_cat=0
split_feature=3 3 10 0 3 2 3 20 0 10 0 2 3 0 0 3 10 3 3 0 9 10 3 25 3 3 3 16 3 10 10 0 10 10 3 0 0 2 10 27 10 3 2 3 0 10 10 10 25 3 10 25 3 10 3 25 20 2 3 20 3 20 3 3 3 10 20 0 25 2 10 3 3 3 10 3 3 10 2 3 28 10 10 0 2 10 16 29 10 10 16 26 3 0
split_gain=14694.2 1556.67 895.537 1710.62 1879.81 807.664 1621.17 901.837 808.95 959.929 735.327 732.19 378.833 322.035 510.414 275.757 556.331 669.224 500.246 265.209 259.748 255.932 254.025 250.118 280.339 243.179 233.611 219.053 211.053 175.752 170.666 170.059 171.008 160.489 159.877 159.196 922.139 152.222 150.753 163.559 137.15 131.326 122.722 119.72 116.659 121.831 116.007 205.812 315.945 115.971 113.646 109.752 106.952 156.833 98.8658 97.9307 95.8417 92.981 91.7725 89.3073 86.6915 113.635 86.3298 82.7053 78.8293 77.6461 77.2356 75.1156 74.8553 74.8017 74.2316 103.577 73.7085 164.291 103.297 83.5019 72.318 71.6669 71.5138 70.6976 105.092 69.6427 83.5258 68.6179 68.4643 68.0957 73.9826 91.5578 66.9907 66.5471 66.1223 65.4197 64.902 64.5761
threshold=1.0000000180025095e-35 0.69014256403249996 0.68123284779396254 0.68750000000000011 0.10765342633838454 0.50000000000000011 0.36825739337977997 1.0000000180025095e-35 0.68750000000000011 0.10259658011399624 0.77083333333333337 0.50000000000000011 0.13272936881051497 0.14583333333333334 0.43750000000000006 0.080925116681338463 0.54823728097952296 0.14571383720589434 0.11563407153388462 1.0000000180025095e-35 0.75000000000000011 0.21363732320033782 0.085135352454808605 0.75000000000000011 0.0097618752823860708 0.082919258131547199 0.12652216961382148 0.65476190476190477 0.14698836706155977 0.029660122440363104 0.16803884314967285 0.22916666666666669 0.071353177116318375 0.097952290479206269 0.94270371806390785 0.81250000000000011 0.85416666666666674 0.83333333333333337 0.15326155794806845 0.0032095097184593295 0.017880515093941316 0.09722477345793297 0.50000000000000011 0.42592350279520147 0.22916666666666669 0.0014988389275913028 0.31665611146295131 0.37492083597213438 0.41666666666666669 0.60177655397449092 0.29280135106607569 0.91666666666666674 0.20355202356907223 0.17394975723031458 0.21064664289511356 0.75000000000000011 0.72222222222221444 0.83333333333333337 0.011667161823737801 1.0000000180025095e-35 0.088433630049972831 0.61111111111110017 0.0076091257549802923 0.3039435845260286 0.0076091257549802923 0.17732742241925273 0.61111111111110017 0.68750000000000011 0.41666666666666669 0.50000000000000011 0.21954823728097958 0.13963533433505562 0.0053718637988350833 0.022049037773708459 0.63056786995989034 0.0087348210414964818 0.021265352380281387 0.10977411864048979 1.0000000180025095e-35 0.56446143938641502 0.0065616285766891087 0.10850749419463798 0.10597424530293438 0.77083333333333337 0.83333333333333337 0.031517838294279087 0.47305764411027568 0.50000000000000011 0.011969601013299561 0.007705298712265149 0.75877192982456143 0.16514776934783779 0.28491688464392179 0.72916666666666674
decision_type=2 2 2 2 2 2 2 2 2 2 2 2 2 2 2 2 2 2 2 2 2 2 2 2 2 2 2 2 2 2 2 2 2 2 2 2 2 2 2 2 2 2 2 2 2 2 2 2 2 2 2 2 2 2 2 2 2 2 2 2 2 2 2 2 2 2 2 2 2 2 2 2 2 2 2 2 2 2 2 2 2 2 2 2 2 2 2 2 2 2 2 2 2 2
left_child=42 2 5 69 62 6 13 21 37 54 15 29 55 19 22 23 28 18 -18 60 38 -7 59 72 50 40 -20 76 46 -3 -13 52 63 35 91 -27 68 -9 44 43 58 89 -1 -40 49 -46 81 48 -48 -8 -25 56 -24 -54 64 66 -26 -56 88 -15 -2 -62 -5 -33 -10 -45 -6 -31 -37 92 71 -29 74 75 -11 -74 -21 -30 -51 -43 -81 82 -17 85 -79 86 87 -42 -16 -39 -72 -32 -4 -66
right_child=1 11 3 4 12 7 20 8 9 10 -12 30 -14 14 25 16 17 -19 26 27 -22 -23 31 24 51 33 -28 70 77 67 34 32 -34 -35 -36 36 -38 41 39 -41 83 79 -44 65 45 -47 47 -49 -50 78 -52 -53 53 -55 57 -57 -58 -59 -60 -61 61 -63 -64 -65 93 -67 -68 -69 -70 -71 90 -73 73 -75 -76 -77 -78 84 -80 80 -82 -83 -84 -85 -86 -87 -88 -89 -90 -91 -92 -93 -94 -95
leaf_value=-0.02833125884009784 0.030527940459341658 0.10397963809564004 0.026914507460733234 0.11437123524553983 0.42706816265548486 0.12487818314641055 0.055516856330501713 -0.0034417498229559287 0.03618889528764551 0.042900965832968499 -0.0080261775914728852 0.035246321181363345 0.14521830871149347 0.073231734436469395 0.075487776367467202 0.066442994066392605 0.090983011467116223 0.018896996133543297 0.61470878159298614 0.011274494295957067 0.021069786792037179 0.33642856831828211 0.0085165065007384352 0.13723983286939087 0.19951746116857977 0.053118326199475374 0.31886680509362902 0.064700189510871517 0.096857231020007331 0.20190425786592103 0.063926972089225487 0.045522155647032145 0.016951190478939431 0.035715589686048453 0.22962270847257274 0.25215665799145021 0.027383594246470175 -0.010723788358579636 0.094039375952903237 0.059536177367559298 0.053989912560446413 0.025692070060326595 -0.022381529544237163 0.31273759864662826 0.062662293685124063 0.1251459487993315 0.036030485814150713 0.080004432836563152 0.35425107800043548 0.17359138652304743 0.30087560787796974 0.025580863131967176 0.037813936884552861 0.010170278428924439 0.018859340954935598 0.3294832984606425 0.061764230549226723 0.11144525048275217 0.03924314560345854 0.002561709931683958 0.0097402883902399581 0.026136969666623072 -0.0094208525483672687 0.13399205561388625 0.005502069541125928 0.16166315658264005 0.5585943651921822 0.1176051086445052 0.398547736145556 -0.0068744780070237503 0.03867196335441065 0.12988753966102534 0.034146456578634236 0.036929703789419004 0.16512548033396404 -0.013612905124070289 0.034930833026086731 0.023402973380483902 0.076401833170243807 0.034663655526819638 0.17921819076329082 0.061206220485975488 0.19630363274408483 0.0092514179117749729 0.095672751652367466 0.020681180568067975 0.030727607148011461 0.17976355975883646 0.21132644677132953 0.015435805811448697 0.15620626257359982 0.18513468334078789 0.098544434584368762 -0.0073172747128900026
leaf_weight=60714 5809 464 651 81 138 264 1372 43419 670 886 2856 1643 54 180 126 115 56 116 51 1572 594 73 20347 126 80 1119 56 1319 166 515 407 2683 4118 4009 81 62 313 2065 63 111 177 2285 80812 95 446 1039 52 357 78 148 64 438 3572 4824 356 66 137 156 1843 27281 10361 7139 185 110 11834 53 66 133 80 554 1121 299 498 2924 75 1382 7262 1864 155 145 77 2371 87 5365 141 6025 555 86 51 1838 50 50 157 5883
leaf_count=60714 5809 464 651 81 138 264 1372 43419 670 886 2856 1643 54 180 126 115 56 116 51 1572 594 73 20347 126 80 1119 56 1319 166 515 407 2683 4118 4009 81 62 313 2065 63 111 177 2285 80812 95 446 1039 52 357 78 148 64 438 3572 4824 356 66 137 156 1843 27281 10361 7139 185 110 11834 53 66 133 80 554 1121 299 498 2924 75 1382 7262 1864 155 145 77 2371 87 5365 141 6025 555 86 51 1838 50 50 157 5883
internal_value=0 0.0167068 0.0156264 0.0830409 0.225274 0.0149875 0.0201862 0.00744484 0.00678754 0.0187106 0.0376211 0.0849234 0.387007 0.0180418 0.0146492 0.0483776 0.0648986 0.202487 0.333139 0.0260957 0.0821893 0.170704 0.0102538 0.0346059 0.0854151 0.0286525 0.459876 0.0384349 0.0575602 0.150961 0.0512536 0.0158215 0.029906 0.0463392 0.100138 0.0733977 0.123272 -0.00131808 0.0926158 0.157799 0.0217123 0.0130669 -0.0249339 0.209491 0.0859737 0.10638 0.0744791 0.119234 0.226963 0.0678823 0.192359 0.0543932 0.012435 0.021931 0.00372559 0.435365 0.112549 0.0470691 0.0458486 0.00302493 0.0199428 0.0164292 0.0282752 0.0490065 0.00251866 0.258637 0.469621 0.184602 0.334631 0.0214276 0.0628675 0.0767466 0.0271585 0.0221012 0.0524398 -0.000961755 0.0307212 0.0337132 0.123874 0.0309264 0.0848019 0.0660083 0.122373 0.0177185 0.0284853 0.0243568 0.05143 0.0951174 0.114628 0.00159528 0.0436905 0.0771882 0.0408327 0.00124536
internal_weight=0 211220 207927 1952 590 205975 121934 84041 83704 33875 14976 3293 324 117858 82926 12120 5510 279 163 34932 4076 337 63115 6610 845 19811 107 11623 5231 1112 2181 35654 6911 5583 538 1574 455 49829 3482 322 14228 6410 141526 211 3160 1485 3060 487 130 1675 190 655 28743 8396 18899 270 217 512 2020 27461 23309 17500 266 2793 18387 148 204 648 142 1362 2789 1618 5765 4804 961 1880 8834 2171 303 2507 222 2573 202 12208 2005 6843 818 263 177 3903 1171 457 808 17717
internal_count=352746 211220 207927 1952 590 205975 121934 84041 83704 33875 14976 3293 324 117858 82926 12120 5510 279 163 34932 4076 337 63115 6610 845 19811 107 11623 5231 1112 2181 35654 6911 5583 538 1574 455 49829 3482 322 14228 6410 141526 211 3160 1485 3060 487 130 1675 190 655 28743 8396 18899 270 217 512 2020 27461 23309 17500 266 2793 18387 148 204 648 142 1362 2789 1618 5765 4804 961 1880 8834 2171 303 2507 222 2573 202 12208 2005 6843 818 263 177 3903 1171 457 808 17717
is_linear=0
shrinkage=0.1


Tree=9
num_leaves=95
num_cat=0
split_feature=25 0 25 0 11 1 1 5 20 1 1 0 11 1 1 23 20 20 20 23 20 20 11 16 29 21 16 25 25 1 1 11 20 0 0 23 11 1 16 11 20 0 29 11 29 16 1 23 1 1 1 1 1 1 0 0 11 23 26 14 11 0 1 1 5 11 26 23 16 20 1 0 0 20 16 21 16 21 23 1 23 11 0 20 1 1 32 32 29 15 16 21 16 21
split_gain=1215.24 537.791 411.653 288.872 394.365 263.129 371.768 446.626 405.515 183.038 360.37 178.72 106.179 260.554 102.118 90.9562 89.4243 82.1138 80.1119 67.3128 67.2098 162.12 83.1428 64.8737 225.688 200.992 201.396 63.0352 61.2402 58.6899 114.281 56.236 47.0081 45.6992 65.666 56.7473 67.5455 52.0848 47.2806 45.44 68.5466 43.6295 42.6997 46.3766 61.2872 46.6531 42.9897 41.0987 39.1473 39.7308 38.4677 37.4034 59.1143 56.1508 57.381 113.839 56.3169 70.831 44.7136 38.6538 37.3078 37.1426 68.5961 49.0623 36.5835 36.5008 48.8713 42.8969 287.074 111.644 36.3855 35.5938 44.9358 51.6125 43.9073 286.195 103.547 33.8411 33.8223 32.9897 32.4705 37.1462 32.0732 30.5688 29.5892 29.5002 29.1097 28.3262 212.292 155.334 167.321 164.434 127.592 54.1194
threshold=0.75000000000000011 0.062500000000000014 0.91666666666666674 0.64583333333333337 0.77631578947368429 0.23039215686274514 0.15196078431372553 0.90000000000000013 0.61111111111110017 0.35784313725490197 0.40686274509803927 1.0000000180025095e-35 0.96052631578947378 0.20098039215686278 0.74019607843137269 0.282608695652174 0.72222222222221444 0.61111111111110017 0.38888888888887158 0.63043478260869579 0.27777777777777152 0.61111111111110017 0.69736842105263164 0.46553884711779453 0.50000000000000011 0.86363636363636376 0.3652882205513785 0.41666666666666669 0.58333333333333337 0.96568627450980404 0.98529411764705899 0.30263157894736847 0.38888888888887158 0.14583333333333334 0.47916666666666669 0.97826086956521752 0.82894736842105277 0.88725490196078438 0.68233082706766923 0.27631578947368424 0.16666666666667143 0.39583333333333337 0.50000000000000011 0.51315789473684226 1.0000000180025095e-35 0.7550125313283208 0.83823529411764719 0.45652173913043487 0.25000000000000006 0.42647058823529421 0.52450980392156876 0.33823529411764713 0.43627450980392163 0.63235294117647067 0.22916666666666669 0.27083333333333337 0.64473684210526327 0.63043478260869579 0.022167984599311238 0.57550878815911211 0.43421052631578955 0.14583333333333334 0.88725490196078438 0.014705882352941178 1.0000000180025095e-35 0.64473684210526327 0.071958531640227072 0.50000000000000011 0.76127819548872189 0.72222222222221444 0.68137254901960798 0.81250000000000011 0.22916666666666669 0.61111111111110017 0.57080200501253142 0.22727272727272727 0.59335839598997497 0.77272727272727282 0.5434782608695653 0.68137254901960798 0.065217391304347838 0.53947368421052644 0.93750000000000011 1.0000000180025095e-35 0.81862745098039225 0.41666666666666669 0.95256340743778833 0.39313595836386456 0.50000000000000011 0.45766523269456399 0.59586466165413532 0.31818181818181823 0.78508771929824561 1.0000000180025095e-35
decision_type=2 2 2 2 2 2 2 2 2 2 2 2 2 2 2 2 2 2 2 2 2 2 2 2 2 2 2 2 2 2 2 2 2 2 2 2 2 2 2 2 2 2 2 2 2 2 2 2 2 2 2 2 2 2 2 2 2 2 2 2 2 2 2 2 2 2 2 2 2 2 2 2 2 2 2 2 2 2 2 2 2 2 2 2 2 2 2 2 2 2 2 2 2 2
left_child=1 9 3 39 19 6 71 23 32 -1 20 17 15 -14 -13 41 -6 -12 -16 80 -11 22 -22 24 -8 -26 -27 65 -10 31 -31 48 47 37 -35 36 -36 38 -17 40 -2 -4 43 -20 -45 -46 -44 -9 -7 82 60 -33 85 54 -54 56 57 59 -59 -56 -19 62 63 -41 -32 86 83 -68 -69 -70 -51 72 73 -3 -75 76 -76 -77 -34 -55 81 -5 -50 -67 -81 -53 -25 88 89 93 -91 -92 -93 -29
right_child=2 5 12 4 16 29 7 8 28 10 11 14 13 -15 18 33 -18 50 42 -21 21 -23 -24 27 25 26 -28 87 -30 30 64 51 78 34 35 -37 -38 -39 -40 61 -42 -43 46 44 45 -47 -48 -49 49 70 -52 52 53 79 55 -57 -58 58 -60 -61 -62 -63 -64 -65 -66 66 67 68 69 -71 -72 -73 -74 74 75 77 -78 -79 -80 84 -82 -83 -84 -85 -86 -87 -88 -89 -90 90 91 92 -94 -95
leaf_value=-0.0091860690516497034 0.15057259847223758 -0.0067066953812116598 0.012221310116171316 0.064578605516079635 0.25415028772075421 -0.013396405676885421 0.0079450654513860651 0.16154766123668821 0.016867457810966741 0.021747719604046208 -0.0017012090257935597 0.001299692374507428 -0.026474178055567399 0.26743567833360637 0.014696877006077148 0.015257470765110271 0.10423576770912087 -0.0083149966146434523 0.029699665911891684 0.026919581334353227 0.069898182882803875 0.030964386856344884 0.13628737845781466 0.0042008773750712913 0.25385488633598602 0.2296345598476294 0.0032743180853239497 0.102632604620045 0.10291251414319845 0.012050346694918493 -0.00051240957478472591 -0.0033080819393425335 0.19815498081120578 -0.0026551761017038233 0.012440972441211581 -0.022758902455566644 0.099915503326079083 -0.00081444470228574399 0.049542282537819407 -0.0049548788605887689 0.0317510438293441 0.030056039395210163 0.015649553853976022 0.042222151906255598 0.079652511885914226 0.16660666931420565 0.048027806741399975 0.27670386120488372 0.0029037666467590295 -0.0079296791470176622 0.009128171396930047 -0.0097961585018983173 -0.0063211024976824633 -0.013694670114109984 0.10238910482730718 -0.00054852650619936164 -0.012598895180919846 0.065441496272611879 0.16593207385287517 0.018270446484079508 0.037127057118317812 0.013929388058427148 0.0094417276130478386 0.039323908274037311 -0.01525364511239035 0.035238485464728193 -0.0034909496793339156 0.0028103781799308776 0.26884744422776358 0.082765524618719763 0.00085534922451907438 0.0066849928543831708 -0.0097621446943918413 -0.0049150772828195173 0.069679113001182888 0.0063520251588846562 0.22730413871152064 -0.011839538061734746 0.087253962755203252 -0.0043001787311952701 0.049786451141584552 0.14667298920402252 0.052529579787656211 -0.010281155292290577 -0.010308744861768832 -0.01649920182815437 0.039248291260058375 0.0078682456694496496 0.0010390718958034368 0.021950206032297651 0.32159702262428219 0.19812314144770304 -0.0013675933317114999 0.024126981172230055
leaf_weight=4064 50 20589 6267 216 108 3110 1249 51 420 644 9728 1546 70 53 1914 1837 63 221 508 1471 626 974 270 18881 70 52 161 97 103 5131 3425 19305 55 12021 4603 458 90 1557 515 278 1675 1756 926 456 348 75 736 79 9739 11194 5443 23711 26181 11310 64 10312 168 115 72 373 990 8275 1707 2506 3311 152 1218 820 56 76 8145 2471 17292 6438 103 6189 70 1225 55 15721 2059 74 132 5017 17122 9080 240 10812 2573 122 53 75 56 927
leaf_count=4064 50 20589 6267 216 108 3110 1249 51 420 644 9728 1546 70 53 1914 1837 63 221 508 1471 626 974 270 18881 70 52 161 97 103 5131 3425 19305 55 12021 4603 458 90 1557 515 278 1675 1756 926 456 348 75 736 79 9739 11194 5443 23711 26181 11310 64 10312 168 115 72 373 990 8275 1707 2506 3311 152 1218 820 56 76 8145 2471 17292 6438 103 6189 70 1225 55 15721 2059 74 132 5017 17122 9080 240 10812 2573 122 53 75 56 927
internal_value=0 -0.00232126 0.0148414 0.0265225 0.050345 -0.00369435 0.000470172 0.00736423 0.0831984 0.0105187 0.0136708 0.00972382 0.00745479 0.10017 0.0237417 0.00706296 0.198919 0.00415416 0.0307324 0.0436942 0.0496097 0.0592049 0.0899039 0.00600939 0.026215 0.106848 0.058536 0.0052576 0.0338132 -0.00598719 0.000806481 -0.00647329 0.190817 0.0036142 0.00139278 0.0108396 0.0141185 0.0133728 0.0227646 0.0199615 0.0351951 0.0161248 0.0407987 0.0537529 0.067654 0.0950699 0.0299879 0.231527 -0.00273042 -0.00159481 0.0127146 -0.00737919 -0.00806722 -0.00662371 -0.00376626 0.00225753 0.038793 0.0526293 0.104133 0.0305899 0.0288342 0.0179031 0.025225 0.0349024 -0.00775829 0.00233977 -0.00365528 0.00893925 0.0248426 0.161709 -0.00422969 -0.00504107 -0.00559929 -0.00351967 0.00115895 0.0063131 0.133458 0.00334627 0.142704 -0.00903667 0.0541988 0.0855268 0.00356739 -0.0089426 -0.00743262 -0.0116523 0.00464078 0.0105043 0.0178068 0.0502453 0.112762 0.172974 0.112845 0.0315635
internal_weight=0 305037 47709 18482 3991 275568 97847 43470 763 29469 25405 22891 29227 123 6509 29104 171 16382 4963 3820 2514 1870 896 42707 1532 283 213 41175 523 177721 11867 165854 240 21081 17172 5151 4693 3909 2352 14491 1725 8023 3049 1387 879 423 1662 130 32320 29210 6654 133534 114229 81438 37285 11104 792 624 187 437 1211 12766 4491 2784 6736 26460 7339 2170 952 132 19339 54377 51906 34614 14025 7587 173 7414 110 44153 2349 290 9871 5169 32843 32791 19121 14715 3903 1330 306 184 131 1024
internal_count=352746 305037 47709 18482 3991 275568 97847 43470 763 29469 25405 22891 29227 123 6509 29104 171 16382 4963 3820 2514 1870 896 42707 1532 283 213 41175 523 177721 11867 165854 240 21081 17172 5151 4693 3909 2352 14491 1725 8023 3049 1387 879 423 1662 130 32320 29210 6654 133534 114229 81438 37285 11104 792 624 187 437 1211 12766 4491 2784 6736 26460 7339 2170 952 132 19339 54377 51906 34614 14025 7587 173 7414 110 44153 2349 290 9871 5169 32843 32791 19121 14715 3903 1330 306 184 131 1024
is_linear=0
shrinkage=0.1


Tree=10
num_leaves=95
num_cat=0
split_feature=3 3 11 19 3 19 2 3 19 7 19 19 0 7 3 3 7 3 0 3 19 3 3 19 19 2 19 2 13 13 19 3 7 11 19 0 3 0 19 10 3 7 3 4 19 19 3 10 3 11 3 7 7 3 3 7 0 10 3 11 13 2 3 13 3 3 3 3 10 26 3 7 10 3 28 26 3 4 10 10 19 3 0 3 7 10 13 26 10 19 31 19 19 2
split_gain=11354.7 1272.53 833.183 1284.81 1213.24 745.23 628 1317.58 1239.27 903.119 419.008 414.72 356.105 302.349 910.895 600.01 295.246 293.319 246.909 225.033 206.037 631.948 186.215 179.695 171.076 194.513 156.448 149.942 146.517 304.308 156.667 232.804 209.61 143.649 140.479 376.985 200.96 183.807 176.316 152.453 135.887 132.312 130.814 131.031 127.86 126.319 121.605 118.059 107.557 234.437 186.224 218.176 167.817 134.257 107.051 250.089 106.92 128.777 106.524 105.437 104.74 104.734 102.842 107.066 98.1924 97.7066 190.193 96.9052 92.2825 88.3181 87.8513 85.7873 98.6346 85.7581 84.4819 82.139 130.19 78.9959 94.3383 78.836 89.9194 77.8504 149.838 147.365 76.1953 121.249 75.7285 124.034 75.8922 181.005 75.5398 75.273 84.5214 88.3951
threshold=1.0000000180025095e-35 0.69014256403249996 0.96052631578947378 0.83290193939598234 0.093183007358229888 0.62533800398021244 0.50000000000000011 0.36825739337977997 0.83290193939598234 0.082817529091359268 0.037822932641264607 0.38420979457018156 0.27083333333333337 0.36494181728150538 0.1123036561045135 0.13846644502469038 0.12985887595939594 0.13272936881051497 0.64583333333333337 0.1051210770687221 0.044381358879412448 0.087358730882777999 0.26726433143000855 0.39152102174102893 0.83290193939598234 0.50000000000000011 0.045962030184042699 0.83333333333333337 0.76209677419354849 0.78629032258064524 0.83290193939598234 0.13846644502469038 0.071923743500866569 0.40789473684210531 0.020146186242682652 0.22916666666666669 0.111205163179717 1.0000000180025095e-35 0.031330000658772637 0.10132995566814443 0.52011678346833345 0.14372369398365936 0.025834161251764465 0.80586966076637245 0.003542817922905219 0.023229395353967734 0.0064984086675449514 0.18197171205404269 0.076670915254367214 0.51315789473684226 0.14571383720589434 0.19844020797227041 0.2279029462738302 0.10765342633838454 0.85611189340123917 0.10782371874226294 0.31250000000000006 0.041524171416508347 0.17554531915744723 0.61842105263157898 0.81854838709677424 0.50000000000000011 0.44690628184514342 0.16532258064516131 0.19638120947149154 0.0087348210414964818 0.022049037773708459 0.010740022616728078 0.59679121807050894 0.012671133396013685 0.111205163179717 0.019497400346620453 0.0078319611568503297 0.010740022616728078 0.0057686585340536384 0.022167984599311238 0.12204077075640761 0.24271786470611742 0.1203293223559215 0.007705298712265149 0.022003771856314035 0.021265352380281387 0.52083333333333337 0.013487409922960408 0.12119336469423127 0.0014988389275913028 0.96370967741935487 0.060739880493654759 0.00065442263035676602 0.021448411208939703 0.30555555555555564 0.13005167535071985 0.39152102174102893 0.50000000000000011
decision_type=2 2 2 2 2 2 2 2 2 2 2 2 2 2 2 2 2 2 2 2 2 2 2 2 2 2 2 2 2 2 2 2 2 2 2 2 2 2 2 2 2 2 2 2 2 2 2 2 2 2 2 2 2 2 2 2 2 2 2 2 2 2 2 2 2 2 2 2 2 2 2 2 2 2 2 2 2 2 2 2 2 2 2 2 2 2 2 2 2 2 2 2 2 2
left_child=24 2 6 -4 46 16 7 10 27 60 22 12 26 48 73 -16 91 69 19 -12 21 -20 34 -18 25 -1 -9 -8 30 42 67 -32 -33 -23 37 45 86 -2 -38 -40 -13 -39 43 71 81 58 -5 -28 65 77 51 70 -53 -54 61 -56 -21 64 -36 -25 -10 -7 79 -64 -58 68 -67 -22 -11 -6 -51 72 -30 74 -15 76 -55 78 -50 -29 -81 82 83 -43 85 -14 88 -88 89 -37 -57 -3 -93 -94
right_child=1 5 3 4 17 54 8 11 9 13 18 40 84 14 15 -17 23 -19 20 56 28 33 -24 59 -26 -27 47 62 29 -31 31 32 -34 -35 35 36 38 41 39 -41 -42 44 -44 -45 -46 -47 -48 -49 49 50 -52 52 53 75 55 90 57 -59 -60 -61 -62 -63 63 -65 -66 66 -68 -69 -70 -71 -72 -73 -74 -75 -76 -77 -78 -79 -80 80 -82 -83 -84 -85 -86 -87 87 -89 -90 -91 -92 92 93 -95
leaf_value=-0.025052720199292819 0.0040902638157750823 0.1538172844394203 -0.0077304960522739281 0.16209420222862095 0.32623989716084045 0.12176250515794251 -0.0032116866390901758 0.35868633654382831 0.017577545882719151 0.049176335611122363 0.0033931432305759571 0.022391052300023709 0.055454058576166393 0.030101476244136005 0.50670039109241816 0.1334794854907238 0.12748658176472721 0.11041426746284261 0.019001767646207202 0.013356498204426274 0.076414482354670132 0.38370526224374774 0.08280449419540635 0.34943113948942889 -0.033404741399752275 -0.017282473209495278 0.20475669523722728 -0.0043748830288848784 0.064692343902169616 0.019674131862885982 0.030707219350580617 0.084428632565374889 0.30914915381473002 0.18387909872421565 0.05236456369299447 0.17812744067104042 0.022348246451614328 0.012093129504955691 0.28438760962709786 0.092977496200898804 0.073501117303043012 0.30674191341294271 0.0695067312851015 0.30390890687704086 0.029614151004574697 0.029310119103009666 -0.014208018868452028 0.036843940429389481 0.25273232019864594 0.08127263884062319 0.016286271125782861 0.20595508337509988 0.0078574072816465276 0.28615526102483274 0.031918045322640677 0.24298066963689235 0.042712875805365397 0.016263351711273574 0.1513248646883546 0.20256647453686905 0.00013149771922996913 -0.0050862776668956083 0.13170937806465177 0.028868826986532342 0.11155590327111448 -0.0058989357009832802 0.03948189322177318 0.011072757013254948 0.15429707597313302 0.4420134853985575 0.028643983180687393 0.0095928280204534543 0.23971607753553906 -0.0082971932119236588 0.18933514820204841 0.074709573909248636 0.10181715780833983 0.083137511227417873 0.10420400780439376 0.075636966625140523 0.014016200146978486 0.041886308182337656 0.052545626322593436 0.10799974767120418 0.042556589458606527 0.11992986912681416 0.16072078401479742 0.0176877806908451 0.0069198616096243521 -0.011650497271745865 0.092693884600082349 0.069171796441143671 0.19355970763092586 0.08993960937277648
leaf_weight=59790 6155 231 546 51 169 71 51878 54 6280 1354 30796 1264 437 87 81 92 162 51 421 38593 233 55 554 90 11878 69858 215 2637 57 1506 836 140 59 104 5424 87 380 4096 50 248 884 57 496 50 5255 3168 168 52 65 417 1623 139 166 60 718 79 766 1600 111 107 7613 782 134 414 284 1329 3027 8768 89 108 1325 50 74 226 54 214 106 783 125 254 3499 419 237 108 299 877 87 200 7038 119 58 649 135 211
leaf_count=59790 6155 231 546 51 169 71 51878 54 6280 1354 30796 1264 437 87 81 92 162 51 421 38593 233 55 554 90 11878 69858 215 2637 57 1506 836 140 59 104 5424 87 380 4096 50 248 884 57 496 50 5255 3168 168 52 65 417 1623 139 166 60 718 79 766 1600 111 107 7613 782 134 414 284 1329 3027 8768 89 108 1325 50 74 226 54 214 106 783 125 254 3499 419 237 108 299 877 87 200 7038 119 58 649 135 211
internal_value=0 0.0146861 0.0137093 0.100789 0.20911 0.0763635 0.0132492 0.0178091 0.00659061 0.0251188 0.0158878 0.0736701 0.107262 0.0460296 0.119057 0.308225 0.125747 0.330802 0.0121388 0.0098611 0.0249089 0.0831499 0.0253052 0.205505 -0.0219183 -0.0208659 0.203451 -0.00136523 0.0221557 0.0453229 0.017001 0.0538464 0.151054 0.253001 0.0243468 0.0307344 0.0153616 0.0177303 0.0675076 0.125093 0.0434252 0.0259839 0.0984551 0.160613 0.035348 0.0452346 0.0268487 0.172055 0.0423856 0.0530974 0.0425083 0.0600436 0.107857 0.082883 0.0305366 0.0555425 0.0146907 0.0341212 0.0543491 0.269662 0.00801757 0.00547206 0.0124414 0.054016 0.0613333 0.0331073 0.0256364 0.0127642 0.0556599 0.371379 0.0412422 0.121028 0.163561 0.0298849 0.0910846 0.115657 0.168445 0.0971735 0.155016 0.00887604 0.0181866 0.0720486 0.103487 0.176656 0.0881192 0.098487 0.010667 0.0610462 0.00867099 0.0684984 0.179356 0.102392 0.0904526 0.130369
internal_weight=0 211220 207927 1093 547 3293 206834 122763 84071 25255 118681 4082 1934 11362 540 173 1585 328 84888 72039 12849 580 33793 359 141526 129648 321 58816 12269 2233 10036 1035 199 159 33239 16912 8209 16327 678 298 2148 10172 727 231 6076 8703 219 267 10822 5023 4050 2427 685 546 1708 855 41243 2650 5535 197 13893 853 6938 548 1050 5799 4356 9001 1443 277 1742 181 131 367 141 380 166 973 190 6390 3753 821 402 165 1613 1314 7531 287 7244 206 137 1226 995 346
internal_count=352746 211220 207927 1093 547 3293 206834 122763 84071 25255 118681 4082 1934 11362 540 173 1585 328 84888 72039 12849 580 33793 359 141526 129648 321 58816 12269 2233 10036 1035 199 159 33239 16912 8209 16327 678 298 2148 10172 727 231 6076 8703 219 267 10822 5023 4050 2427 685 546 1708 855 41243 2650 5535 197 13893 853 6938 548 1050 5799 4356 9001 1443 277 1742 181 131 367 141 380 166 973 190 6390 3753 821 402 165 1613 1314 7531 287 7244 206 137 1226 995 346
is_linear=0
shrinkage=0.1


Tree=11
num_leaves=95
num_cat=0
split_feature=25 2 19 7 25 19 31 7 19 19 7 7 25 31 20 19 7 2 20 5 12 12 10 7 20 32 19 10 19 19 2 12 12 10 7 20 31 20 20 12 20 25 7 20 20 19 5 25 7 24 19 19 7 15 12 12 10 20 7 24 4 31 4 32 10 7 32 32 19 7 7 31 15 29 7 14 19 19 10 20 4 7 15 10 19 19 7 19 24 24 27 32 19 10
split_gain=756.187 454.081 557.51 424.084 315.727 215.927 426.041 174.416 160.549 246.035 124.675 110.62 108.974 107.609 198.286 78.7554 252.518 123.117 94.3232 137.566 61.9662 62.8117 82.2368 78.743 158.233 61.3598 60.3932 64.4825 56.0508 55.6183 55.069 53.5402 60.5536 50.7291 50.722 76.6535 50.301 49.5238 48.4486 47.9458 47.2765 66.821 46.3404 48.6139 95.81 45.2687 44.8756 53.1878 48.6008 42.664 39.7963 73.8465 44.9037 39.3482 37.4422 54.3929 95.7188 45.1776 63.1052 42.6252 47.9328 42.3352 42.5512 40.3721 73.3562 37.2803 55.4466 36.5972 36.0251 46.7532 35.9185 43.8332 35.4486 34.5409 34.0563 60.4553 33.1994 52.5124 39.7849 32.8218 32.6651 32.5586 32.3336 32.1858 54.8984 202.86 36.9423 35.4004 32.135 59.6826 31.2186 30.7907 32.5779 36.6275
threshold=0.75000000000000011 0.50000000000000011 0.83290193939598234 0.52092102005446905 0.91666666666666674 0.83290193939598234 0.37638888888888894 0.53206239168110925 0.022003771856314035 0.020146186242682652 0.0024882396632829912 0.37484525872740787 0.58333333333333337 0.22361111111111115 0.61111111111110017 0.83290193939598234 0.42683832631839569 0.50000000000000011 0.27777777777777152 0.50000000000000011 0.65567402894135574 0.64866717440974875 0.82478361832383384 0.45654865065610306 0.38888888888887158 0.32998525774208581 0.15641081520814923 0.083175005277601882 0.39152102174102893 0.037822932641264607 0.83333333333333337 0.22536176694592538 0.15894897182025897 0.63056786995989034 0.14372369398365936 0.49999999999998584 0.071527777777777787 1.0000000180025095e-35 0.38888888888887158 0.61820258948971829 0.38888888888887158 0.25000000000000006 0.14149541965833132 0.27777777777777152 0.61111111111110017 0.003542817922905219 0.70000000000000018 0.58333333333333337 0.22369398365932167 0.66949152542372892 0.041089985277197746 0.027844633837319936 0.72641743005694492 0.26505670707860779 0.60434120335110442 0.65628332063975636 0.21363732320033782 0.27777777777777152 0.057811339440455571 0.56779661016949168 0.55374195868462073 0.28333333333333338 0.9803212530467097 0.61511721984026002 0.34114418408275288 0.19844020797227041 0.39313595836386456 0.95256340743778833 0.020318539547040198 0.26095568209952963 0.027110670958157963 0.020833333333333339 0.41581931951505674 0.50000000000000011 0.18804159445407284 0.58591581868640163 0.50422820956323389 0.62533800398021244 0.016740553092674693 0.16666666666667143 0.44997402804970638 0.063753404307997044 0.42911615174032075 0.017880515093941316 0.13005167535071985 0.11018489296476792 0.014124783362218373 0.50422820956323389 0.65254237288135608 0.29661016949152547 0.012704078761999719 0.60438093467248744 0.039988264655009979 0.372809795229048
decision_type=2 2 2 2 2 2 2 2 2 2 2 2 2 2 2 2 2 2 2 2 2 2 2 2 2 2 2 2 2 2 2 2 2 2 2 2 2 2 2 2 2 2 2 2 2 2 2 2 2 2 2 2 2 2 2 2 2 2 2 2 2 2 2 2 2 2 2 2 2 2 2 2 2 2 2 2 2 2 2 2 2 2 2 2 2 2 2 2 2 2 2 2 2 2
left_child=1 8 30 11 5 26 13 -5 9 34 -11 37 28 31 -15 17 18 29 19 -17 21 22 23 33 -25 -26 27 53 50 -6 83 32 -7 49 -1 -36 -20 -4 -38 -40 -35 -42 -12 -44 68 74 47 54 -48 -13 51 -10 91 -2 67 56 57 58 -56 -58 63 62 -57 -61 -65 -49 -67 -39 69 -45 71 82 -54 -8 75 80 -32 78 90 -55 -37 -69 -33 84 85 -3 -86 -85 89 -43 -78 92 -53 -94
