tree
version=v4
num_class=1
num_tree_per_iteration=1
label_index=0
max_feature_idx=33
objective=regression
feature_names=Column_0 Column_1 Column_2 Column_3 Column_4 Column_5 Column_6 Column_7 Column_8 Column_9 Column_10 Column_11 Column_12 Column_13 Column_14 Column_15 Column_16 Column_17 Column_18 Column_19 Column_20 Column_21 Column_22 Column_23 Column_24 Column_25 Column_26 Column_27 Column_28 Column_29 Column_30 Column_31 Column_32 Column_33
feature_infos=[0:1] [0:1] [0:1] [0:0.99973257662785842] [0:1] [0:1] [0:1] [0:0.99999999999999989] [0:1] [0:1] [0:1.0000000000000002] [0:1] [0.00030464584920030462:0.99999999999999989] [0:1] [0:1] [0:1] [0.052631578947368474:0.99874686716791961] [0:1] [0:1] [0:1.0000000000000002] [0:1] [0:0.99999999999999989] [0:0.99999999999999989] [0:1] [0:1] [0:1] [0:1] [0:0.99999999999999989] [0:0.99999999999999989] [0:1] [0:1] [0:1] [0:1] [0:1]
tree_sizes=8623 8641 8670 8597 8527 8479 8610 8590 8544 8676 8538 8708 8723 8539 8534 8585 8558 8563 8634 8537 8666 8581 8608 8628 8578 8538 8555 8501 8529 8569 8539 8549 8527 8669 8569 8652 8516 8542 8625 8624 8566 8496 8645 8721 8607 8591 8670 8627 8592 8587 8465 8558 8643 8591 8558 8560 8546 8604 8606 8535 8516 8602 8666 8575 8526 8620 8613 8607 8540 8606 8636 8557 8490 8548 8372 8548 8572 8614 8582 8617 8742 8658 8607 8529 8603 8605 8532 8635 8542 8470 8539 8470 8561 8590 8650 8507 8578 8569 8491 8667 8559 8533 8490 8570 8565 8637 8527 8604 8550 8473 8590 8610 8601 8549 8548 8568 8536 8486 8598 8623 8516 8521 8498 8605 8576 8546 8523 8475 8566 8606 8546 8569 8541 8519 8637 8497 8588 8643 8580 8613 8638 8571 8587 8492 8538 8556 8526 8534 8564 8567 8619 8548 8563 8538 8526 8499 8587 8544 8486 8565 8475 8424 8574 8534 8560 8564 8520 8636 8548 8569 8638 8527 8538 8446 8539 8558 8512 8545 8601 8508 8579 8546 8529 8590 8562

Tree=0
num_leaves=95
num_cat=0
split_feature=25 0 19 2 7 19 11 7 19 16 19 7 19 19 6 6 0 7 7 16 25 25 2 19 7 19 19 11 16 29 16 7 19 12 2 19 7 16 19 7 25 6 6 16 19 7 19 0 0 7 7 19 19 0 12 6 27 12 11 7 0 6 17 25 16 19 25 17 22 29 19 29 19 0 19 17 6 17 0 12 19 19 2 6 22 0 33 11 6 19 25 7 19 7
split_gain=8366.21 2995.82 2918.32 2859.91 2723.91 1629.54 3245.23 1130.9 1092.78 1040.08 733.186 642.186 533.346 923.965 491.065 490.768 809.282 420.875 405.97 377.191 353.195 347.706 314.197 248.128 250.625 250.292 203.241 191.978 169.509 309.851 167.354 166.604 166.591 160.405 156.056 151.644 151.433 316.62 151.098 181.419 139.988 139.756 138.195 137.593 220.628 134.513 133.644 176.326 132.192 129.496 120.898 120.172 129.047 109.639 108.412 108.386 106.126 104.264 102.632 225.34 101.371 100.352 147.058 96.1103 93.5022 91.0925 90.6731 89.1194 88.1189 82.9004 104.847 153.888 82.0202 80.2006 88.7985 80.1777 79.6582 77.173 76.6721 75.3658 75.1227 74.2981 73.2428 72.6637 72.5309 71.8183 70.3496 66.0267 95.0791 64.1462 63.9666 63.945 248.439 62.2518
threshold=0.75000000000000011 0.062500000000000014 0.83290193939598234 0.50000000000000011 0.49368655607823725 0.83290193939598234 0.72368421052631593 0.38474870017331031 0.15641081520814923 0.68734335839599003 0.041089985277197746 0.041470661054716522 0.020146186242682652 0.037822932641264607 0.093750000000000014 0.36875000000000008 0.60416666666666674 0.36494181728150538 0.1645209210200545 0.69235588972431084 0.91666666666666674 0.91666666666666674 0.83333333333333337 0.014496827933185135 0.14347610794751178 0.64998261146662717 0.50422820956323389 0.40789473684210531 0.4642857142857143 0.83333333333333348 0.64223057644110282 0.12688784352562518 0.02949156541229209 0.60129474485910139 0.50000000000000011 0.39152102174102893 0.45654865065610306 0.71240601503759404 0.15641081520814923 0.012144095073037882 0.91666666666666674 0.29375000000000012 0.2687500000000001 0.70238095238095244 0.023229395353967734 0.20017331022530332 0.020146186242682652 0.22916666666666669 0.64583333333333337 0.46769002228274331 0.12812577370636299 0.037822932641264607 0.020146186242682652 0.64583333333333337 0.11111957349581113 0.3937500000000001 0.00015468925072579265 0.22231530845392233 0.61842105263157898 0.082817529091359268 0.22916666666666669 0.14375000000000004 0.23715000606221498 0.91666666666666674 0.58082706766917302 0.50422820956323389 0.25000000000000006 0.09284180059358893 0.41666666666666674 0.50000000000000011 0.027844633837319936 1.0000000180025095e-35 0.62533800398021244 0.14583333333333334 0.39152102174102893 0.21501841772069469 0.29375000000000012 0.21170129622845205 0.64583333333333337 0.64866717440974875 0.0047492910534080767 0.066979175124745507 0.83333333333333337 0.28125000000000006 0.15000000000000005 1.0000000180025095e-35 0.019850898734975947 0.17105263157894737 0.35625000000000012 0.62533800398021244 0.91666666666666674 0.0033547907897994557 0.024033710774302972 0.0041718247090864078
decision_type=2 2 2 2 2 2 2 2 2 2 2 2 2 2 2 2 2 2 2 2 2 2 2 2 2 2 2 2 2 2 2 2 2 2 2 2 2 2 2 2 2 2 2 2 2 2 2 2 2 2 2 2 2 2 2 2 2 2 2 2 2 2 2 2 2 2 2 2 2 2 2 2 2 2 2 2 2 2 2 2 2 2 2 2 2 2 2 2 2 2 2 2 2 2
left_child=1 10 3 15 17 8 11 19 21 -6 12 -7 30 18 33 23 35 58 85 63 -10 27 26 24 -3 42 38 41 29 -18 -1 57 46 68 -22 -17 61 -38 39 93 -21 -2 73 44 -20 -30 67 -48 -34 -39 -33 52 -29 -43 -37 -50 -15 -13 59 -4 -54 -19 66 -8 -57 76 -63 80 -11 70 -45 -72 -67 81 91 83 -24 -73 -53 -51 -23 -25 -61 -26 86 -14 -52 -55 -89 -76 -59 92 -75 -5
right_child=5 2 4 22 9 6 7 -9 20 14 -12 31 13 56 -16 16 28 36 43 40 34 32 65 25 75 -27 -28 51 45 -31 -32 50 48 -35 -36 54 37 49 -40 -41 -42 53 -44 69 -46 -47 47 -49 55 79 84 78 60 87 -56 64 -58 90 -60 82 -62 62 -64 -65 -66 72 -68 -69 -70 -71 71 77 -74 74 89 -77 -78 -79 -80 -81 -82 -83 -84 -85 -86 -87 -88 88 -90 -91 -92 -93 -94 -95
leaf_value=-0.0047024211302246618 0.073945060136760291 -0.0087020191659904211 0.010542852829316456 0.00021362056554231624 0.57020711977496585 0.025564481160009481 0.5036511865158525 0.62431823649167684 0.033703487747439365 0.25183935099112958 -0.015393210155878053 0.14550757143868165 -0.00094096268136366638 0.0097405317078642466 0.38731813236828916 -0.0020064795053584758 0.092789098656222313 0.021756483888408638 0.082578428789134045 0.28772302483747347 0.017100293477942702 0.20262432787195903 -0.014014735090698486 -0.035706308316233656 0.041036273915329151 0.036920884909686917 -0.020296994855152295 0.050161606683743538 0.066058093651564218 0.31616163664892361 0.025450431029200436 0.29122056863241624 0.02232442025294424 -0.0033315249425293239 -0.0046467523149714297 0.192995747646411 0.2823185751935019 0.17103831488258175 -0.032045587952578995 -0.022881547403403542 0.1168119657211129 0.097731044012838192 0.0030109042035209119 0.093106787658226067 0.033070891432274541 0.23077975536104245 0.092662926851274391 0.03339309327780788 0.04688003098623901 -0.02252030893428706 0.27739688005159735 0.038396496891975662 0.10366244528845725 0.10284098208623213 0.04054391609619562 0.21326974526021947 0.03088912686030117 0.10131017103211068 0.0052940105889168034 0.030278129152748318 0.050224592956682163 0.070414635150393437 0.043465676893616682 0.3220499116449686 0.045964754759341912 0.043973985762406916 0.21060300382028818 0.032219131757175869 0.10284370791970401 0.076988826762772855 0.097516625334975487 0.32010165609868907 -0.012728320500377942 0.13239394780646788 0.0109505799401063 0.018104660589918872 0.015234637961391771 0.18289764771248165 0.082823791533127758 0.11851495940651484 0.063917905945952341 0.013217384677994567 0.065575543796947869 0.15812727735860085 0.11421867152456848 0.039031195636584498 0.12778416831921918 0.14852533989881905 0.30940620630750348 -0.0051907654112284514 0.060989997714296786 -0.0093872249361678754 -0.0034048626676432881 0.079380389164661752
leaf_weight=4315 1374 3475 14681 176 91 2026 51 113 7093 73 4034 252 642 5471 90 3888 211 655 3115 74 6486 54 7504 347 1457 1390 41343 1855 1063 88 3210 51 6649 79 6717 52 92 82 49637 17670 136 318 15278 554 1266 52 1336 804 1305 127 60 3562 1224 60 453 77 4190 639 12712 4380 500 80 383 68 59 623 109 2582 87 757 198 57 432 154 3894 3835 1063 146 436 54 141 2944 679 55 505 1499 66 75 72 6695 1024 75910 1076 228
leaf_count=4315 1374 3475 14681 176 91 2026 51 113 7093 73 4034 252 642 5471 90 3888 211 655 3115 74 6486 54 7504 347 1457 1390 41343 1855 1063 88 3210 51 6649 79 6717 52 92 82 49637 17670 136 318 15278 554 1266 52 1336 804 1305 127 60 3562 1224 60 453 77 4190 639 12712 4380 500 80 383 68 59 623 109 2582 87 757 198 57 432 154 3894 3835 1063 146 436 54 141 2944 679 55 505 1499 66 75 72 6695 1024 75910 1076 228
internal_value=4.30753e-09 -0.00610053 -0.00934193 -0.0132339 0.0178807 0.0388776 0.0925122 0.351383 0.0325273 0.27099 0.0242122 0.0677618 0.0304974 0.0398904 0.188228 -0.00250355 0.0258691 0.0147572 0.0645035 0.25764 0.0157055 0.0477128 -0.0242934 -0.00391768 0.0122057 -0.00523853 -0.0258218 0.0622827 0.0916697 0.158531 0.00816012 0.100681 0.0370982 0.113257 0.00603653 0.0046895 0.0651232 0.122643 -0.0291951 -0.0213666 0.177038 0.0907141 -0.00578983 0.0776659 0.068272 0.0737402 0.0516147 0.0703952 0.0282753 0.0667866 0.143124 0.055157 0.0684674 0.134601 0.0562419 0.0557336 0.0189127 0.085566 0.0123019 0.0168148 0.0881642 0.0484815 0.0790844 0.399879 0.140689 -0.006971 0.151264 0.0371422 0.170823 0.101705 0.121297 0.160242 0.0207556 -0.00726706 -0.00784199 0.0257936 -0.0103855 0.221423 0.0432415 0.0195565 0.102329 0.00805892 0.0350156 0.0452955 0.131154 0.0270451 0.199028 0.191242 0.227324 0.000745055 0.0764828 -0.00902073 0.0135976 0.0448919
internal_weight=0 304901 275447 240993 34454 47844 5065 442 42779 420 29454 4623 25420 17895 329 122317 5807 34034 8234 329 20296 22483 118676 116510 8822 107688 109054 9476 1414 299 7525 2597 13007 239 13203 4393 1582 355 67711 18074 210 1899 106298 6093 4381 1115 4917 2140 8090 263 682 7577 3579 525 505 1441 9661 1915 32452 19740 1724 1227 572 119 136 9622 189 2777 160 1712 955 401 1055 91020 87729 5347 8567 203 3998 181 195 3291 5059 1512 631 2141 126 207 147 10589 1663 77140 1230 404
internal_count=352745 304901 275447 240993 34454 47844 5065 442 42779 420 29454 4623 25420 17895 329 122317 5807 34034 8234 329 20296 22483 118676 116510 8822 107688 109054 9476 1414 299 7525 2597 13007 239 13203 4393 1582 355 67711 18074 210 1899 106298 6093 4381 1115 4917 2140 8090 263 682 7577 3579 525 505 1441 9661 1915 32452 19740 1724 1227 572 119 136 9622 189 2777 160 1712 955 401 1055 91020 87729 5347 8567 203 3998 181 195 3291 5059 1512 631 2141 126 207 147 10589 1663 77140 1230 404
is_linear=0
shrinkage=1


Tree=1
num_leaves=95
num_cat=0
split_feature=30 2 11 31 5 2 33 11 27 13 13 13 2 10 10 31 10 10 2 20 27 20 4 10 10 13 10 13 20 4 10 10 13 20 15 24 29 33 14 27 14 31 13 13 24 13 4 10 29 10 4 14 4 18 18 4 33 18 31 10 31 4 18 10 20 4 18 10 13 10 27 4 29 15 13 18 27 4 20 27 24 31 20 11 14 11 31 13 31 14 14 15 27 10
split_gain=6776.63 2098.86 1144.83 686.177 652.684 460.294 351.875 242.273 232.414 206.019 196.126 672.425 182.571 355.535 182.268 181.011 129.858 124.422 120.665 114.727 108.801 104.749 102.8 98.045 96.502 93.3523 89.8305 89.2909 90.8261 88.5142 81.1678 79.3106 93.324 93.8823 89.7902 73.2915 70.6114 127.416 69.5037 68.0179 86.7037 65.3579 65.0955 140.668 64.1217 60.5981 64.8815 58.6402 57.0691 55.8982 55.4935 55.3071 54.8265 54.516 55.3525 53.7614 53.2628 49.681 46.455 43.3145 42.1947 41.4124 40.2938 40.1749 40.1004 56.751 39.7561 39.3489 39.0539 37.9923 37.2409 36.5071 35.9678 35.8449 34.5744 33.872 33.8338 38.2166 33.3807 32.6662 32.6503 32.3564 31.8049 31.0733 31.0556 30.4056 49.2964 53.1125 71.3853 47.193 29.8701 29.4661 28.7377 37.402
threshold=1.0000000180025095e-35 0.50000000000000011 0.96052631578947378 0.17013888888888892 0.90000000000000013 0.83333333333333337 0.084204093870379665 0.82894736842105277 0.0048005100926748374 0.40725806451612906 0.77016129032258074 0.77822580645161299 0.50000000000000011 0.10175216381676169 0.0069875448596157927 0.28333333333333338 0.0069875448596157927 0.82478361832383384 0.83333333333333337 1.0000000180025095e-35 0.00012663477704252546 0.61111111111110017 0.39705118472050194 0.021849271690943639 0.17479417352754914 0.77016129032258074 0.89867004433185571 0.16532258064516131 0.27777777777777152 0.83176169736684391 0.63056786995989034 0.81211737386531568 0.53629032258064524 0.38888888888887158 0.45453656628861955 0.12711864406779663 0.50000000000000011 0.032668398454983129 0.49132747456059217 0.025375661091982988 0.57550878815911211 0.35000000000000003 0.43951612903225812 0.52016129032258074 0.90677966101694929 0.35887096774193555 0.084089183681623866 0.37492083597213438 0.50000000000000011 0.64323411441840839 0.95049346705558013 0.569958371877891 0.77558237103927774 0.23913043478260873 0.71739130434782616 0.64432412993966526 0.078520732494739578 0.45652173913043487 0.0076388888888888904 0.2811906269791008 0.023611111111111114 0.58858432892476142 0.45652173913043487 0.63056786995989034 0.38888888888887158 0.36698365764973834 0.32608695652173919 0.12117373865315603 0.39919354838709681 0.027000211104074311 0.002007843095692719 0.8287249770248134 0.83333333333333348 0.41171294485725468 0.97177419354838723 0.50000000000000011 0.00088846959573035862 0.82560834298957142 1.0000000180025095e-35 0.0060794823762575622 0.58474576271186451 0.27222222222222231 0.27777777777777152 0.32894736842105271 0.68975485661424629 0.48042278974843233 0.22361111111111115 0.75403225806451624 0.26111111111111118 0.57892102333697271 0.58383441258094371 0.4193390692217443 0.00013331474219782752 0.63901203293223574
decision_type=2 2 2 2 2 2 2 2 2 2 2 2 2 2 2 2 2 2 2 2 2 2 2 2 2 2 2 2 2 2 2 2 2 2 2 2 2 2 2 2 2 2 2 2 2 2 2 2 2 2 2 2 2 2 2 2 2 2 2 2 2 2 2 2 2 2 2 2 2 2 2 2 2 2 2 2 2 2 2 2 2 2 2 2 2 2 2 2 2 2 2 2 2 2
left_child=1 3 7 10 5 9 22 12 17 24 53 23 15 66 52 16 25 31 20 57 35 59 -4 55 -3 76 -19 28 -18 -25 -23 32 -6 -34 50 -15 37 -20 -32 40 49 85 -7 -44 68 62 -47 -43 73 67 61 56 -13 -1 -55 60 -48 -11 -27 81 -12 64 -9 -61 -33 -66 -14 -21 -28 74 -51 -49 -57 -45 -42 -72 77 -2 -26 -69 -62 82 -5 -71 -29 -22 -87 -88 89 -89 -65 -60 93 -85
right_child=2 4 6 21 8 42 -8 45 -10 19 11 14 13 18 -16 -17 27 26 36 39 41 30 -24 29 78 58 44 84 -30 -31 38 34 33 -35 -36 -37 -38 -39 -40 -41 69 47 43 48 -46 46 51 71 -50 70 -52 -53 -54 54 -56 72 -58 -59 91 63 80 -63 -64 90 65 -67 -68 79 -70 83 75 -73 -74 -75 -76 -77 -78 -79 -80 -81 -82 -83 -84 92 -86 86 87 88 -90 -91 -92 -93 -94 -95
leaf_value=0.00078033440468986413 0.072291776467015845 -0.024196927561535256 0.45932140556396917 0.0039739760730433341 0.0092981550063717232 0.016170859155796979 0.075557170046397074 0.086991540455788968 -0.0041251796166777857 -0.006111515393039506 0.11844172234941497 0.058133366189636632 0.0029366596776474341 0.18304473957566259 -0.0048747861710280813 0.025794345578076246 0.062536350378430444 -0.031612012392738274 0.23034888183674176 -0.011985617254622483 0.050153609100474984 0.014282943443136015 0.28214557513809546 0.039960454656420862 0.035192177896081971 0.21693488853122112 0.09245754076058374 0.045448680046937154 0.024634391953691902 0.16023033811172971 0.08401977135754321 0.13439185114849994 0.21766331861168148 0.056074281616020016 0.20617792624710263 0.068594834440653049 0.047779001402210669 0.081237129960451668 0.023143281504469326 -0.023170860740635128 -0.0057489751393810179 0.16840537205839962 -0.015051520625118241 0.0065224318028530657 0.15764498782157899 0.17102402113060552 0.19435379131925556 0.044928625975285963 -0.0023801835485658734 0.10704939405693384 0.18392845795683144 0.045273197151547998 -0.0015400602596937053 -0.0080371729438384384 -0.0018631380787566282 0.040322598739830462 0.079928366082055224 0.046123883934355125 0.14456797432695556 0.0028083750521400263 0.13781474151834847 0.042890124158425767 0.20495238356055945 0.017573969208459873 0.019111754533110394 0.12870553160707157 0.016609578895304133 0.0040044665778630395 -0.00094712681407179995 -0.021705087059287285 0.061346648756414657 0.12268130063066181 0.13546164882231931 0.024825028386004269 0.045816492521115686 -0.017913981867779014 0.05002388120280396 0.16089394383317118 -0.014453412977249287 -0.0094544223416219708 0.25099146742946826 0.026515338641435987 0.012817827969455482 -0.0090453964311454464 0.024804586625240668 0.017065952361993715 0.029223687982161101 0.19838518737470387 0.040697002303643294 0.083530386690904818 0.076883079618295685 0.058949318479022218 -0.015295194708957233 0.046902903141911895
leaf_weight=15322 303 37266 66 6504 287 2619 58 51 905 304 234 658 3353 65 6428 9351 727 217 78 8192 674 26534 65 443 137 50 68 14240 4851 71 307 164 50 128 69 402 241 216 482 7240 2555 52 4613 2414 50 66 53 404 3614 61 53 417 201 41250 22410 114 175 454 91 18809 50 220 67 977 108 84 5814 4112 131 6659 100 71 61 1922 137 117 856 58 11865 3212 52 1195 10850 5801 768 2202 1402 54 325 106 93 72 45806 122
leaf_count=15322 303 37266 66 6504 287 2619 58 51 905 304 234 658 3353 65 6428 9351 727 217 78 8192 674 26534 65 443 137 50 68 14240 4851 71 307 164 50 128 69 402 241 216 482 7240 2555 52 4613 2414 50 66 53 404 3614 61 53 417 201 41250 22410 114 175 454 91 18809 50 220 67 977 108 84 5814 4112 131 6659 100 71 61 1922 137 117 856 58 11865 3212 52 1195 10850 5801 768 2202 1402 54 325 106 93 72 45806 122
internal_value=0 -0.00549049 0.0349899 0.00277405 -0.0138197 -0.0146738 0.280619 0.0340157 0.0365065 -0.0165416 -0.00303717 0.0115741 0.033067 0.0241725 0.000906694 0.0374505 0.0424013 0.0590796 0.0424775 -0.0135557 0.038256 0.0104893 0.37141 0.0874111 -0.0216853 0.0715409 0.0154195 0.0403772 0.0295743 0.0565736 0.0152228 0.0765736 0.044579 0.101464 0.0978881 0.0845247 0.087905 0.120797 0.0468303 -0.0139047 -0.0130321 0.0341714 0.00182951 -0.00116022 0.0564068 0.0876033 0.0765889 0.0675875 0.00690024 -0.00642767 0.086009 0.0669258 0.0441702 -0.00457484 -0.00586375 0.11843 0.106527 0.0251746 0.132614 0.00712368 0.141838 0.076999 0.153969 0.00388061 0.0980775 0.067059 0.0116085 -0.00722399 0.03097 -0.0147398 0.0380171 0.0565506 0.0734854 0.0146353 -0.00312473 0.0186117 0.0608518 0.086527 -0.0138867 -0.00189804 0.195513 0.0105993 0.00950329 -0.0152753 0.0443923 0.0304741 0.0272302 0.0390912 0.0676156 0.122294 0.0227289 0.106749 -0.0144476 -0.00789299
internal_weight=0 304901 47844 153045 151856 149322 189 47655 2534 134140 87294 8312 46826 15459 7287 31367 22016 1629 6292 84872 5757 65751 131 1025 49268 1430 466 20586 5578 514 27323 1163 465 178 698 467 535 294 789 84114 76874 5290 15182 12563 249 829 711 527 7950 15794 629 645 859 78982 63660 511 228 758 213 38428 336 576 118 19879 356 192 9167 15516 199 61080 278 475 175 4336 2692 217 1217 361 12002 7324 102 18549 17354 58388 15008 4763 4089 1887 485 160 1070 163 51729 5923
internal_count=352745 304901 47844 153045 151856 149322 189 47655 2534 134140 87294 8312 46826 15459 7287 31367 22016 1629 6292 84872 5757 65751 131 1025 49268 1430 466 20586 5578 514 27323 1163 465 178 698 467 535 294 789 84114 76874 5290 15182 12563 249 829 711 527 7950 15794 629 645 859 78982 63660 511 228 758 213 38428 336 576 118 19879 356 192 9167 15516 199 61080 278 475 175 4336 2692 217 1217 361 12002 7324 102 18549 17354 58388 15008 4763 4089 1887 485 160 1070 163 51729 5923
is_linear=0
shrinkage=0.1


Tree=2
num_leaves=95
num_cat=0
split_feature=25 0 19 5 13 19 11 19 11 6 19 26 13 19 10 19 19 0 26 11 25 25 0 19 19 23 25 10 13 6 10 0 19 6 10 26 0 0 0 19 0 10 19 19 10 26 10 19 6 13 13 26 26 4 13 17 25 11 29 11 11 0 0 0 11 6 17 19 14 29 6 13 6 11 10 19 19 27 19 0 0 19 19 19 19 10 11 6 10 0 23 0 4 11
split_gain=5489.07 2206 2374.19 2004.39 3047.38 1304.92 2408.17 853.349 795.048 609.928 592.818 559.294 614.4 508.138 489.308 421.531 742.203 396.785 339.056 301.505 281.945 280.298 260.785 253.239 255.578 196.006 179.244 158.319 154.645 143.777 139.432 137.687 133.703 116.839 115.709 112.195 110.891 105.883 104.508 102.223 145.621 101.378 98.3114 111.915 98.2772 90.1312 89.9938 87.653 87.4292 84.7446 134.566 84.2623 82.9075 86.7016 78.4934 78.3684 73.7728 73.1197 71.108 71.0024 70.5068 98.4811 86.2058 69.7365 68.8684 74.9253 65.3103 77.2605 127.03 68.0961 64.8292 73.1153 64.2102 62.7753 76.6767 87.1863 69.2716 61.4464 60.6702 79.7032 59.0248 58.4355 58.28 84.1318 147.226 56.7398 56.4766 56.476 56.0085 55.2228 55.0666 53.3237 48.8613 48.8353
threshold=0.75000000000000011 0.062500000000000014 0.83290193939598234 0.90000000000000013 0.30241935483870974 0.83290193939598234 0.72368421052631593 0.15641081520814923 0.96052631578947378 0.38125000000000003 0.041089985277197746 0.018168314963215949 0.53629032258064524 0.15641081520814923 0.072619801562170169 0.020146186242682652 0.037822932641264607 0.64583333333333337 0.022201448225566696 0.48042278974843233 0.91666666666666674 0.91666666666666674 0.31250000000000006 0.13549765676107547 0.014209572425922551 0.67391304347826098 0.91666666666666674 0.075997466751108314 0.16532258064516131 0.13125000000000003 0.14101752163816766 0.47916666666666669 0.02949156541229209 0.29375000000000012 0.19041587502638807 0.012671133396013685 0.64583333333333337 0.35416666666666669 0.64583333333333337 0.020146186242682652 0.22916666666666669 0.13763985644922952 0.035204119933387373 0.020146186242682652 0.72767574414186209 0.012671133396013685 0.21321511505172056 0.003542817922905219 0.41875000000000012 0.53629032258064524 0.56854838709677424 0.024112846362169125 0.10276206580549326 0.64432412993966526 0.75403225806451624 0.23715000606221498 0.58333333333333337 0.27631578947368424 0.50000000000000011 0.27631578947368424 0.61842105263157898 0.14583333333333334 0.27083333333333337 0.22916666666666669 0.17105263157894737 0.35625000000000012 1.0000000180025095e-35 0.023229395353967734 0.57342738205365418 0.50000000000000011 0.36875000000000008 0.71370967741935498 0.2687500000000001 0.61842105263157898 0.10850749419463798 0.50422820956323389 0.62533800398021244 0.0013625902009775741 0.003542817922905219 0.31250000000000006 1.0000000180025095e-35 0.0014171271691620873 0.18953980135707169 0.38420979457018156 0.29638774284580588 0.61367954401519964 0.72368421052631593 0.41875000000000012 0.18534937724298084 1.0000000180025095e-35 0.282608695652174 0.60416666666666674 0.1226275622327886 0.75000000000000011
decision_type=2 2 2 2 2 2 2 2 2 2 2 2 2 2 2 2 2 2 2 2 2 2 2 2 2 2 2 2 2 2 2 2 2 2 2 2 2 2 2 2 2 2 2 2 2 2 2 2 2 2 2 2 2 2 2 2 2 2 2 2 2 2 2 2 2 2 2 2 2 2 2 2 2 2 2 2 2 2 2 2 2 2 2 2 2 2 2 2 2 2 2 2 2 2
left_child=1 10 9 44 58 7 14 21 18 13 15 12 -6 23 57 35 19 -11 25 80 87 27 28 24 30 -8 -20 33 73 41 -3 37 39 -2 52 -1 -35 60 -34 55 -41 -16 43 89 56 -18 92 77 -40 -13 -51 -46 -19 -54 -43 78 -4 -7 -5 -24 61 -26 -63 -45 -38 -66 -21 85 69 -69 -25 -72 -64 74 -15 -76 -77 -32 79 -23 -17 -37 -30 84 -84 -68 -33 -9 -79 -29 -22 -44 -31 -49
right_child=5 2 3 4 11 6 8 20 -10 17 -12 49 -14 22 29 16 45 34 26 66 90 32 59 70 31 -27 -28 42 82 46 47 86 38 36 -36 81 64 -39 48 40 -42 54 91 63 51 -47 -48 93 -50 50 -52 -53 53 -55 -56 -57 -58 -59 -60 -61 -62 62 72 -65 65 -67 67 68 -70 -71 71 -73 -74 -75 75 76 -78 88 -80 -81 -82 -83 83 -85 -86 -87 -88 -89 -90 -91 -92 -93 -94 -95
leaf_value=-0.0044498773408667746 0.06268705157589427 -0.0055931706315035315 0.010871016245749661 0.68559139625114562 0.011031888065666989 0.015469558461806086 0.44066915708257159 0.025924406445642686 0.5793641038593792 0.004012956044283685 -0.014542661738664146 -0.017198364300808559 0.43524313432624545 -0.010190885032718313 0.10112796212507276 -0.00046144408944409062 0.0073247999282421705 0.032295310694186639 0.27479169984831464 0.15451106547816904 0.012884242498233384 0.18741213027891276 -0.013989613207341265 0.01063081425255504 0.0068317530617893587 0.20161062285855966 0.084077668657441068 0.021384312603322544 -0.0047051025629340033 0.12127604021672284 0.033406365242015006 -0.00030206711901581071 0.016501645001763123 0.081725013532882765 0.19574627991144855 0.10398356632249039 0.085599479151424018 -0.021283776189732772 0.039444831643345224 0.079363175143763898 0.025500584580858507 0.14791416528334064 0.031519924565702927 0.089205702517568611 0.014998346686363221 0.026699319368544368 0.12433618912394172 0.016166930461134051 0.1359270473236753 0.16382407053392761 0.019936513007073206 0.19360211550125056 0.10120548417437938 0.035268787903051393 0.27748189074666918 0.019302051363698395 0.023659462100030837 0.052231208413057076 0.53873203152325011 -0.023998775943073002 -0.019019092483158469 -0.021438331709712669 -0.0099142104425206674 0.037176445405376776 0.13858042781108193 0.2824333493448794 0.078651485046082881 0.11377954245838401 0.031051493703010986 0.057841834473958333 0.0054654496921769657 0.16031593190235716 0.0026682739129673841 -0.017045299982481863 -0.0030635437139429293 0.043780331178833953 0.0081471878264511334 0.15828335951195985 0.043735455964943999 0.036260105895273613 0.03574536745576002 0.018039536236646305 -0.013325943721000079 -0.013790514554116659 -0.031433154486339959 0.026469215668729465 -0.025729335846127688 0.099468642780513358 0.046788280232576654 0.056413951604931879 -0.0016379317862815048 0.066624861424675982 0.06093258016876088 -0.017579645217400137
leaf_weight=4049 1348 4250 28223 68 58 1646 94 6987 84 4985 4034 192 83 8688 261 643 5200 847 79 87 3584 74 8793 6996 3842 54 131 768 5058 151 916 15693 6649 324 60 81 60 10217 1340 1336 804 127 3700 1228 50 4461 353 3536 101 98 193 56 532 319 74 1971 5369 806 64 36534 7395 5578 25467 326 70 75 3647 365 1230 539 60 62 4824 4020 7435 745 2038 82 666 66 1502 3395 9705 52446 8357 221 925 106 100 1087 9619 490 1205 488
leaf_count=4049 1348 4250 28223 68 58 1646 94 6987 84 4985 4034 192 83 8688 261 643 5200 847 79 87 3584 74 8793 6996 3842 54 131 768 5058 151 916 15693 6649 324 60 81 60 10217 1340 1336 804 127 3700 1228 50 4461 353 3536 101 98 193 56 532 319 74 1971 5369 806 64 36534 7395 5578 25467 326 70 75 3647 365 1230 539 60 62 4824 4020 7435 745 2038 82 666 66 1502 3395 9705 52446 8357 221 925 106 100 1087 9619 490 1205 488
internal_value=0 -0.00494144 -0.00772292 0.016831 0.177863 0.0314909 0.0794868 0.0258082 0.302487 -0.0112333 0.0210703 0.0855216 0.260745 -0.0120869 0.058166 0.0267219 0.0350724 0.0184184 0.237521 0.0571322 0.010943 0.0392274 -0.01578 -0.00621331 -0.00776009 0.353445 0.155822 0.0523089 -0.0128913 0.0927408 0.00779713 -0.00973197 0.0296971 0.0783165 0.0592668 0.0068637 0.118144 -0.0120554 0.0217928 0.042702 0.0591269 0.142236 0.0458849 0.0584949 0.0132184 0.0162711 0.0793605 0.0189078 0.0462073 0.0343694 0.0683935 0.109355 0.0544442 0.0764889 0.195616 0.0300446 0.012915 0.0275535 0.614387 -0.0220571 -0.0100538 -0.0083843 -0.0100141 0.0782909 0.175703 0.212987 0.0684897 0.0672428 0.051968 0.0804273 0.0118911 0.08416 -0.00791038 -0.00569736 -0.00328444 0.00258787 0.0176861 0.0439511 0.0563145 0.116155 0.0248918 0.0200423 -0.0150739 -0.0158177 -0.0217039 0.07567 -0.00171741 0.0270235 0.0970223 0.0419111 0.00230416 0.0356253 0.0676522 0.0120744
internal_weight=0 304901 275447 34454 756 47844 5065 42779 442 240993 29454 624 141 234250 4623 25420 17895 6743 358 8234 20296 22483 143819 90431 83313 148 210 9476 98492 2171 9372 73941 13007 1877 1758 7525 529 57323 8090 4917 2140 462 7599 3409 33698 9661 1709 5122 1441 483 291 106 1698 851 201 2777 33592 2452 132 45327 47106 39711 35869 1554 205 145 6089 6002 2134 904 7118 122 30291 22926 18906 10218 2783 1098 806 140 2145 3476 75566 70508 18062 3868 16618 7093 182 1855 13203 4190 1356 4024
internal_count=352745 304901 275447 34454 756 47844 5065 42779 442 240993 29454 624 141 234250 4623 25420 17895 6743 358 8234 20296 22483 143819 90431 83313 148 210 9476 98492 2171 9372 73941 13007 1877 1758 7525 529 57323 8090 4917 2140 462 7599 3409 33698 9661 1709 5122 1441 483 291 106 1698 851 201 2777 33592 2452 132 45327 47106 39711 35869 1554 205 145 6089 6002 2134 904 7118 122 30291 22926 18906 10218 2783 1098 806 140 2145 3476 75566 70508 18062 3868 16618 7093 182 1855 13203 4190 1356 4024
is_linear=0
shrinkage=0.1


Tree=3
num_leaves=95
num_cat=0
split_feature=25 0 0 11 0 31 20 12 0 11 0 25 0 25 0 6 0 20 20 6 16 29 16 12 12 25 16 31 25 6 0 11 6 4 12 0 31 20 31 0 11 0 31 20 0 31 16 20 16 12 31 6 6 0 11 20 0 11 31 16 11 24 6 26 24 20 11 31 0 31 0 15 11 31 31 28 6 16 25 20 4 0 25 31 24 4 16 4 31 31 14 31 6 4
split_gain=4446.15 1786.86 880.447 1820.19 780.301 1725.88 1400.57 1265.03 1219.15 556.05 451.401 409.179 319.364 296.947 285.034 269.977 256.769 333.368 212.029 165.053 152.336 227.452 191.213 151.966 156.318 193.848 147.294 145.933 137.892 137.816 135.846 134.785 130.614 125.827 135.366 125.631 111.177 110.566 105.56 114.455 98.2718 186.308 145.523 97.1462 94.6804 152.407 92.0245 90.7148 90.3371 88.9117 87.1903 94.4227 86.5676 85.9524 83.8917 82.2397 80.2596 80.0137 78.1152 77.3637 71.6375 70.8061 70.7235 70.6177 70.3312 56.2781 77.8991 55.2186 53.4797 89.1577 50.54 50.5067 70.0172 48.8119 58.8686 47.1953 47.1896 68.2372 46.4485 46.3164 46.3142 46.1123 45.7204 44.5452 44.1896 44.1184 72.0237 49.1428 43.6885 43.4941 43.4419 40.5575 141.726 78.439
threshold=0.75000000000000011 0.062500000000000014 0.64583333333333337 0.96052631578947378 0.43750000000000006 0.95000000000000007 0.61111111111110017 0.40936785986290941 0.77083333333333337 0.77631578947368429 1.0000000180025095e-35 0.91666666666666674 0.81250000000000011 0.91666666666666674 0.14583333333333334 0.36875000000000008 0.77083333333333337 0.72222222222221444 0.38888888888887158 0.31875000000000003 0.51190476190476197 0.50000000000000011 0.44548872180451132 0.65567402894135574 0.40936785986290941 0.58333333333333337 0.69486215538847118 0.22916666666666671 0.91666666666666674 0.4562500000000001 0.14583333333333334 0.48042278974843233 0.3312500000000001 0.46096216086626451 0.64866717440974875 1.0000000180025095e-35 0.071527777777777787 0.61111111111110017 0.034722222222222231 0.14583333333333334 0.27631578947368424 0.77083333333333337 0.27222222222222231 0.72222222222221444 0.72916666666666674 0.22361111111111115 0.7550125313283208 1.0000000180025095e-35 0.68483709273182958 0.65567402894135574 0.023611111111111114 0.3312500000000001 0.41875000000000012 1.0000000180025095e-35 0.75000000000000011 0.61111111111110017 0.81250000000000011 0.35526315789473689 0.011805555555555557 0.65726817042606511 0.43421052631578955 0.87288135593220351 0.30625000000000008 0.16543445015681377 0.7033898305084747 0.72222222222221444 0.61842105263157898 0.19583333333333339 0.31250000000000006 0.020833333333333339 0.85416666666666674 0.4193390692217443 0.19736842105263161 0.14253283421571339 0.068750000000000019 0.0035340485340774621 0.13125000000000003 0.74373433583959903 0.41666666666666669 1.0000000180025095e-35 0.26385503656051473 0.68750000000000011 0.58333333333333337 0.068750000000000019 0.75423728813559332 0.22277939824989015 0.77631578947368418 0.11781276221680588 0.031944444444444449 0.023611111111111114 0.4566373728029603 0.76041666666666685 0.15625000000000003 0.23033124225836102
decision_type=2 2 2 2 2 2 2 2 2 2 2 2 2 2 2 2 2 2 2 2 2 2 2 2 2 2 2 2 2 2 2 2 2 2 2 2 2 2 2 2 2 2 2 2 2 2 2 2 2 2 2 2 2 2 2 2 2 2 2 2 2 2 2 2 2 2 2 2 2 2 2 2 2 2 2 2 2 2 2 2 2 2 2 2 2 2 2 2 2 2 2 2 2 2
left_child=1 10 11 9 30 8 7 -7 15 13 31 38 50 29 35 26 17 28 -12 -14 21 71 -23 24 -8 61 47 70 -11 40 54 -1 37 -9 -35 -13 -28 -32 -2 53 62 42 76 -44 45 52 -20 81 -37 -19 51 -10 57 -40 83 -33 89 -15 -54 -55 -34 -26 -4 -57 82 84 -67 -62 90 -70 -21 -17 -73 74 75 -58 77 -42 -49 -16 -59 -6 -38 -3 -47 86 87 -84 -81 -46 -39 -66 93 -93
right_child=2 4 3 -5 5 6 23 33 12 16 18 14 19 44 79 20 -18 49 46 27 -22 22 -24 -25 25 -27 36 -29 -30 -31 32 55 60 34 -36 48 64 68 39 -41 41 -43 43 -45 56 65 -48 78 -50 -51 -52 -53 58 59 -56 63 73 80 -60 -61 67 -63 -64 -65 91 66 -68 -69 69 -71 -72 72 -74 -75 -76 -77 -78 -79 -80 88 -82 -83 85 -85 -86 -87 -88 -89 -90 -91 -92 92 -94 -95
leaf_value=-0.0059254716156218953 0.057675327405123322 -0.023681956610825471 0.024265762351689427 0.51479356352020711 0.0053049209131550961 -0.019761601451671485 -0.0035090869811714672 0.60938953440035548 -0.015808289939883639 0.4350278099874656 0.019928830815858924 0.021754727681876862 -0.0015602316986032642 0.015634183951228477 0.084821062733108799 0.02599592530922153 0.0039990785624831916 0.16635925503861573 0.053044597929036097 0.063834833210348732 0.029639700003040732 0.31202988489656835 0.063197663426399237 -0.032096916003458535 0.055588895551584389 0.29669610983447026 0.0055504759149852013 0.21391103951370016 0.2405821338816676 0.2144871622471819 -0.014482821001388252 0.010354385157317444 -0.0062887656419216079 0.32836700496027027 0.55201080155372617 0.042059154360700873 0.011490274347206866 -0.018027814972401631 0.033751953778473384 0.024195675204289738 0.096077033805539697 0.04067000871251631 0.26829383404801294 0.11339981001590126 0.082803978819039559 0.14504428507624623 0.11837086563494757 -0.0010152336289019912 0.095635901760731945 -0.0072241616686806081 -0.020624634428122592 0.063547235912130781 0.036583773843944074 0.049456164684655718 -0.026162315578131659 0.032314305472752207 0.1074471415499304 0.074391240632567496 0.21248072892354403 0.09938855200371044 0.016495937890472559 0.1827571379641692 0.088033649258646374 0.01305435832835738 0.02751672166969792 0.1435152469135389 0.015655554111218443 -0.011480025408871251 -0.0064344442588514794 -0.017372115629403839 0.0040925651414715864 0.042775748144316526 0.19052245762992515 0.025539454191538465 0.16080588014079977 -0.0033035683999991135 0.0766400250140854 0.20828475844566985 0.0077664588101369163 0.018667455728238011 0.037002988195362893 0.054236280790925143 0.007141816573725506 0.0073179859123184161 0.05346133602516992 0.022312701772719164 0.17577310858666897 0.10178968557313589 0.004040530165885581 -0.0029058520391206377 -0.0066053827170145761 0.12453570291282068 0.21162821296947421 0.010806614721561443
leaf_weight=3424 1700 496 778 85 308 66 122 62 358 60 2575 3728 7987 1660 75 241 70 72 3696 320 1659 74 53 134 162 57 8505 51 93 63 83673 11840 9912 59 50 1476 6749 3574 2918 8315 267 1003 75 88 62 213 229 16646 400 50 26748 258 50 1180 955 4225 71 437 51 421 2933 60 224 3465 4026 69 154 929 13090 17305 254 79 54 575 65 84 1264 68 9438 2370 1370 514 143 7081 70 1039 50 89 14756 1314 48690 79 54 261
leaf_count=3424 1700 496 778 85 308 66 122 62 358 60 2575 3728 7987 1660 75 241 70 72 3696 320 1659 74 53 134 162 57 8505 51 93 63 83673 11840 9912 59 50 1476 6749 3574 2918 8315 267 1003 75 88 62 213 229 16646 400 50 26748 258 50 1180 955 4225 71 437 51 421 2933 60 224 3465 4026 69 154 929 13090 17305 254 79 54 575 65 84 1264 68 9438 2370 1370 514 143 7081 70 1039 50 89 14756 1314 48690 79 54 261
internal_value=0 -0.00444729 0.0283418 0.0539171 -0.00695063 0.0008953 0.149748 0.352118 -0.000440338 0.0501576 0.0189633 0.0211464 -0.0144824 0.0458828 0.0127893 0.00965087 0.174992 0.218518 0.0422272 0.00231242 0.0442335 0.0925593 0.208187 0.0600998 0.0909087 0.132195 0.00809143 0.0518018 0.316835 0.067805 -0.0105612 0.0123756 -0.0111453 0.495651 0.430956 0.032376 0.0143689 -0.0119203 0.0342593 0.0311576 0.0653519 0.0750749 0.0946596 0.18467 0.0324381 0.0414265 0.056856 0.00319303 0.0534828 0.0952185 -0.019768 0.0174283 0.0341428 0.0439675 0.00176833 0.0155841 0.0155709 0.0314842 0.125403 0.0625864 -0.00178718 0.0899587 0.0385213 0.0236361 0.0203738 0.092787 0.0552175 0.00976635 -0.00932625 -0.0126617 0.0373984 0.0532955 0.102763 0.0408664 0.0809256 0.0474274 0.085484 0.118854 0.00216225 0.00640809 0.0460449 0.0359019 0.0148203 0.00528869 0.122391 0.0318335 0.0669121 0.0434507 0.00606469 0.000956073 -0.00738649 0.0305134 0.0611339 0.0372319
internal_weight=0 304901 47844 10505 275447 86809 772 237 86037 10420 29454 37339 35976 10075 22805 50061 345 275 6500 8612 2160 501 127 535 401 279 47901 625 153 3830 188638 22954 180106 171 109 5604 20995 166332 14534 12834 3767 2765 1762 163 6245 4074 3925 26906 1876 122 27364 616 3568 4519 8532 19530 2171 3467 101 1601 13774 222 1002 7690 12490 506 223 3862 82659 30395 574 374 133 795 220 155 1599 335 26084 17201 1807 822 8070 7577 283 1321 282 232 17126 1376 52264 4420 394 340
internal_count=352745 304901 47844 10505 275447 86809 772 237 86037 10420 29454 37339 35976 10075 22805 50061 345 275 6500 8612 2160 501 127 535 401 279 47901 625 153 3830 188638 22954 180106 171 109 5604 20995 166332 14534 12834 3767 2765 1762 163 6245 4074 3925 26906 1876 122 27364 616 3568 4519 8532 19530 2171 3467 101 1601 13774 222 1002 7690 12490 506 223 3862 82659 30395 574 374 133 795 220 155 1599 335 26084 17201 1807 822 8070 7577 283 1321 282 232 17126 1376 52264 4420 394 340
is_linear=0
shrinkage=0.1


Tree=4
num_leaves=95
num_cat=0
split_feature=3 3 31 0 3 0 0 3 31 3 1 0 7 7 3 0 3 3 30 7 3 1 3 1 1 1 0 31 3 7 3 3 0 0 3 11 3 7 31 3 1 1 3 1 31 3 28 1 1 3 11 11 0 11 11 7 3 11 3 3 1 7 7 7 7 7 1 12 3 1 1 1 1 28 7 24 1 30 3 3 1 31 1 0 1 1 31 5 3 7 3 7 7 1
split_gain=24724.3 2371.56 2216.73 2839.35 2616.72 1059.21 1655.89 1381.58 1419.88 1316.79 942.962 832.557 825.88 562.17 561.784 1298.91 851.225 525.283 534.766 487.426 464.243 461.164 342.359 326.15 357.58 350.574 320.636 272.107 254.64 375.341 281.561 228.389 377.526 343.293 202.427 192.977 191.578 193.743 421.129 606.355 587.148 409.82 226.079 193.585 192.983 186.249 225.805 185.677 185.078 178.732 177.466 168.11 167.959 163.549 154.413 148.7 145.493 143.489 172.98 143.09 142.215 135.172 126.355 125.007 121.996 118.085 184.86 142.958 117.03 253.121 115.505 198.654 263.151 113.934 112.931 124.197 109.698 108.258 125.664 108.002 105.539 104.459 145.403 311.097 103.8 102.526 96.4707 456.461 124.071 94.1829 93.9429 90.7492 90.1787 88.3442
threshold=1.0000000180025095e-35 0.73646108416404854 0.95000000000000007 0.68750000000000011 0.09355137647146812 0.14583333333333334 0.43750000000000006 0.087635469681149783 0.76041666666666685 0.14644924395355555 0.88725490196078438 0.72916666666666674 0.10633820252537758 0.061277543946521427 0.085446651271723947 0.31250000000000006 0.34837542912926661 0.0086277323235913785 1.0000000180025095e-35 0.17318643228521916 0.12358434461600423 0.31862745098039219 0.11625594799794502 0.35784313725490197 0.40686274509803927 0.74019607843137269 0.35416666666666669 0.14253283421571339 0.14644924395355555 0.19868779400841796 0.11295519873865718 0.21244406643865169 0.81250000000000011 0.85416666666666674 0.19040895185445614 0.53947368421052644 0.68360525607410427 0.10633820252537758 0.19583333333333339 0.34094376487047623 0.55392156862745112 0.13235294117647062 0.38659516968628649 0.43627450980392163 0.037500000000000012 0.13108284109054419 0.000224674845413383 0.20098039215686278 0.20098039215686278 0.12582545945990095 0.61842105263157898 0.61842105263157898 1.0000000180025095e-35 0.90789473684210531 0.30263157894736847 0.12985887595939594 0.94201689211624473 0.56578947368421062 0.28308466903439045 0.20492804676881274 0.063725490196078441 0.015115127506808617 0.26590740282248088 0.019398365932161429 0.14421886605595449 0.003998514483783115 0.24019607843137256 0.24516374714394518 0.61267434154184686 0.43627450980392163 0.78921568627450989 0.2990196078431373 0.60294117647058831 1.0000000180025095e-35 0.14298093587521668 0.90677966101694929 0.76960784313725494 1.0000000180025095e-35 0.016370280424149921 0.089788247678809954 0.17156862745098042 0.076388888888888909 0.5931372549019609 0.81250000000000011 0.64215686274509809 0.13235294117647062 0.28333333333333338 0.40550010460838198 0.11060656889311414 0.12688784352562518 0.61267434154184686 0.054345134934389715 0.1697202277791533 0.4754901960784314
decision_type=2 2 2 2 2 2 2 2 2 2 2 2 2 2 2 2 2 2 2 2 2 2 2 2 2 2 2 2 2 2 2 2 2 2 2 2 2 2 2 2 2 2 2 2 2 2 2 2 2 2 2 2 2 2 2 2 2 2 2 2 2 2 2 2 2 2 2 2 2 2 2 2 2 2 2 2 2 2 2 2 2 2 2 2 2 2 2 2 2 2 2 2 2 2
left_child=-1 2 5 -4 -5 10 14 11 13 22 23 17 47 31 92 36 54 18 53 -20 -6 27 -10 -2 79 64 51 -15 29 86 -31 32 -9 -34 -12 48 37 44 39 59 41 -41 -42 85 68 46 -32 -3 63 -24 60 55 -36 -8 76 -14 62 -27 73 -39 -30 -13 -53 80 -26 -18 -67 -68 -16 -70 71 -61 -73 -59 75 -69 -17 78 -37 -25 -19 82 83 -23 -49 -38 87 -29 -88 -89 -43 -46 -7 -94
right_child=1 12 3 4 20 6 7 8 9 -11 34 61 26 21 15 16 65 35 19 -21 -22 81 49 24 25 57 -28 28 50 30 45 -33 33 -35 52 77 43 38 -40 40 42 90 -44 -45 91 -47 -48 84 -50 -51 -52 56 -54 -55 -56 -57 -58 58 -60 70 -62 -63 -64 -65 -66 66 67 74 69 -71 -72 72 -74 -75 -76 -77 -78 -79 -80 -81 -82 -83 -84 -85 -86 -87 88 89 -90 -91 -92 -93 93 -95
leaf_value=-0.032341416998068959 0.02928844757296702 0.14945905826650482 -0.0067058530780764848 0.041418504912187071 0.59828252292013373 -0.0023051289347081417 0.046787917741380872 0.016533114713449263 0.25259197230264546 0.059696540611949338 0.010593128503738301 0.033687109896718213 0.21829896494746209 0.16924092673413327 0.017610684182441865 0.042352064449377801 0.07724326737723787 0.0098399664256596728 0.11034005402935242 0.36604977745385403 0.27273465421188764 0.056630267718454357 0.70247852475597305 0.077665983732851787 0.0070884707829736359 0.081171394111530223 0.088903846499913494 0.073725749150278394 0.18620134092800852 0.057069734570615122 0.35196466114978464 0.075958943936257559 0.37197380943731834 0.071429338427714817 0.038122606852819402 0.0066902739455500515 0.056006603880474973 0.015378259346940282 0.0048407479185132727 0.24672124311987279 0.12215599526293003 0.039459552102067225 0.36219257802674265 0.026341830545875022 -0.0074367663690905767 0.12998380822529973 0.17038720603777124 0.054995130393055591 0.014098751703306465 0.44388964896852318 0.03285882945568696 0.11657069048744702 0.16331490334205068 0.13445501728062956 0.017222386339040583 0.39336267242993206 0.32471331220708399 0.15379422696367387 0.14063368122098013 0.025700597239916342 0.070132664322381633 -0.0018524081822144862 0.2820581026772897 0.025053869135487863 0.039726457501082557 0.043690247786815899 0.090204013053031593 0.20205015343122637 0.24012126022655714 0.025881840841293299 0.02323616659185292 0.20835042017327413 0.063173555743222518 0.041365655189786174 0.048464395224141921 0.10216965290519231 0.10288143181035088 0.073920293049826558 0.044988237873716815 0.12611037871610803 0.076727139000458383 0.029302851655467567 0.024332084395620308 0.34926938339221208 0.1162609003301357 0.19379719073504764 0.15592408349471434 0.19843443771824243 0.010487214319899329 0.3692262774735105 0.16524457497197012 0.0055912211150862118 0.00049565386992040121 0.021475554103909274
leaf_weight=141534 6522 352 427 170 232 32273 2349 6050 50 158 12438 1162 81 314 4318 1779 866 298 257 105 54 107 52 2481 1482 3011 157 2011 112 187 129 852 55 123 1787 1133 90 12757 21612 113 65 1032 99 482 10714 207 146 1204 12195 55 1739 159 114 234 2939 121 76 93 201 760 1837 13546 65 2274 5040 235 371 527 76 201 2070 169 478 2927 74 163 360 879 3514 565 1132 3329 174 55 359 135 70 88 362 51 63 10673 4711 3497
leaf_count=141534 6522 352 427 170 232 32273 2349 6050 50 158 12438 1162 81 314 4318 1779 866 298 257 105 54 107 52 2481 1482 3011 157 2011 112 187 129 852 55 123 1787 1133 90 12757 21612 113 65 1032 99 482 10714 207 146 1204 12195 55 1739 159 114 234 2939 121 76 93 201 760 1837 13546 65 2274 5040 235 371 527 76 201 2070 169 478 2927 74 163 360 879 3514 565 1132 3329 174 55 359 135 70 88 362 51 63 10673 4711 3497
internal_value=0 0.0216722 0.0204952 0.178604 0.352128 0.0198232 0.016518 0.0303652 0.0530301 0.263506 0.0352484 0.0197439 0.117073 0.0493463 0.00952864 0.0147551 0.0547367 0.0310833 0.0706825 0.18451 0.536815 0.0635784 0.468614 0.0481024 0.0558685 0.0485166 0.213632 0.0781878 0.0740676 0.0944709 0.161224 0.0273993 0.0207562 0.164294 0.0152382 0.0256401 0.0103182 0.00975674 0.0141937 0.0256747 0.0895112 0.0654074 0.267056 0.0620933 0.0030595 0.201632 0.255564 0.0838441 0.0200449 0.569559 0.0560818 0.252641 0.0456302 0.0547299 0.0320989 0.323164 0.205156 0.0654773 0.0508064 0.0202797 0.0768026 0.000955378 0.164592 0.039622 0.0323101 0.106148 0.124419 0.141133 0.0216528 0.0846623 0.0382627 0.06037 0.101095 0.0448279 0.165864 0.178455 0.0525393 0.0417381 0.0356507 0.0866519 0.0627884 0.0346664 0.0878067 0.155983 0.0690671 0.138681 0.0771752 0.0858397 0.0340534 0.261099 0.0466965 -0.00093526 7.51368e-05 0.00943409
internal_weight=0 211211 208637 883 456 207754 171093 57391 18313 315 36661 39078 2574 17998 113702 73221 7314 24370 2945 362 286 10918 157 22322 15800 12754 659 7253 6939 3251 669 7080 6228 178 14339 21425 65907 65200 39218 17606 1372 1208 164 707 25982 482 275 1915 15899 107 3688 502 1901 2583 5078 202 300 6232 3221 16234 1949 14708 224 3704 6522 2236 1370 1135 4595 277 3477 1407 647 3020 764 690 2139 5526 4647 3046 1430 3665 336 162 1563 225 2582 2150 432 139 1095 21387 40481 8208
internal_count=352745 211211 208637 883 456 207754 171093 57391 18313 315 36661 39078 2574 17998 113702 73221 7314 24370 2945 362 286 10918 157 22322 15800 12754 659 7253 6939 3251 669 7080 6228 178 14339 21425 65907 65200 39218 17606 1372 1208 164 707 25982 482 275 1915 15899 107 3688 502 1901 2583 5078 202 300 6232 3221 16234 1949 14708 224 3704 6522 2236 1370 1135 4595 277 3477 1407 647 3020 764 690 2139 5526 4647 3046 1430 3665 336 162 1563 225 2582 2150 432 139 1095 21387 40481 8208
is_linear=0
shrinkage=0.1


Tree=5
num_leaves=95
num_cat=0
split_feature=3 3 10 0 3 2 3 0 10 0 3 2 0 0 6 3 0 3 25 16 10 3 10 3 3 10 5 0 3 3 3 3 25 25 26 10 2 0 3 10 16 2 3 3 0 0 3 10 3 10 3 0 10 26 3 10 26 10 10 3 10 2 5 10 0 0 10 26 10 6 3 10 3 3 21 2 3 6 6 23 16 29 3 29 26 0 3 3 25 3 21 15 3 2
split_gain=20026.6 1920.97 1403.24 2653.63 2833.92 1289.61 2407.98 1357.5 1410.33 1013.94 683.645 676.06 528.97 713.288 694.75 420.281 378.128 368.205 361.619 356.463 341.852 335.564 450.012 502.502 517.842 269.862 254.702 234.177 213.052 207.06 348.537 289.675 283.893 236.479 216.94 185.151 182.616 177.39 191.35 162.441 150.486 150.219 218.153 149.261 148.979 148.942 145.734 140.852 139.594 138.569 133.316 130.026 122.871 115.307 111.686 129.03 116.26 111.109 169.821 108.116 108.062 107.934 104.507 97.8967 96.9093 855.448 95.901 94.9259 94.2495 96.7292 92.7135 81.8826 376.739 81.8227 99.6335 81.4192 80.752 79.388 78.6022 76.3369 76.1257 298.236 125.404 91.3132 110.085 97.8021 73.1642 71.8785 70.7457 69.6902 69.0555 74.7396 69.0223 67.8783
threshold=1.0000000180025095e-35 0.73646108416404854 0.68123284779396254 0.68750000000000011 0.10817844490683097 0.50000000000000011 0.42289078581696465 0.43750000000000006 0.10175216381676169 0.77083333333333337 0.14045534744304375 1.0000000180025095e-35 0.14583333333333334 0.43750000000000006 0.36875000000000008 0.20492804676881274 1.0000000180025095e-35 0.082125894326772544 0.58333333333333337 0.65476190476190477 0.18534937724298084 0.076753079078388534 0.54823728097952296 0.14644924395355555 0.11521211346112893 0.15410597424530298 0.40550010460838198 0.72916666666666674 0.6523456678339804 0.10546295129368587 0.14517027036797706 0.0075432799396610425 0.75000000000000011 0.91666666666666674 0.015759828338549373 0.10048553937090988 0.50000000000000011 0.68750000000000011 0.82925499185344198 0.076841883048342857 0.67857142857142849 0.83333333333333337 0.45385083245263652 0.085446651271723947 0.22916666666666669 0.27083333333333337 0.31643345282082663 0.0093096896770107681 0.14644924395355555 0.0014988389275913028 0.094841144876402231 0.31250000000000006 0.13088452607135323 0.012671133396013685 0.0053268851198278039 0.59679121807050894 0.053533916739955535 0.31665611146295131 0.15410597424530298 0.20492804676881274 0.18450496094574631 0.50000000000000011 0.30000000000000004 0.31665611146295131 0.81250000000000011 0.85416666666666674 0.071353177116318375 0.012671133396013685 0.32320033776651896 0.18125000000000005 0.19040895185445614 0.017796073464217865 0.23244162382233835 0.28308466903439045 0.5 0.83333333333333337 0.20275834225858017 0.25625000000000003 0.18125000000000005 0.71739130434782616 0.43796992481203006 0.50000000000000011 0.089788247678809954 0.83333333333333348 0.036775021189770454 0.77083333333333337 0.59818788328495642 0.085446651271723947 0.25000000000000006 0.013396035785378095 0.68181818181818199 0.4195346108721158 0.097497627055427125 0.50000000000000011
decision_type=2 2 2 2 2 2 2 2 2 2 2 2 2 2 2 2 2 2 2 2 2 2 2 2 2 2 2 2 2 2 2 2 2 2 2 2 2 2 2 2 2 2 2 2 2 2 2 2 2 2 2 2 2 2 2 2 2 2 2 2 2 2 2 2 2 2 2 2 2 2 2 2 2 2 2 2 2 2 2 2 2 2 2 2 2 2 2 2 2 2 2 2 2 2
left_child=93 2 5 61 79 6 12 41 27 18 67 51 16 15 17 43 50 89 21 62 39 54 48 24 -24 36 -20 59 44 31 33 32 -28 34 -31 64 -13 38 -27 46 80 71 87 -14 86 -45 -17 -30 68 -46 -2 52 -3 -52 55 -10 -57 58 -51 -9 -33 73 -18 -35 76 -66 -47 -6 77 -70 -21 72 -7 -4 -75 -50 92 90 -40 -5 81 -16 83 84 -82 -86 -8 -43 -71 -15 -23 -92 -19 -1
right_child=1 11 3 4 10 7 28 8 9 -11 -12 25 13 14 40 20 19 35 26 70 -22 22 23 -25 -26 37 29 -29 47 30 -32 60 -34 63 -36 -37 -38 -39 78 -41 -42 42 -44 45 49 66 -48 -49 75 57 53 -53 -54 -55 -56 56 -58 -59 -60 -61 -62 -63 -64 -65 65 -67 -68 -69 69 88 -72 -73 -74 74 -76 -77 -78 -79 -80 -81 82 -83 -84 -85 85 -87 -88 -89 -90 -91 91 -93 -94 -95
leaf_value=-0.03163460988996479 0.037079449182980631 0.20287007638237753 0.034687575915842456 0.0057741358272127207 0.50298197595229055 -0.0018950937677166203 0.06819141444269651 0.010242412305318676 0.0464798927239111 -0.0091517451147981842 0.14741172873973848 0.11738933477334648 0.0037497687566775302 0.043927623991284526 0.098809868773599666 0.058909596312072265 -0.00939122324313269 0.10001584727375518 0.060553849858611446 0.072474765974910024 0.011379042669182673 0.06438070154880457 0.09703160682145287 0.01762663144618273 0.51473157143771231 0.12683572760011469 0.092222952842712411 -0.011410668880629082 0.065637392093297803 0.42264112565252515 0.071360197969625005 0.18518052751819292 0.31485424389441813 0.066558540104407538 0.20898939216590448 0.039203979751617948 0.045347554963680453 0.013279799997472941 0.3677700024970349 0.039383564117307875 0.051909175267334497 -0.0038619570379131172 0.072736242185397953 0.0103504668577695 0.071186456208924456 0.046427979358859825 0.13881622588190343 0.21763963038433165 0.032296901522146475 0.13920941575731804 0.012311580715794529 0.1541163093699095 0.34165347391017925 0.028865203028839895 0.021921979528558906 0.061866876744387449 0.26566711154851047 0.038988796049532926 0.28816210420336574 0.050870574561185981 0.045571517016202823 -0.0064156281982302305 0.039657967491014023 0.23929062056190828 0.34626131031877744 0.034121978882485568 0.019073491572424012 0.62628033608198175 0.069751926555612395 0.095773702399695626 0.13689270027000838 -0.0058138881455981383 0.17278392372019072 0.19172105100914472 0.037657046698705232 0.12277593098115176 0.167958073278756 0.029988878439259039 0.20570086671464277 0.12426545848320057 0.047241355857750689 0.33195394520582155 0.20017416519191811 0.041752814650681105 0.19420891951440888 0.044581627139919686 0.12619108713254998 0.020223251469848238 0.22598242846628033 0.017467375307491203 0.13235521033105657 0.027229302214635983 0.040973277085153449 -0.02720966401769552
leaf_weight=60696 6458 150 660 185 161 866 1257 14489 712 2850 50 487 27565 1086 185 778 458 271 2259 2537 4758 1058 51 80 71 175 142 5892 79 81 256 60 96 92 115 3963 1268 67 63 4380 445 3067 539 20511 375 1982 323 267 1611 862 8848 196 111 8024 4217 57 55 95 84 686 730 556 8428 51 121 320 3627 102 169 68 245 40785 144 82 86 106 70 445 57 77 137 78 118 256 187 57 263 2079 108 11927 347 84 735 80838
leaf_count=60696 6458 150 660 185 161 866 1257 14489 712 2850 50 487 27565 1086 185 778 458 271 2259 2537 4758 1058 51 80 71 175 142 5892 79 81 256 60 96 92 115 3963 1268 67 63 4380 445 3067 539 20511 375 1982 323 267 1611 862 8848 196 111 8024 4217 57 55 95 84 686 730 556 8428 51 121 320 3627 102 169 68 245 40785 144 82 86 106 70 445 57 77 137 78 118 256 187 57 263 2079 108 11927 347 84 735 80838
internal_value=0 0.019505 0.0184457 0.102682 0.283249 0.0176473 0.0242177 0.00815059 0.0224998 0.0449113 0.486362 0.105365 0.0218849 0.0175761 0.0340804 0.0124237 0.0322118 0.0288324 0.0566543 0.0469098 0.0309904 0.0458932 0.0667771 0.212399 0.340119 0.081554 0.0822653 0.00550946 0.108715 0.112485 0.159434 0.085311 0.182024 0.225944 0.297284 0.0505764 0.0653386 0.160167 0.193528 0.0480148 0.100418 -0.00304287 0.0122083 0.00888257 0.0999686 0.0142993 0.0823518 0.182934 0.0594158 0.123307 0.024861 0.215669 0.261893 0.0201842 0.0285016 0.0621745 0.161947 0.142083 0.152436 0.012079 0.0561747 0.0276635 0.0371299 0.128162 0.0802857 0.119766 0.0287395 0.550801 0.0756389 0.123788 0.0781478 -0.00511735 0.0230096 0.0505476 0.112855 0.0378827 0.0641048 0.0670498 0.290787 0.0405979 0.121623 0.167955 0.105483 0.0879419 0.118977 0.159255 0.0782269 0.00586854 0.175675 0.0196756 0.0781258 0.111867 0.0568784 -0.0291073
internal_weight=0 211211 208637 1959 575 206678 122160 84518 37038 15971 313 2574 118878 83880 19956 63924 34998 18493 13121 11668 10239 9239 4198 202 122 2117 3882 21067 3282 1623 595 1028 238 339 196 5480 1755 362 295 5481 1463 47480 5685 53685 2936 26120 1101 346 3996 1416 23330 457 261 16872 5041 824 112 1041 946 15175 790 1384 8886 143 1517 441 5609 263 2279 345 2782 41795 1010 828 168 1717 1076 1934 120 262 1018 263 755 637 381 244 1520 5146 176 13013 1489 431 1006 141534
internal_count=352745 211211 208637 1959 575 206678 122160 84518 37038 15971 313 2574 118878 83880 19956 63924 34998 18493 13121 11668 10239 9239 4198 202 122 2117 3882 21067 3282 1623 595 1028 238 339 196 5480 1755 362 295 5481 1463 47480 5685 53685 2936 26120 1101 346 3996 1416 23330 457 261 16872 5041 824 112 1041 946 15175 790 1384 8886 143 1517 441 5609 263 2279 345 2782 41795 1010 828 168 1717 1076 1934 120 262 1018 263 755 637 381 244 1520 5146 176 13013 1489 431 1006 141534
is_linear=0
shrinkage=0.1


Tree=6
num_leaves=95
num_cat=0
split_feature=25 19 19 7 7 19 11 7 19 7 20 7 7 20 25 25 1 1 1 25 19 19 19 1 1 20 13 1 13 7 21 20 10 10 1 7 19 19 25 7 22 20 12 13 19 19 10 1 12 12 12 33 19 10 7 13 10 25 11 20 20 11 1 10 21 7 7 10 10 20 22 20 1 20 19 1 12 7 11 21 33 10 13 13 14 1 1 10 12 21 25 20 7 10
split_gain=2372.73 765.366 1055.59 986.681 843.807 608.039 1109.66 509.462 415.161 385.245 256.814 240.625 214.181 290.51 182.337 170.332 163.822 205.515 290.887 162.829 160.338 136.773 346.29 130.883 127.463 119.052 116.658 115.043 112.699 106.15 103.657 95.8266 90.7928 88.8651 83.6079 83.4742 80.8905 99.9698 80.696 78.9572 78.6344 75.9958 75.7201 92.4292 73.2841 128.702 73.0618 110.439 72.7389 71.03 96.3276 94.8108 69.7797 69.5539 65.7455 122.27 96.3134 65.7806 76.179 64.5601 121.932 64.5395 64.3582 63.3801 63.0884 58.5322 89.1956 151.953 57.2523 72.9226 61.4664 56.8806 56.2326 60.2015 55.4518 93.5187 55.434 55.3946 61.2623 53.6832 53.3769 52.8843 55.4742 80.4327 52.2596 52.1123 52.0844 51.3194 50.8395 49.5284 45.8436 45.364 44.8887 43.7807
threshold=0.75000000000000011 0.041089985277197746 0.83290193939598234 0.52092102005446905 0.53206239168110925 0.83290193939598234 0.72368421052631593 0.180614013369646 0.15641081520814923 0.38474870017331031 0.72222222222221444 0.041470661054716522 0.45654865065610306 0.38888888888887158 0.91666666666666674 0.91666666666666674 0.88725490196078438 0.35784313725490197 0.36764705882352949 0.91666666666666674 0.021448411208939703 0.15641081520814923 0.13549765676107547 0.74019607843137269 0.33823529411764713 0.38888888888887158 0.16532258064516131 0.88725490196078438 0.77016129032258074 0.020487744491210699 0.5 1.0000000180025095e-35 0.18323833649989449 0.0025754697065653374 0.05392156862745099 0.290666006437237 0.18953980135707169 0.64998261146662717 0.91666666666666674 0.24461500371379058 0.45000000000000007 0.61111111111110017 0.053846153846153849 0.81048387096774199 0.022003771856314035 0.020146186242682652 0.00065442263035676602 0.73039215686274517 0.3680883472962681 0.40936785986290941 0.5822543792840823 0.07618127243050947 0.21051807105245826 0.89867004433185571 0.36494181728150538 0.30241935483870974 0.3981422841460841 0.58333333333333337 0.85526315789473695 0.27777777777777152 0.61111111111110017 0.61842105263157898 0.58333333333333337 0.075997466751108314 0.31818181818181823 0.014124783362218373 0.010708096063382027 0.010576314122862574 0.13088452607135323 0.72222222222221444 0.18333333333333338 1.0000000180025095e-35 0.46568627450980399 0.72222222222221444 0.003542817922905219 0.55392156862745112 0.58316831683168324 0.12193612280267395 0.64473684210526327 0.13636363636363638 0.24650454083570997 0.018851593835761033 0.48790322580645168 0.50403225806451624 0.51399167437557836 0.83823529411764719 0.42647058823529421 0.0023854760396875663 0.65567402894135574 0.5 0.41666666666666669 0.27777777777777152 0.43179004704134694 0.0069875448596157927
decision_type=2 2 2 2 2 2 2 2 2 2 2 2 2 2 2 2 2 2 2 2 2 2 2 2 2 2 2 2 2 2 2 2 2 2 2 2 2 2 2 2 2 2 2 2 2 2 2 2 2 2 2 2 2 2 2 2 2 2 2 2 2 2 2 2 2 2 2 2 2 2 2 2 2 2 2 2 2 2 2 2 2 2 2 2 2 2 2 2 2 2 2 2 2 2
left_child=1 7 21 12 -5 8 11 34 15 10 14 -7 31 -14 -8 27 17 -9 35 -10 32 22 61 39 26 -25 52 63 -24 33 79 -4 62 -30 -1 -19 -26 81 68 -22 -6 -18 -35 65 45 74 47 80 77 -15 51 89 -23 -52 56 -56 57 58 -33 -37 -61 -3 76 64 -2 66 67 -44 -13 70 -70 -54 73 -41 75 -17 -20 -40 -79 -27 -36 82 -38 -84 -48 -65 -85 -29 -12 -51 -57 -92 -83 -45
right_child=5 2 3 4 40 6 9 16 19 -11 88 38 13 49 -16 44 41 18 20 -21 23 24 28 25 36 30 -28 87 29 -31 -32 54 -34 42 46 59 37 -39 48 72 -42 -43 43 93 -46 -47 84 -49 -50 50 53 -53 71 -55 55 90 -58 -59 -60 60 -62 -63 -64 85 -66 -67 -68 -69 69 -71 -72 -73 -74 -75 -76 -77 -78 78 -80 -81 -82 92 83 86 -86 -87 -88 -89 -90 -91 91 -93 -94 -95
leaf_value=0.025424173426913339 0.032426713592308698 -0.0058015535314764992 0.051544308421015567 0.43909809822888718 0.13401435393017611 0.013163915372367496 0.34921266524535088 0.0043385510235014182 0.018677004878845542 0.36414259867330573 0.093831919952749449 0.061192225656230698 0.25613436819733798 -0.027945033768448264 0.14943383158743381 0.006654079110839076 -0.00052304583442854306 0.045190928277316245 0.077599705414493292 -0.00010834492502792858 0.0097387672858985433 -0.020805112432124837 0.0088593465396620448 0.021921281950364191 -0.0045278784481645939 0.052083255966408885 -0.0090021503770436797 0.10469994816162131 -0.014431151604013785 0.0080603112878979769 0.03874774583599587 0.0060866051350391935 7.462036789057407e-05 0.0002122042767171349 0.063381105068561983 0.044056863875374663 -0.012043350843087681 -0.0075261831384639006 0.052280753138265662 0.041697287302055873 -0.0089000208859706855 0.016254562323955498 0.078453505380222444 0.098418097131915627 0.013912076397839571 0.060265522087998014 0.0089611650343694189 -0.010289236144393182 0.032049263321553889 0.22047113936016527 -0.04835724237785545 0.015762989990638965 0.088346814706072779 0.090450924685445883 0.17883522237633478 0.0064093664070547984 -0.0096371573631300021 0.019651377213395611 0.11130979259808858 0.14753520717084934 0.056210773777645023 -0.015005220689491346 0.0033451554165211243 0.034823789874755574 0.074226506236552151 0.17553316150967144 0.024502220299259268 0.24931670999233152 0.24423678891124348 0.064699473508486635 0.11999458024538506 0.003237815100719227 0.0028566098584222699 0.11210376233793795 0.014122940409249361 0.11681110029343239 0.018304417714325377 0.18026222827752214 0.0606990201053796 0.10145290718784286 0.18666469340771438 -0.016895497948085633 0.12893353573578811 0.029712997212045594 -0.0060060002748335943 0.07103814441160286 -0.010479030595329517 0.016711553645220364 -0.032392556579024706 0.092604193698476875 -0.017081703679574716 0.06112524046750735 -0.0032899147252407608 -0.0019849242015484848
leaf_weight=1007 538 47851 500 97 77 2026 72 5296 7093 113 78 567 74 109 125 162 6808 1573 377 13203 2890 1269 6351 1357 11966 341 37180 68 140 690 1070 24191 3888 126 118 276 3612 21899 289 504 77 4474 195 62 9183 1047 2586 197 1157 69 93 66 79 59 53 666 3289 4419 69 298 287 9062 443 4706 1098 101 136 71 52 190 170 13087 248 160 2468 147 271 91 81 622 50 53537 56 560 23831 434 760 2632 54 54 91 401 2540 145
leaf_count=1007 538 47851 500 97 77 2026 72 5296 7093 113 78 567 74 109 125 162 6808 1573 377 13203 2890 1269 6351 1357 11966 341 37180 68 140 690 1070 24191 3888 126 118 276 3612 21899 289 504 77 4474 195 62 9183 1047 2586 197 1157 69 93 66 79 59 53 666 3289 4419 69 298 287 9062 443 4706 1098 101 136 71 52 190 170 13087 248 160 2468 147 271 91 81 622 50 53537 56 560 23831 434 760 2632 54 54 91 401 2540 145
internal_value=0 -0.00324884 -0.00570227 0.010529 0.208073 0.0207042 0.0534668 0.00698261 0.0168252 0.204842 0.150128 0.0389939 0.00907935 0.0725206 0.222449 0.0261851 0.0157569 0.0212142 0.0273336 0.00645672 0.0210225 -0.00834671 -0.00452608 0.0305724 -0.0100395 0.0448588 -0.00603989 0.0363826 0.0149319 0.0380811 0.0601693 0.00809229 0.00722788 0.0593049 -0.00286329 0.058892 -0.0122142 -0.0133228 0.0591447 0.0178342 0.0625572 0.0061303 0.071653 0.0843312 0.0187558 0.0303877 -0.0039269 0.0405075 0.045433 0.0423264 0.0647885 0.112452 0.00158995 0.00552224 0.00743747 0.0303086 0.00657108 0.00842989 0.00638588 0.083923 0.102732 -0.00726701 0.03272 0.0433379 0.0604806 0.107477 0.0903787 0.12406 0.0818062 0.110175 0.149096 0.00374849 0.0434874 0.0586627 0.019123 0.0590589 0.0528018 0.079023 0.123956 0.083971 0.100073 -0.0154016 -0.0055343 0.011552 -0.00454084 0.0378816 0.00657213 0.0189276 0.0421946 0.164334 0.0235107 0.0466601 -0.0162792 0.0280875
internal_weight=0 304901 245929 34454 251 47844 5065 58972 42779 442 329 4623 34203 524 197 22483 31183 19901 14605 20296 12171 211475 64930 7192 146545 3390 51615 9476 8017 1666 2033 33679 4979 976 27789 2434 94930 82964 2597 3802 154 11282 836 710 13007 3824 26782 365 1618 450 341 189 14435 152 33179 1211 31968 28679 24260 861 585 56913 1091 6776 1636 503 402 266 979 412 222 13166 912 664 2777 309 648 461 172 963 168 61065 4988 1376 26417 5140 1320 2700 132 123 1158 492 56077 207
internal_count=352745 304901 245929 34454 251 47844 5065 58972 42779 442 329 4623 34203 524 197 22483 31183 19901 14605 20296 12171 211475 64930 7192 146545 3390 51615 9476 8017 1666 2033 33679 4979 976 27789 2434 94930 82964 2597 3802 154 11282 836 710 13007 3824 26782 365 1618 450 341 189 14435 152 33179 1211 31968 28679 24260 861 585 56913 1091 6776 1636 503 402 266 979 412 222 13166 912 664 2777 309 648 461 172 963 168 61065 4988 1376 26417 5140 1320 2700 132 123 1158 492 56077 207
is_linear=0
shrinkage=0.1


Tree=7
num_leaves=95
num_cat=0
split_feature=30 2 1 1 11 13 11 1 12 12 11 26 6 1 1 16 2 1 1 15 11 2 1 1 11 11 26 11 6 13 6 13 1 13 13 17 26 1 1 1 1 1 6 17 16 13 12 12 11 11 24 11 6 27 1 1 1 6 1 1 11 11 1 1 6 16 13 13 11 1 13 1 6 4 6 16 11 6 13 11 16 11 13 1 26 11 11 4 12 6 4 26 6 1
split_gain=1921.91 935.635 570.264 716.333 658.769 1275.82 311.85 540.351 221.091 335.875 216.494 198.088 145.061 132.816 308.948 119.955 116.337 104.103 127.012 89.765 88.403 110.64 188.801 282.405 289.205 143.792 161.004 110.037 96.5025 95.6181 93.4036 97.5824 87.2677 84.161 73.2525 62.1425 61.1476 60.6727 72.4361 126.516 70.0951 60.2274 52.6382 51.7207 51.1404 52.3205 49.5206 69.4259 56.364 52.6463 49.1882 48.7408 47.8287 47.2282 46.7883 125.22 199.328 115.918 92.3109 71.6906 54.681 46.9445 45.3701 61.2568 98.7071 74.8759 52.4792 44.3675 61.4389 59.7803 40.7242 40.4509 39.7416 42.5657 94.7284 39.6682 134.327 98.0296 92.8837 91.9068 109.667 38.915 38.9004 50.7192 38.1278 37.9771 37.8277 37.3434 37.0199 39.3064 34.2774 34.1099 33.4942 32.9343
threshold=1.0000000180025095e-35 0.50000000000000011 0.22058823529411767 0.20098039215686278 0.96052631578947378 0.30241935483870974 0.96052631578947378 0.20098039215686278 0.5822543792840823 0.40936785986290941 0.48042278974843233 0.066485475486090823 0.36875000000000008 0.23039215686274514 0.13235294117647062 0.66478696741854637 0.83333333333333337 0.33823529411764713 0.84803921568627461 0.44319515056707087 0.82894736842105277 0.50000000000000011 0.32843137254901966 0.20098039215686278 0.27631578947368424 0.69736842105263164 0.015759828338549373 0.61842105263157898 0.13125000000000003 0.81854838709677424 0.4562500000000001 0.77016129032258074 0.13235294117647062 0.67338709677419362 0.85887096774193561 0.15701623779566726 0.055014987337932718 0.74019607843137269 0.75000000000000011 0.83823529411764719 0.60294117647058831 0.014705882352941178 0.48125000000000012 0.28979798987996214 0.72243107769423565 0.43951612903225812 0.26648895658796651 0.091012947448591022 0.092105263157894746 0.065789473684210537 0.48305084745762722 0.64473684210526327 0.49375000000000008 0.011829714332204557 0.46568627450980399 0.33823529411764713 0.36764705882352949 0.5062500000000002 0.35784313725490197 0.43627450980392163 0.5921052631578948 0.61842105263157898 0.13235294117647062 0.22058823529411767 0.3312500000000001 0.4567669172932331 0.16532258064516131 0.91532258064516137 0.17105263157894737 0.54411764705882371 0.17338709677419359 0.35784313725490197 0.15625000000000003 0.98889199664362504 0.28125000000000006 0.68859649122807021 0.77631578947368429 0.23125000000000004 0.81854838709677424 0.90789473684210531 0.75125313283208028 0.64473684210526327 0.41532258064516131 0.13235294117647062 0.22835616444214349 0.38157894736842107 0.27631578947368424 0.30960562592400215 0.74295506473724304 0.20625000000000004 0.34948255883645668 0.074177362896554841 0.5062500000000002 0.35784313725490197
decision_type=2 2 2 2 2 2 2 2 2 2 2 2 2 2 2 2 2 2 2 2 2 2 2 2 2 2 2 2 2 2 2 2 2 2 2 2 2 2 2 2 2 2 2 2 2 2 2 2 2 2 2 2 2 2 2 2 2 2 2 2 2 2 2 2 2 2 2 2 2 2 2 2 2 2 2 2 2 2 2 2 2 2 2 2 2 2 2 2 2 2 2 2 2 2
left_child=1 10 3 16 46 -6 20 -8 9 -7 12 35 67 14 -14 41 32 -17 37 -13 21 27 23 -23 -25 28 90 30 29 -26 62 -32 -3 -16 36 -11 -35 40 43 -40 71 -12 -38 -39 45 91 47 51 -48 -49 -46 -5 86 -52 55 57 58 70 -57 -58 -61 -60 -2 64 -64 -66 -65 -1 69 -69 -43 -19 -50 75 -75 -74 81 78 79 -78 -81 88 83 -18 -85 87 -4 -67 -77 -90 -27 -22 -44 -68
right_child=6 2 52 4 5 8 7 -9 -10 11 15 19 13 -15 33 17 82 18 -20 -21 44 22 -24 24 25 26 -28 -29 -30 -31 31 -33 -34 34 -36 -37 42 38 39 -41 -42 54 92 -45 50 -47 48 49 72 -51 53 -53 -54 -55 -56 56 59 -59 61 60 -62 -63 63 66 65 85 93 68 -70 -71 -72 -73 73 74 -76 76 77 -79 -80 80 -82 -83 -84 84 -86 -87 -88 -89 89 -91 -92 -93 -94 -95
leaf_value=-0.0020524394894991071 0.013763473317497702 -0.019015489374451452 -0.0081362780786126063 0.028404156108022473 0.38158363428982822 -0.015530094290464119 -0.014384854867327677 0.32417087914215198 -0.037677341898065472 0.14924588155746463 -0.010451731555653956 0.011072253828407617 -0.0076045543942588169 0.0054962067463794626 0.030662607399155568 -0.00066595179583363989 0.0032188693709107805 0.0092421867797709417 0.0079603677871795172 0.1687635679871349 0.096487534391172469 -0.0019004452417624982 -0.00074873843473884452 0.0018573635235617243 0.058713897892004374 0.13809044069051743 0.063844941552094331 0.01186975721543876 0.037593108758991162 0.15416346756548718 0.044520724860749677 0.17577551247552037 -0.0082507039858928533 0.20344395653338398 0.011013655756718256 0.28914341399039345 0.082736723641128052 0.10686851880365596 -0.010788871552240552 0.058049304697540716 0.0052555600390928152 0.01391046072483396 0.21501945752208518 0.049599195785326004 0.034055642055763495 0.0094041924720436251 0.051030129543505609 -0.035629861282663294 0.0030698664327873967 -0.0027769433639891253 0.17257134784446207 -0.0055203478587450595 0.069493286570777066 0.061050151587765222 0.0019261936958011505 0.013112017508958363 -0.0059754621184281674 0.15110355886753721 0.04309929151490182 0.01057952970127642 0.047908945950301575 0.07787862491776025 0.034662095473029265 0.014781986350932926 0.21267484897421673 0.042536445717430781 0.016316524297923601 0.074262491760073587 0.0039445743998314416 -0.0028706197196870448 0.00053897664144830022 0.034537434721150527 0.0058394422654164148 0.015236518038091838 0.1752087602136182 0.010016686676290843 0.011242253247297666 0.17197871729731562 0.1470033055242104 0.017789261395281013 0.2224174898862839 -0.0023529397943267659 -0.00043897350444175318 0.040580003944266106 0.12353841687242191 0.0032388197627129418 -0.01455947025621717 0.15392365263824639 0.043899338761330807 0.013442594981147242 0.2438940464318553 0.011421016446634461 0.10436467978299833 0.030066325592898114
leaf_weight=80104 3558 14436 10405 1195 132 209 99 90 229 50 2633 93 673 3499 204 3955 380 805 7049 59 159 3151 7505 1597 380 50 235 9341 2317 145 194 80 15744 74 71 87 297 202 530 538 1835 2781 59 719 103 346 315 541 8702 4958 86 656 69 68 22698 720 2142 53 1049 1528 528 616 1878 4454 50 54 2133 276 1668 158 12585 2945 7496 135 51 3483 446 68 79 55 50 1504 954 345 66 53 77166 68 813 885 79 67 51 9504
leaf_count=80104 3558 14436 10405 1195 132 209 99 90 229 50 2633 93 673 3499 204 3955 380 805 7049 59 159 3151 7505 1597 380 50 235 9341 2317 145 194 80 15744 74 71 87 297 202 530 538 1835 2781 59 719 103 346 315 541 8702 4958 86 656 69 68 22698 720 2142 53 1049 1528 528 616 1878 4454 50 54 2133 276 1668 158 12585 2945 7496 135 51 3483 446 68 79 55 50 1504 954 345 66 53 77166 68 813 885 79 67 51 9504
internal_value=0 -0.00292395 -0.00848514 -0.00132616 0.00917557 0.0955759 0.0186338 0.146832 0.043646 0.0810417 0.00259403 0.150881 -0.00067711 0.0159876 0.0416765 0.00691845 -0.0119483 0.0137279 0.0176209 0.0722814 0.0181254 0.0175523 0.0106283 0.0213631 0.0366251 0.0539438 0.11312 0.0209648 0.0463646 0.0850762 0.0248219 0.0828433 -0.0133998 0.085547 0.10583 0.238086 0.119826 0.0266119 0.0416097 0.023888 0.0212707 0.00424577 0.104623 0.0621599 0.0504956 0.0338472 0.00681435 -0.00037037 0.00900718 -0.00600906 0.0875497 0.0163812 -0.0137307 0.123328 0.00511151 0.00839758 0.0199433 0.00346822 0.0430294 0.00682754 0.0201661 0.0559666 0.024091 0.0261106 0.042161 0.104752 0.024013 -0.00167611 0.0126653 0.0461818 0.002959 0.0291074 0.00845022 0.0115581 0.0590999 0.0109638 0.0161665 0.0579099 0.0455978 0.0310587 0.115231 0.011808 0.0131565 0.0295535 0.0539018 0.0739168 -0.0137963 0.104621 0.0159187 0.0280252 0.202885 0.0712687 0.163716 0.0275461
internal_weight=0 304901 151856 64216 32291 859 47844 189 727 498 153045 289 87134 4928 1429 65911 31925 18578 14623 152 47655 46826 15459 7954 4803 3206 364 31367 2842 525 22026 274 30180 756 552 137 481 7574 1989 1068 5585 47333 407 921 829 572 31432 7350 24082 5499 257 1851 87640 154 44700 22002 6583 15419 2385 4198 2056 1665 21752 18194 2103 225 16091 82206 2102 434 15366 3750 23767 15065 186 14879 7383 698 630 551 105 6685 1745 791 411 175 87571 122 5181 1698 129 226 110 11637
internal_count=352745 304901 151856 64216 32291 859 47844 189 727 498 153045 289 87134 4928 1429 65911 31925 18578 14623 152 47655 46826 15459 7954 4803 3206 364 31367 2842 525 22026 274 30180 756 552 137 481 7574 1989 1068 5585 47333 407 921 829 572 31432 7350 24082 5499 257 1851 87640 154 44700 22002 6583 15419 2385 4198 2056 1665 21752 18194 2103 225 16091 82206 2102 434 15366 3750 23767 15065 186 14879 7383 698 630 551 105 6685 1745 791 411 175 87571 122 5181 1698 129 226 110 11637
is_linear=0
shrinkage=0.1


Tree=8
num_leaves=95
num_cat=0
split_feature=3 3 2 10 0 3 2 3 20 0 10 0 3 0 0 10 0 3 10 3 3 16 10 10 3 3 10 25 3 20 10 3 10 3 10 10 3 0 0 0 27 10 0 20 10 10 25 0 0 10 10 25 0 3 2 2 9 2 3 3 10 0 2 3 0 0 3 20 3 3 3 3 3 16 3 10 10 24 20 3 10 9 3 0 2 3 10 3 10 3 10 24 10 10
split_gain=14633.4 1610.97 849.45 814.149 1594.58 1839.14 789.668 1608.53 1058.56 776.742 935.281 614.874 437.474 317.132 521.233 307.668 298.287 293.057 264.169 541.859 249.102 218.745 214.843 212.327 197.971 292.448 614.632 260.574 288.384 190.99 188.673 186.599 178.057 173.4 170.353 168.77 190.266 157.144 156.566 943.969 156.232 149.134 140.977 123.537 116.551 183.775 294.129 116.099 116.034 117.449 114.196 112.074 111.469 111.438 107.909 107.361 102.861 100.538 161.676 99.235 90.8483 89.7162 85.8801 78.2806 77.4972 76.363 76.217 108.619 74.7364 74.4826 72.1375 133.02 89.3957 71.2812 71.2777 70.3582 111.308 70.3263 70.1345 69.6377 69.1634 65.7074 65.4978 106.785 64.7557 63.8074 63.2389 298.553 62.3595 60.9767 66.4575 60.9352 60.8888 89.9533
threshold=1.0000000180025095e-35 0.68360525607410427 0.50000000000000011 0.68123284779396254 0.68750000000000011 0.10817844490683097 0.50000000000000011 0.38659516968628649 1.0000000180025095e-35 0.35416666666666669 0.10175216381676169 0.77083333333333337 0.133210777209852 0.14583333333333334 0.43750000000000006 0.035106607557525871 1.0000000180025095e-35 0.15146098626957769 0.64323411441840839 0.11295519873865718 0.084202656995253686 0.65476190476190477 0.076841883048342857 0.21363732320033782 0.081199820257810668 0.14644924395355555 0.54823728097952296 0.75000000000000011 0.0096903540354915194 1.0000000180025095e-35 0.27232425585813813 0.31643345282082663 0.15326155794806845 0.0075432799396610425 0.10048553937090988 0.17732742241925273 0.73646108416404854 0.68750000000000011 0.81250000000000011 0.85416666666666674 0.0032095097184593295 0.29280135106607569 0.68750000000000011 0.61111111111110017 0.31665611146295131 0.37492083597213438 0.41666666666666669 0.72916666666666674 0.22916666666666669 0.0014988389275913028 0.017796073464217865 0.91666666666666674 0.68750000000000011 0.82925499185344198 0.50000000000000011 0.83333333333333337 0.52720264429578167 0.83333333333333337 0.45385083245263652 0.59818788328495642 0.11779607346421789 0.31250000000000006 1.0000000180025095e-35 0.21244406643865169 0.35416666666666669 0.77083333333333337 0.088670712611762348 0.61111111111110017 0.21581729928543669 0.19040895185445614 0.04362349331098387 0.0086277323235913785 0.021223930382868825 0.62343358395989978 0.012448884017233132 0.3880092885792697 0.39898670044331863 0.059322033898305093 0.72222222222221444 0.27108394696253285 0.10850749419463798 1.0000000180025095e-35 0.084202656995253686 0.27083333333333337 0.50000000000000011 0.021223930382868825 0.017796073464217865 0.23244162382233835 0.078952923791429194 0.28308466903439045 0.85011610724086994 0.44915254237288144 0.060375765252269377 0.13257335866582229
decision_type=2 2 2 2 2 2 2 2 2 2 2 2 2 2 2 2 2 2 2 2 2 2 2 2 2 2 2 2 2 2 2 2 2 2 2 2 2 2 2 2 2 2 2 2 2 2 2 2 2 2 2 2 2 2 2 2 2 2 2 2 2 2 2 2 2 2 2 2 2 2 2 2 2 2 2 2 2 2 2 2 2 2 2 2 2 2 2 2 2 2 2 2 2 2
left_child=54 3 15 6 84 -6 7 13 23 57 47 18 43 16 17 64 66 29 24 33 50 79 31 91 27 26 37 70 41 60 32 -19 48 -20 38 -4 -37 -26 81 88 61 -29 53 -7 -39 46 -46 63 59 -50 -16 78 92 -38 -1 80 68 86 -59 -9 -15 -34 -61 -11 -3 74 -2 -68 -24 -23 71 77 -73 -66 -52 -47 -77 -12 -30 85 -27 -22 -31 -84 89 -18 87 -10 -40 -5 -91 -8 -17 -94
right_child=1 2 35 4 5 12 8 30 9 10 11 -13 -14 14 20 52 21 22 19 -21 34 69 56 -25 25 55 -28 28 51 82 -32 -33 40 -35 -36 36 42 44 39 -41 -42 -43 -44 -45 45 75 -48 -49 49 -51 65 -53 -54 -55 -56 -57 -58 58 -60 62 -62 -63 -64 -65 73 -67 67 -69 -70 -71 -72 72 -74 -75 -76 76 -78 -79 -80 -81 -82 -83 83 -85 -86 -87 -88 -89 -90 90 -92 -93 93 -95
leaf_value=-0.028067749437642925 0.029422591250656771 0.076374902770136158 0.03529547334831596 0.02547916575033345 0.024215624566751581 0.39277052681749036 0.088113960191113172 0.055154669200041175 -0.00054438925074605732 0.006877382110102726 0.12510102298110723 -0.0062521998020478422 0.12726354837417603 0.19939792051564159 0.043637367260660781 0.31894869812878601 0.012394717615090327 0.041734602962491762 0.20653370922687009 0.42979766108371598 0.012634496675589338 0.058558488777609399 0.016565331948917711 0.33678639865624654 0.0015472010426601172 0.086674112377907425 0.32249620264890244 0.13195063645596342 0.17904835573439912 0.0022639655488480991 0.023217539306486321 0.14496976380889334 0.2678124321048781 -0.022911892496850543 0.03563557396831471 0.02167962573920787 0.13073360570986356 0.066765793375391666 0.38931116549688027 0.028449635174757709 0.056168400147871583 0.32170345750400581 0.015234470316048326 0.54399535996573312 0.044548932054183553 0.0074322044685646727 0.35062994126478836 -0.0081535824977432107 0.063890590680468665 0.12690313158075603 0.057497104516490954 0.0237719447486489 0.10974203390069306 0.27387470619612808 -0.022488563239000049 0.10513874211899155 0.0068014351438269839 0.0054783865954916699 0.066075160019603299 0.17281666476194127 0.059028359464484474 0.11256526378341591 0.068567600662814462 0.042548956512150529 0.095992071616834637 0.0093453600331362685 0.009698428231100089 0.02573874171141486 0.033868819603973414 0.11673192638851687 0.041849634337678868 -0.013518158800639158 0.021615595512521586 0.23951535183005035 0.021992519134747729 0.16976987201902835 0.041659293678957363 0.036469096379367232 0.065733428647379508 0.13539006207793136 0.020463698119902604 0.068054713165054043 0.0058434220648350688 0.024509585117117007 -0.0050468502769628852 0.034652673649294079 -0.0042242824226659832 0.15837584778387781 0.25581768761246892 0.16647314118667389 0.039148729715313885 0.18371438104058468 0.17286870677378918 0.26318668776682602
leaf_weight=60696 5836 398 1805 660 262 181 117 1231 862 14732 96 2848 55 59 2059 57 1566 1796 51 54 286 2537 6712 71 318 170 98 139 88 26997 428 194 131 93 3975 176 131 2518 86 327 80 59 58 77 54 91 75 5881 425 973 622 470 108 93 80838 181 6191 5089 482 150 211 52 167 642 74 5439 10375 7118 3974 241 1672 1364 1544 65 6218 143 129 1327 144 64 2193 849 13283 3984 552 7254 39797 137 59 71 97 155 273 185
leaf_count=60696 5836 398 1805 660 262 181 117 1231 862 14732 96 2848 55 59 2059 57 1566 1796 51 54 286 2537 6712 71 318 170 98 139 88 26997 428 194 131 93 3975 176 131 2518 86 327 80 59 58 77 54 91 75 5881 425 973 622 470 108 93 80838 181 6191 5089 482 150 211 52 167 642 74 5439 10375 7118 3974 241 1672 1364 1544 65 6218 143 129 1327 144 64 2193 849 13283 3984 552 7254 39797 137 59 71 97 155 273 185
internal_value=0 0.016673 0.0847175 0.0155521 0.0797803 0.219692 0.0149421 0.0200791 0.0074739 0.0067541 0.017523 0.0358514 0.383318 0.0180655 0.0147104 0.154297 0.0260547 0.010277 0.0450253 0.159654 0.0288209 0.0391134 0.0207223 0.18279 0.0432622 0.0565971 0.0756694 0.0317295 0.081907 0.0058518 0.0855833 0.0517987 0.0939013 0.0583501 0.0467432 0.0490517 0.103266 0.068401 0.0742184 0.122621 0.172739 0.188493 0.154185 0.437904 0.075464 0.11998 0.222503 0.00379594 0.0868632 0.107747 0.0218435 0.0518443 0.202111 0.190163 -0.0248812 0.0309126 0.0170581 -0.00187974 0.0107212 0.068003 0.0897017 0.223698 0.117897 0.00836698 0.0988252 0.0181889 0.0195268 0.0162253 0.0230003 0.0636052 0.0242066 0.0173955 0.00513608 0.163107 0.0252212 0.0835468 0.109012 0.0424485 0.108715 0.0314549 0.025227 0.0540898 0.00534034 0.0101502 0.0214836 0.0307008 -0.00360049 0.0212495 0.334993 0.0391706 0.0929585 0.142592 0.221481 0.209351
internal_weight=0 211211 3423 207788 1955 575 205833 121949 83884 83541 37174 15919 313 118312 83321 1160 34991 63401 13071 198 19920 11662 18867 343 12873 5970 3426 6903 900 44534 3637 1990 3209 144 5582 2263 458 3328 1607 472 263 198 282 258 3010 492 129 21255 2946 1398 14338 702 623 224 141534 2544 16877 46367 5571 1548 270 183 317 15374 537 12279 23329 17493 10686 2778 6003 4331 2908 139 6840 363 272 1423 232 8884 2363 1135 44264 17267 1380 8820 40796 999 145 828 168 272 515 458
internal_count=352745 211211 3423 207788 1955 575 205833 121949 83884 83541 37174 15919 313 118312 83321 1160 34991 63401 13071 198 19920 11662 18867 343 12873 5970 3426 6903 900 44534 3637 1990 3209 144 5582 2263 458 3328 1607 472 263 198 282 258 3010 492 129 21255 2946 1398 14338 702 623 224 141534 2544 16877 46367 5571 1548 270 183 317 15374 537 12279 23329 17493 10686 2778 6003 4331 2908 139 6840 363 272 1423 232 8884 2363 1135 44264 17267 1380 8820 40796 999 145 828 168 272 515 458
is_linear=0
shrinkage=0.1


Tree=9
num_leaves=95
num_cat=0
split_feature=25 0 25 0 11 1 1 5 20 1 1 0 1 0 11 20 0 1 20 20 18 16 29 21 16 23 20 20 1 1 11 16 25 29 11 23 11 0 16 26 23 25 11 11 29 16 26 1 1 1 0 0 23 16 20 11 16 23 16 5 14 1 32 21 15 16 18 16 15 29 14 32 29 15 1 0 1 1 1 11 1 1 11 14 1 20 0 11 5 20 15 23 21 1
split_gain=1213.44 511.453 399.939 257.655 378.342 256.508 372.107 434.513 402.043 180.214 300.296 183.705 112.494 104.251 226.566 129.164 100.374 77.8855 77.4893 143.766 76.4066 75.1453 234.667 229.144 156.334 74.2548 71.9836 70.9844 69.072 121.782 67.33 60.3508 58.647 58.4192 56.3584 54.2943 75.588 145.886 52.996 56.9793 52.9497 50.3179 49.591 48.7515 74.311 50.3476 61.73 45.6222 56.8 59.8757 56.8256 98.5209 63.598 67.8322 44.0215 45.5912 60.8 42.5568 214.246 86.5702 39.973 38.7245 35.8879 222.778 218.349 351.163 67.3343 158.264 72.9959 37.2566 53.8852 70.1215 36.2615 53.9247 191.303 35.1382 71.2521 48.0704 34.7353 39.6033 34.3859 53.2337 67.3634 79.0121 46.4794 39.5597 34.298 34.1975 33.7106 47.7811 33.6956 35.6247 36.3479 33.5473
threshold=0.75000000000000011 0.062500000000000014 0.91666666666666674 0.64583333333333337 0.82894736842105277 0.23039215686274514 0.15196078431372553 0.90000000000000013 0.61111111111110017 0.35784313725490197 0.40686274509803927 1.0000000180025095e-35 0.74019607843137269 0.64583333333333337 0.85526315789473695 1.0000000180025095e-35 0.14583333333333334 0.88725490196078438 0.27777777777777152 0.61111111111110017 0.63043478260869579 0.46804511278195488 0.50000000000000011 0.86363636363636376 0.38408521303258153 0.58695652173913049 0.38888888888887158 0.61111111111110017 0.96568627450980404 0.98529411764705899 0.61842105263157898 0.69486215538847118 0.41666666666666669 0.50000000000000011 0.27631578947368424 0.67391304347826098 0.72368421052631593 0.77083333333333337 0.55827067669172936 0.073421494994783204 0.282608695652174 0.58333333333333337 0.30263157894736847 0.51315789473684226 1.0000000180025095e-35 0.74248120300751885 0.10670449974518091 0.33823529411764713 0.43627450980392163 0.63235294117647067 0.22916666666666669 0.27083333333333337 0.63043478260869579 0.7098997493734337 1.0000000180025095e-35 0.64473684210526327 0.7199248120300753 0.50000000000000011 0.77130325814536349 0.70000000000000018 0.58522201665124907 0.25000000000000006 0.39162169824877824 0.31818181818181823 0.45531873289010566 0.59586466165413532 0.41304347826086957 0.74749373433583954 0.42168556902620263 0.50000000000000011 0.57903665700949813 0.32847472489229496 0.83333333333333348 0.36067657411028553 0.20098039215686278 0.14583333333333334 0.88725490196078438 0.21078431372549022 0.52450980392156876 0.43421052631578955 0.05392156862745099 0.13235294117647062 0.22368421052631582 0.5098288621646625 0.034313725490196088 0.72222222222221444 0.52083333333333337 0.53947368421052644 1.0000000180025095e-35 0.38888888888887158 0.41421735723847658 0.76086956521739135 0.13636363636363638 0.83823529411764719
decision_type=2 2 2 2 2 2 2 2 2 2 2 2 2 2 2 2 2 2 2 2 2 2 2 2 2 2 2 2 2 2 2 2 2 2 2 2 2 2 2 2 2 2 2 2 2 2 2 2 2 2 2 2 2 2 2 2 2 2 2 2 2 2 2 2 2 2 2 2 2 2 2 2 2 2 2 2 2 2 2 2 2 2 2 2 2 2 2 2 2 2 2 2 2 2
left_child=1 9 3 34 35 6 80 21 -9 -1 18 27 -13 16 15 -15 17 31 -11 30 -16 22 -8 -24 -25 38 -14 -12 42 86 -20 -4 54 43 90 36 -5 -38 39 -17 -18 -10 61 -28 -45 -46 -47 -44 -49 50 -50 52 -52 87 -23 -56 -57 -58 -59 -60 -33 -7 63 64 66 -66 67 68 -34 70 71 -65 -64 74 -74 76 77 -36 79 -29 84 -82 83 -83 -3 -84 -30 -54 89 -31 -2 92 -92 -35
right_child=2 5 13 4 -6 28 7 8 41 10 11 12 26 14 20 25 40 -19 19 -21 -22 32 23 24 -26 -27 33 78 29 88 -32 60 62 93 75 -37 37 -39 -40 -41 -42 -43 47 44 45 46 -48 48 49 -51 51 -53 53 -55 55 56 57 58 59 -61 -62 -63 72 69 65 -67 -68 -69 -70 -71 -72 -73 73 -75 -76 -77 -78 -79 -80 -81 81 82 85 -85 -86 -87 -88 -89 -90 -91 91 -93 -94 -95
leaf_value=-0.0094340321117148407 0.020205115088735584 -0.0032815477238241895 0.019525042310282428 0.048607565027078276 0.24598116583337909 -0.013576177684615085 0.0086906114854000387 0.19008474832071978 0.018393797813123971 0.016331829846749316 -0.0013970673718081018 0.00037815661155450272 0.01593002158555595 0.16984415270940023 0.085022128092986288 0.11612429449332849 0.0095344499131591754 0.0019896803928678773 0.065870759077973948 0.029542389019438949 0.23287273958059296 0.033079192390531496 0.25172060624696319 0.18358031363670968 0.00015577124728328865 0.0028596121735916754 0.03138630278175248 -0.011604009647528793 0.011264741633069394 0.067996027656463967 0.12388720601675969 0.042802146340207181 -0.010039162451130713 0.015220940777943998 0.01254490320076688 0.027950779495898914 0.23158130441425426 0.022110766950480421 0.020301890776184259 0.032178847101256569 -0.0028671456474489059 0.099262305047917887 -0.0028028077985029101 0.042023416237027378 0.069878836495278415 0.2327982826998421 0.10366073806459707 -0.011577545128000667 -0.00622961192706698 -0.0091325167809117574 0.017279372797098146 -0.0003247403203985456 0.10620917396058571 0.18218129783123732 0.0044277179685688886 -0.012776366088755077 -0.0049030998690646581 0.0054288417326866607 0.074048846114270747 0.23488744465565242 0.11106149533297867 -0.0018061109506081457 0.0040564750443095451 0.13627358371209677 0.031826516651901705 0.39345859117433429 0.019231691705909645 0.21471221323894418 0.12417150782721659 0.0016717402043588141 0.0096472972680738938 0.0082615590002387759 -0.015187577380920234 0.014022180868888068 0.21432881906628609 0.014000062973674477 0.0089299134920705261 0.042510493730560858 0.0085944740895435752 0.035716579681161487 -0.0088858286118114107 0.16024622553586962 -0.0058209769039838846 0.022063076506213596 0.014140597432205543 0.004410100490938317 0.050141696006078235 0.020067439687624575 -0.014695393147049492 -0.0025160821188091702 0.00952783085575158 0.016535435000197121 0.069330592775116051 0.043870671605099776
leaf_weight=4034 691 6632 2682 2397 95 3092 1284 238 424 660 9738 1548 1892 54 93 123 4760 2328 617 981 56 459 80 66 157 2926 519 215 4877 99 296 490 117 916 721 1368 66 67 3024 236 12441 94 19247 459 242 51 135 32820 26086 44276 560 10209 73 50 18791 4162 1656 1220 88 54 104 29130 8214 92 58 50 385 69 62 2549 394 80 92 2441 60 8313 1719 2079 5416 997 27843 50 12385 240 1991 5439 238 125 3267 3282 121 255 635 738
leaf_count=4034 691 6632 2682 2397 95 3092 1284 238 424 660 9738 1548 1892 54 93 123 4760 2328 617 981 56 459 80 66 157 2926 519 215 4877 99 296 490 117 916 721 1368 66 67 3024 236 12441 94 19247 459 242 51 135 32820 26086 44276 560 10209 73 50 18791 4162 1656 1220 88 54 104 29130 8214 92 58 50 385 69 62 2549 394 80 92 2441 60 8313 1719 2079 5416 997 27843 50 12385 240 1991 5439 238 125 3267 3282 121 255 635 738
internal_value=0 -0.00232334 0.0148062 0.0263074 0.0488062 -0.00366264 0.000443163 0.00734997 0.0824997 0.0102014 0.0133175 0.00968501 0.0239077 0.00753803 0.0186974 0.015843 0.00435148 0.0159746 0.0458391 0.0561214 0.14059 0.00601883 0.0273706 0.106529 0.0544429 0.0145249 0.031263 0.00403627 -0.00593075 0.00147376 0.08468 0.0259126 0.00519423 0.0407434 0.0201261 0.0440007 0.0526791 0.126059 0.0246144 0.0609401 0.000564724 0.0330688 -0.0064565 0.0557296 0.0699733 0.0999476 0.139069 -0.00730667 -0.00806575 -0.00664944 -0.00368633 0.00233566 0.0359495 0.0781079 0.00238037 0.00183781 -0.0049403 0.00586609 0.0189599 0.135213 0.0547533 -0.00293556 0.0102662 0.0185484 0.0678303 0.199249 0.0454082 0.0860451 0.0364472 0.00682517 0.0300338 0.0767331 0.00731105 0.0176208 0.075411 0.0178583 0.0249557 0.0347944 0.012019 0.0273223 -0.00505343 -0.00614067 -0.0019211 0.0458878 0.000741123 -0.00269896 0.0130737 0.0518268 -0.00745127 -0.000451397 0.0372245 0.0488569 0.059759 0.0280042
internal_weight=0 304901 47844 18527 3993 275447 98016 43436 756 29454 25420 22866 6500 29317 6512 6363 22805 5604 2554 1894 149 42680 1587 303 223 6309 4952 16366 177431 11763 913 3276 41093 3060 14534 3898 2530 133 3383 359 17201 518 165668 1406 887 428 186 133446 114199 81379 37103 11017 808 248 26430 25971 7180 3018 1362 142 594 32222 14663 3856 741 108 633 248 179 3115 566 172 10807 2593 152 12832 4519 2800 6628 1212 54580 45957 18114 290 8623 17824 5115 198 6648 3381 1702 1011 756 1654
internal_count=352745 304901 47844 18527 3993 275447 98016 43436 756 29454 25420 22866 6500 29317 6512 6363 22805 5604 2554 1894 149 42680 1587 303 223 6309 4952 16366 177431 11763 913 3276 41093 3060 14534 3898 2530 133 3383 359 17201 518 165668 1406 887 428 186 133446 114199 81379 37103 11017 808 248 26430 25971 7180 3018 1362 142 594 32222 14663 3856 741 108 633 248 179 3115 566 172 10807 2593 152 12832 4519 2800 6628 1212 54580 45957 18114 290 8623 17824 5115 198 6648 3381 1702 1011 756 1654
is_linear=0
shrinkage=0.1


Tree=10
num_leaves=95
num_cat=0
split_feature=3 3 19 7 3 2 3 7 3 7 19 19 19 3 7 28 11 3 3 31 0 3 27 7 11 3 19 2 3 3 2 2 19 19 3 0 7 0 7 0 13 7 11 0 13 13 3 19 10 3 19 19 3 3 19 4 7 4 9 11 28 7 10 26 3 13 19 10 11 3 31 10 3 3 5 19 3 7 3 3 9 10 3 2 3 31 13 19 19 7 13 10 10 3
split_gain=11340 1320.81 786.33 1773.65 1655.93 1423.63 1578.19 765.409 536.083 459.218 436.065 331.722 244.832 223.03 378.141 358.328 330.852 218.437 210.46 237.45 214.913 506.557 201.461 186.036 177.911 176.291 171.075 172.506 165.428 153.225 151.421 150.652 141.491 395.12 266.451 273.968 191.381 184.89 149.6 184.061 165.508 148.793 137.712 136.94 253.312 200.739 142.087 132.084 119.839 120.466 119.152 126.375 112.512 112.194 105.981 103.335 100.372 116.423 100.193 99.4398 206.095 145.455 172.456 141.85 107.524 98.6881 96.3014 180.555 95.2432 92.7488 89.1569 89.2446 87.2732 82.9124 81.1112 79.9847 272.631 94.2293 148.695 79.5807 76.766 76.7061 75.5012 229.415 85.2337 82.3899 75.4724 74.9995 74.5916 71.6939 71.5462 69.4025 68.8288 234.26
threshold=1.0000000180025095e-35 0.73646108416404854 0.83290193939598234 0.40455558306511519 0.10945569880103621 0.50000000000000011 0.42289078581696465 0.082817529091359268 0.14517027036797706 0.064991334488734856 0.037822932641264607 0.091636996364494308 0.83290193939598234 0.081199820257810668 0.36494181728150538 0.00011985305436972437 0.51315789473684226 0.26565872391890427 0.1631817276794261 0.053472222222222233 0.81250000000000011 0.083196601688426949 0.00079682498169835251 0.12985887595939594 0.22368421052631582 0.1663635365317053 0.83290193939598234 0.50000000000000011 0.0064806276598035764 0.59818788328495642 0.83333333333333337 0.50000000000000011 0.020146186242682652 0.022003771856314035 0.11181012153201773 0.39583333333333337 0.14000990344144595 1.0000000180025095e-35 0.0024882396632829912 0.31250000000000006 0.92338709677419362 0.14421886605595449 0.40789473684210531 0.64583333333333337 0.75403225806451624 0.81048387096774199 0.025825241541318159 0.62533800398021244 0.007705298712265149 0.57174370291628251 0.38420979457018156 0.13549765676107547 0.011501515988165793 0.0034794230802653241 0.0080623045705032273 0.81801654213449493 0.017838573904431793 0.41852798977104738 0.52720264429578167 0.61842105263157898 0.00015116345948666137 0.19868779400841796 0.37492083597213438 0.022201448225566696 0.11060656889311414 0.81854838709677424 0.64998261146662717 0.0093096896770107681 0.51315789473684226 0.09355137647146812 0.46250000000000008 0.3880092885792697 0.10409163367419146 0.092197809994325725 0.40550010460838198 0.62533800398021244 0.82925499185344198 0.12985887595939594 0.82925499185344198 0.19500429163519858 1.0000000180025095e-35 0.22757019210470766 0.11295519873865718 0.50000000000000011 0.12149085230399702 0.17638888888888893 0.71370967741935498 0.094046495559412871 0.061843238158561985 0.10930923495914831 0.40725806451612906 0.10977411864048979 0.017796073464217865 0.23244162382233835
decision_type=2 2 2 2 2 2 2 2 2 2 2 2 2 2 2 2 2 2 2 2 2 2 2 2 2 2 2 2 2 2 2 2 2 2 2 2 2 2 2 2 2 2 2 2 2 2 2 2 2 2 2 2 2 2 2 2 2 2 2 2 2 2 2 2 2 2 2 2 2 2 2 2 2 2 2 2 2 2 2 2 2 2 2 2 2 2 2 2 2 2 2 2 2 2
left_child=26 2 5 7 28 6 10 31 22 47 17 24 75 53 16 -16 82 32 20 79 43 -22 -6 69 -8 59 27 -1 -5 50 92 80 37 38 -35 -36 -37 -2 -34 73 -41 -39 -23 72 52 46 55 -3 -32 -50 51 -13 -45 68 -43 56 57 -46 -21 60 -25 64 63 -63 -61 -33 67 -31 -9 -18 71 -64 87 -40 -66 77 -77 -11 -79 -20 86 -38 -15 -84 -85 91 -4 -12 -81 -78 -51 -86 93 -7
right_child=1 9 3 4 8 30 11 13 -10 12 18 29 -14 14 15 -17 23 -19 19 58 21 42 -24 25 -26 -27 -28 -29 -30 66 48 65 33 34 35 36 81 41 39 40 -42 54 -44 44 45 -47 -48 -49 49 90 -52 -53 -54 -55 -56 -57 -58 -59 -60 61 -62 62 70 -65 74 -67 -68 -69 -70 -71 -72 -73 -74 -75 -76 76 89 78 -80 88 -82 -83 83 84 85 -87 -88 -89 -90 -91 -92 -93 -94 -95
leaf_value=-0.024793439642964484 0.0038570107401342669 0.081473909835999447 0.078146181439067458 0.14100841604029904 0.34027324176054397 0.0044616183888386762 0.12127409483476044 -0.02376793319075976 0.079661597163580802 0.13636250224085519 0.0098622711017145141 0.071662854595324746 -0.0055182375086164012 0.053027250282311839 0.39966576331191594 0.069803811215620112 0.13875345534218822 0.083676401200587308 0.023845459012638615 0.023654291564515414 0.020825919042047308 0.37277843046646852 0.52426343640176265 0.31630129038411031 0.26762300614203011 0.011232355928306566 -0.033378495496473641 -0.017475480245537293 -0.007504994125835958 0.032545106456457799 -0.0031806243491915853 0.016884951081394092 0.15377940246694244 0.0096847179038126729 0.038780877609946592 0.3187735699954557 0.021999462517694787 0.010991776057662168 0.050492992536721681 0.0071583985227781687 0.13775884473624711 0.057319232912635465 0.15921443944680505 0.079521550743335681 0.27098457784421986 0.022902998814136453 0.062550848076247015 0.02409700181603186 0.019786354191360003 0.14766830164007844 0.040719252373152305 0.16022965323733085 0.0095401230394666359 0.027630671915855821 0.027685015636150018 0.27760023096541192 0.024310056631054199 0.07719168960447273 0.0092343909655165993 0.12072941919255079 0.079607049758179171 0.26706467243481657 0.028485504590207711 0.085023444596261377 0.069336112280166437 -2.6143504150171913e-05 0.081605914254307854 0.21202613081805946 0.085726391007218447 0.010998866260656817 0.0036943693847759913 0.13010880158622434 0.011157226353562612 0.089129688482606606 -0.0012942027861436644 0.013227985981557009 0.11666080928858967 0.28946217030941235 0.14864493626120842 0.0089496665802816372 0.063957705930621431 0.17234778172282411 0.3032939352034057 0.20509695098106123 0.14765389478184229 0.19628052177173752 -0.010913081040710843 -0.00062831773597325953 0.095861579036412528 0.25515385836764587 0.020649452576679841 0.067496329113719583 -0.0036170761327288222 0.13962868937580236
leaf_weight=59774 6149 810 130 104 217 1108 211 92 68 266 10311 975 103 241 63 69 59 629 322 12295 456 52 82 51 137 558 11899 69861 269 77 2828 6290 132 7998 1588 57 65 4088 4926 1449 104 1646 72 237 62 957 550 795 3917 121 1127 193 7498 5686 4523 53 70 62 7924 137 132 98 128 76 253 7645 296 206 582 1543 138 266 22372 626 455 139 59 148 152 116 754 71 61 74 133 70 355 20099 664 102 70 575 51549 145
leaf_count=59774 6149 810 130 104 217 1108 211 92 68 266 10311 975 103 241 63 69 59 629 322 12295 456 52 82 51 137 558 11899 69861 269 77 2828 6290 132 7998 1588 57 65 4088 4926 1449 104 1646 72 237 62 957 550 795 3917 121 1127 193 7498 5686 4523 53 70 62 7924 137 132 98 128 76 253 7645 296 206 582 1543 138 266 22372 626 455 139 59 148 152 116 754 71 61 74 133 70 355 20099 664 102 70 575 51549 145
internal_value=0 0.0146774 0.013799 0.0295702 0.182286 0.0114093 0.0176262 0.0253398 0.333095 0.0858729 0.0157443 0.0866785 0.140233 0.0447498 0.0601541 0.227238 0.055785 0.025293 0.0118815 0.0204667 0.00896909 0.0695595 0.390732 0.0418482 0.178888 0.0601219 -0.0219031 -0.0208498 0.0339036 0.0755132 -0.00122946 0.0105783 0.0241942 0.030583 0.0174741 0.0524541 0.164957 0.0175678 0.0482965 0.0463368 0.0159043 0.0257874 0.248774 0.00840474 0.0194648 0.0537757 0.0908462 0.0530536 0.0126617 0.0235678 0.0639156 0.0862976 0.0116844 0.0322035 0.035592 0.153852 0.120044 0.174088 0.018003 0.0758545 0.145571 0.0676287 0.101132 0.187552 0.0396368 0.00760721 0.121483 0.163192 0.0707806 0.0157039 0.0728664 0.0970941 0.00641641 0.0548494 0.0239452 0.157568 0.115825 0.179694 0.218115 0.0656701 0.0439943 0.10049 0.102813 0.115954 0.102541 0.0927866 0.0129585 0.00292869 0.0829362 0.204402 0.101117 0.0825542 -0.00305418 0.0201035
internal_weight=0 211211 208637 27454 740 181183 121445 26714 367 2574 118223 3222 969 11540 5180 132 5048 34051 84172 21321 62851 580 299 3894 348 2292 141534 129635 373 2874 59738 15174 33422 17016 9779 1781 193 16406 7237 7105 1553 10257 124 62271 9489 1754 797 1605 6936 4108 2295 1168 7735 6360 6169 247 194 124 20219 1734 183 1551 706 174 845 13935 579 283 674 1602 532 394 52782 5552 708 866 300 566 300 1102 1239 136 1154 913 852 778 485 30410 780 161 191 708 52802 1253
internal_count=352745 211211 208637 27454 740 181183 121445 26714 367 2574 118223 3222 969 11540 5180 132 5048 34051 84172 21321 62851 580 299 3894 348 2292 141534 129635 373 2874 59738 15174 33422 17016 9779 1781 193 16406 7237 7105 1553 10257 124 62271 9489 1754 797 1605 6936 4108 2295 1168 7735 6360 6169 247 194 124 20219 1734 183 1551 706 174 845 13935 579 283 674 1602 532 394 52782 5552 708 866 300 566 300 1102 1239 136 1154 913 852 778 485 30410 780 161 191 708 52802 1253
is_linear=0
shrinkage=0.1


Tree=11
num_leaves=95
num_cat=0
split_feature=25 2 19 7 25 7 19 31 25 19 19 31 7 19 7 19 20 5 7 10 20 2 20 19 19 5 31 31 2 20 31 4 12 19 19 7 7 12 12 10 7 20 32 12 12 4 10 10 20 20 7 31 4 20 24 10 19 19 2 15 31 32 29 12 19 19 19 20 19 10 20 14 7 20 20 20 20 15 7 25 14 19 12 12 7 24 19 10 29 32 19 7 19 19
split_gain=756.522 481.794 543.099 471.444 306.001 261.242 197.106 406.485 160.986 119.745 190.915 106.015 103.792 85.6244 241.187 117.922 92.75 148.034 73.7803 71.0363 103.261 68.1436 65.2238 64.8799 58.4881 53.8101 51.9829 49.5536 47.0665 47.0305 126.798 53.4057 45.3673 44.3918 43.9736 52.1829 43.7949 43.5509 103.559 75.2667 82.3517 240.964 62.7234 42.9745 161.669 79.3497 48.8571 66.3766 104.251 58.2223 50.8185 41.4159 40.8411 42.2029 54.6753 39.1812 38.758 51.4741 38.4193 42.4337 38.1176 38.0698 37.4971 37.477 37.2688 75.1145 40.728 56.4519 42.3134 59.9673 49.0031 39.4041 37.1596 63.8018 35.973 35.9387 98.0259 35.4009 34.5968 33.9855 39.3749 33.9697 33.8707 49.1089 73.6415 37.2726 33.4932 33.1035 32.8974 49.0299 32.8088 31.581 31.3194 36.181
threshold=0.75000000000000011 0.50000000000000011 0.83290193939598234 0.52092102005446905 0.91666666666666674 0.53206239168110925 0.83290193939598234 0.37638888888888894 0.58333333333333337 0.022003771856314035 0.020146186242682652 0.0090277777777777787 0.025625154741272593 0.83290193939598234 0.42683832631839569 0.037822932641264607 0.27777777777777152 0.40550010460838198 0.36494181728150538 0.036795440151994943 0.16666666666667143 0.50000000000000011 1.0000000180025095e-35 0.39152102174102893 0.037822932641264607 0.70000000000000018 0.071527777777777787 0.020833333333333339 0.83333333333333337 0.72222222222221444 0.22361111111111115 0.46096216086626451 0.60129474485910139 0.020146186242682652 0.022003771856314035 0.092720970537261707 0.22369398365932167 0.65567402894135574 0.64866717440974875 0.82478361832383384 0.46769002228274331 0.61111111111110017 0.29236900405725813 0.64592536176694593 0.65171363290175177 0.98889199664362504 0.21363732320033782 0.34114418408275288 0.38888888888887158 0.38888888888887158 0.17912849715276061 0.17013888888888892 0.69878531186318793 0.61111111111110017 0.66949152542372892 0.63056786995989034 0.022003771856314035 0.020146186242682652 0.50000000000000011 0.26564333202972235 0.28333333333333338 0.53097861026979132 0.50000000000000011 0.33686214775323692 0.041089985277197746 0.027844633837319936 0.02949156541229209 0.61111111111110017 0.039988264655009979 0.23094785729364584 0.72222222222221444 0.58568455134135078 0.14520921020054472 0.49999999999998584 0.38888888888887158 0.61111111111110017 0.27777777777777152 0.47506843957763006 0.13654369893538007 0.25000000000000006 0.54868177613321012 0.0014171271691620873 0.078217821782178218 0.11127189642041128 0.0057068581332012881 0.82203389830508489 0.50422820956323389 0.38505383153894879 0.50000000000000011 0.51512250928413417 0.003542817922905219 0.021379054221341919 0.025948747489386872 0.02949156541229209
decision_type=2 2 2 2 2 2 2 2 2 2 2 2 2 2 2 2 2 2 2 2 2 2 2 2 2 2 2 2 2 2 2 2 2 2 2 2 2 2 2 2 2 2 2 2 2 2 2 2 2 2 2 2 2 2 2 2 2 2 2 2 2 2 2 2 2 2 2 2 2 2 2 2 2 2 2 2 2 2 2 2 2 2 2 2 2 2 2 2 2 2 2 2 2 2
left_child=1 8 28 18 6 -5 19 12 9 10 72 -12 27 15 16 81 17 -15 22 20 -2 -17 63 64 33 43 -18 -8 86 30 74 -32 52 -21 35 -35 -27 38 39 40 42 -42 -20 82 46 60 -45 48 -48 -49 -50 -34 -28 -54 -55 -44 57 -10 59 -22 -46 62 -31 -4 65 -11 67 71 -68 -70 -71 -67 -1 -74 -14 76 -13 -62 -78 -57 -81 -6 85 -84 -85 -24 -3 -65 89 -69 -75 -86 -58 -94
