tree
version=v4
num_class=1
num_tree_per_iteration=1
label_index=0
max_feature_idx=33
objective=regression
feature_names=Column_0 Column_1 Column_2 Column_3 Column_4 Column_5 Column_6 Column_7 Column_8 Column_9 Column_10 Column_11 Column_12 Column_13 Column_14 Column_15 Column_16 Column_17 Column_18 Column_19 Column_20 Column_21 Column_22 Column_23 Column_24 Column_25 Column_26 Column_27 Column_28 Column_29 Column_30 Column_31 Column_32 Column_33
feature_infos=[0:1] [0:1] [0:1] [0:0.99973257662785842] [0:1] [0:1] [0:1] [0:0.99999999999999989] [0:1] [0:1] [0:1.0000000000000002] [0:1] [0.00015232292460015231:0.99999999999999989] [0:1] [0.1214153561517114:1] [0:1] [0:0.99999999999999978] [0:1] [0:1] [0:1.0000000000000002] [0:1] [0:0.99999999999999989] [0:0.99999999999999989] [0:1] [0:1] [0:1] [0:1] [0:0.62843018542916085] [0:0.99999999999999989] [0:1] [0:1] [0:1] [0:1] [0:1]
tree_sizes=8621 8611 8681 8625 8522 8467 8646 8589 8556 8687 8546 8647 8669 8559 8552 8536 8555 8611 8588 8576 8617 8633 8608 8627 8564 8561 8555 8469 8497 8588 8572 8593 8638 8573 8586 8574 8602 8584 8551 8596 8562 8483 8561 8719 8622 8619 8566 8653 8624 8535 8513 8641 8691 8642 8560 8467 8609 8613 8618 8577 8548 8532 8654 8609 8552 8560 8621 8526 8528 8651 8623 8622 8485 8583 8406 8665 8507 8593 8581 8637 8641 8625 8588 8413 8597 8597 8507 8745 8479 8542 8595 8460 8605 8658 8602 8595 8612 8546 8623 8501 8540 8533 8548 8616 8625 8509 8548 8555 8534 8555 8580 8623 8617 8471 8654 8572 8552 8482 8574 8482 8509 8530 8511 8505 8605 8551 8509 8466 8536 8547 8596 8582 8668 8487 8539 8614 8565 8481 8569 8601 8610 8578 8504 8532 8567 8724 8536 8531 8532 8620 8554 8578 8543 8534 8505 8455 8536 8597 8475 8625 8485 8490 8584 8588 8576 8523 8566 8553 8578 8518 8458 8533 8499 8547 8603 8602 8534 8549 8509 8420 8518 8473 8532 8596 8531 8552 8527 8610 8619 8520 8576 8549 8573 8537 8550 8576 8596 8483 8607 8618 8516 8527 8612 8644 8532 8541 8526 8524 8606 8527 8607 8575 8576 8491 8534 8556 8470 8559 8497 8527 8559 8503 8560 8540 8553 8498 8534 8574 8537 8587

Tree=0
num_leaves=95
num_cat=0
split_feature=25 0 19 7 2 16 19 11 11 19 19 7 19 19 12 6 0 7 25 25 16 7 2 19 19 7 19 6 12 25 19 16 0 2 16 19 7 22 19 7 11 19 0 16 29 7 19 12 12 6 11 7 0 27 19 19 25 29 19 29 12 19 19 0 16 25 7 16 17 19 2 6 22 17 6 12 6 0 19 7 17 7 19 29 17 25 19 2 6 19 0 11 12 0
split_gain=8440.96 3009.32 2977.86 3143.15 2847.33 1751.7 1687.35 3393.29 1166.81 1074.68 737.429 581.64 528.508 912.423 458.86 439.925 748.51 383.436 366.956 358.617 354.993 321.299 313.846 252.1 252.6 247.552 197.822 192.024 181.401 175.296 174.307 171.213 168.283 166.103 157.24 198.04 150.597 149.888 147.556 196.386 194.89 142.618 160.03 140.182 316.836 162.311 135.839 127.926 291.47 116.628 114.043 218.736 113.509 105.949 105.621 105.854 104.8 101.141 108.498 132.505 99.989 99.7135 161.455 105.9 98.941 97.8248 97.4449 97.2752 93.0302 100.928 89.852 140.277 88.0098 87.8749 88.5624 86.0961 85.0168 84.4112 84.5391 80.9675 80.2397 79.6026 281.014 75.5592 73.6698 73.5758 72.7273 71.3925 68.6845 68.2902 67.0641 65.351 61.9746 61.2629
threshold=0.75000000000000011 0.062500000000000014 0.83290193939598234 0.488734835355286 0.50000000000000011 0.68734335839599003 0.83290193939598234 0.72368421052631593 0.96052631578947378 0.15641081520814923 0.041089985277197746 0.047412725922257995 0.020146186242682652 0.037822932641264607 0.64866717440974875 0.36875000000000008 0.60416666666666674 0.17170091606833379 0.91666666666666674 0.91666666666666674 0.69235588972431084 0.37855904926962125 0.83333333333333337 0.64998261146662717 0.014496827933185135 0.14520921020054472 0.50422820956323389 0.3312500000000001 0.5822543792840823 0.91666666666666674 0.02949156541229209 0.64011885006411129 0.64583333333333337 0.50000000000000011 0.70238095238095244 0.023229395353967734 0.12688784352562518 0.15000000000000005 0.15641081520814923 0.0089749938103490974 0.19736842105263161 0.020146186242682652 0.22916666666666669 0.43421052631578949 0.83333333333333348 0.21824709086407532 0.39152102174102893 0.72680883472962687 0.64866717440974875 0.2687500000000001 0.61842105263157898 0.082817529091359268 0.64583333333333337 0.00015468925072579265 0.50422820956323389 0.62533800398021244 0.91666666666666674 0.50000000000000011 0.027844633837319936 1.0000000180025095e-35 0.11873571972581874 0.02949156541229209 0.020146186242682652 0.64583333333333337 0.73872180451127822 0.91666666666666674 0.51844515969299343 0.7399749373433584 0.13584406170623956 0.003542817922905219 0.50000000000000011 0.41875000000000012 0.41666666666666674 0.21044481093602094 0.28125000000000006 0.22231530845392233 0.15625000000000003 0.14583333333333334 0.39152102174102893 0.53206239168110925 0.31552718061219065 0.0033547907897994557 0.024033710774302972 1.0000000180025095e-35 0.16181814839872263 0.41666666666666669 0.066979175124745507 0.83333333333333337 0.29375000000000012 0.62533800398021244 1.0000000180025095e-35 0.27631578947368424 0.039223153084539226 1.0000000180025095e-35
decision_type=2 2 2 2 2 2 2 2 2 2 2 2 2 2 2 2 2 2 2 2 2 2 2 2 2 2 2 2 2 2 2 2 2 2 2 2 2 2 2 2 2 2 2 2 2 2 2 2 2 2 2 2 2 2 2 2 2 2 2 2 2 2 2 2 2 2 2 2 2 2 2 2 2 2 2 2 2 2 2 2 2 2 2 2 2 2 2 2 2 2 2 2 2 2
left_child=1 10 4 21 15 66 9 11 20 19 12 91 31 17 28 23 46 93 -11 27 56 50 26 24 25 -3 38 61 72 -22 41 -1 -29 -20 35 -19 65 67 39 40 -6 68 -43 44 -18 -45 -17 48 64 77 51 -4 -32 -15 88 -56 -9 58 -36 -60 -48 62 90 -63 -23 75 -5 -38 69 -21 71 -54 -7 74 -27 -13 -39 86 81 -61 -34 82 -79 -66 -85 -86 -26 92 -24 -80 -2 -8 -53 -14
right_child=6 2 3 5 22 14 7 8 -10 18 -12 36 13 53 -16 16 43 34 33 30 29 47 54 -25 49 73 -28 32 -30 -31 52 -33 80 -35 57 -37 37 76 -40 -41 -42 42 -44 45 -46 -47 60 -49 -50 -51 -52 87 70 -55 55 -57 -58 -59 59 79 -62 63 -64 -65 83 -67 -68 -69 -70 -71 -72 -73 -74 -75 -76 -77 -78 78 89 -81 -82 -83 -84 84 85 -87 -88 -89 -90 -91 -92 -93 -94 -95
leaf_value=-0.0046840591198547242 0.028695447981185149 -0.008290620787750726 0.011084356405989921 0.52369378401408284 0.011974954154477066 0.21971182996814673 0.020415656943335959 0.51185822023055383 0.6816369359542197 0.034296303443272697 -0.015418823955805475 0.20152650265823679 0.0023606356051297738 0.0099715747962096958 0.3493107221558911 -0.0025524826326263875 0.086786930832623663 0.081056328340311762 0.017453221496328348 0.1871251764481183 0.31430577261784937 0.038283783422050952 -0.014113108601326196 0.038518731888807042 -0.035350587667524636 0.041950431938985427 -0.020404585253951443 0.079741358045090874 -0.027973359878523545 0.13404568954862056 0.022305268943778604 0.02575421646501104 0.1486346242670436 -0.0050012943574644086 0.096240227378269344 0.033737829168695839 0.32024773751362806 0.17708342703366664 -0.03199901365401471 -0.022779576454676868 0.20046745182576695 0.092253431766989635 0.035598790610152739 0.064619249031197826 0.33732892586054197 0.24876984772330685 0.1853797008247263 -0.010806700381323772 0.25036378507225793 0.0023259792129087823 0.0051921499601761626 0.12004232079388127 0.058102749940660295 0.031094116434208199 0.048914961255262963 -0.015156766508988428 0.32862554349616896 0.076164511145919031 0.10515136638077313 0.17232825103521529 0.037687635234405235 0.043715350391023103 0.094436562323882769 0.083171369121462099 0.19481081323488522 0.067987208942725322 0.70759348456806115 0.14536156217767965 0.029911623958411685 0.056671811136551425 0.008213507397086442 0.20950740561735562 0.091721181177704697 0.017805867709808625 0.1713508870085941 0.10145690835881714 0.091731803921497296 0.14664098975066103 0.011170722719661443 0.30210049704561692 0.28440273999493282 -0.0092798526910453615 -0.0012321689593652655 0.0090698243796182576 0.069749673733082954 0.20200166761622984 0.013701705816308148 0.065374612580414229 0.012857031295870567 -0.005460241324472901 0.066709136918969902 0.061127937522152391 0.028946144010899656 0.039314938593181227
leaf_weight=4303 760 3595 14640 68 212 96 1621 57 89 7078 4039 101 631 5464 99 3879 188 3085 6497 76 87 646 7513 1383 337 1379 41451 453 80 142 6632 3239 152 6683 536 1240 69 172 49597 17881 74 1340 794 1120 69 50 51 196 89 15213 12929 76 1045 4200 629 437 69 748 190 128 453 4450 1645 803 73 1090 50 59 2435 270 340 65 122 3748 55 578 363 146 3899 77 61 75923 1073 95 116 66 2932 679 1080 6732 1192 521 4305 1552
leaf_count=4303 760 3595 14640 68 212 96 1621 57 89 7078 4039 101 631 5464 99 3879 188 3085 6497 76 87 646 7513 1383 337 1379 41451 453 80 142 6632 3239 152 6683 536 1240 69 172 49597 17881 74 1340 794 1120 69 50 51 196 89 15213 12929 76 1045 4200 629 437 69 748 190 128 453 4450 1645 803 73 1090 50 59 2435 270 340 65 122 3748 55 578 363 146 3899 77 61 75923 1073 95 116 66 2932 679 1080 6732 1192 521 4305 1552
internal_value=3.45172e-10 -0.00612366 -0.00937039 0.0181423 -0.0132987 0.263334 0.0390769 0.0939358 0.357874 0.0326407 0.0242702 0.0683153 0.0305831 0.0399605 0.162786 -0.00258146 0.0242736 0.0645236 0.0159305 0.0476772 0.276705 0.0144185 -0.0243182 -0.00392173 -0.00443198 0.0118726 -0.0258462 0.0624273 0.10082 0.202529 0.0368777 0.00838801 0.11421 0.00606752 0.077573 0.0674899 0.101782 0.142429 -0.0291748 -0.0214647 0.0607457 0.0517279 0.0711739 0.0871785 0.154053 0.0724889 0.00379324 0.0635453 0.0769766 -0.00577879 0.0124898 0.0172792 0.0278466 0.0191515 -0.00704029 0.0226492 0.411517 0.103546 0.125546 0.165313 0.0526327 0.0585304 0.0713578 0.0497468 0.0614832 0.0865474 0.601617 0.239636 0.0368061 0.0853263 0.0531917 0.0669688 0.148084 0.0258607 0.0469135 0.116342 0.119172 -0.00713308 -0.00772072 0.221072 0.187517 -0.00887282 0.0164786 0.104303 0.0804502 0.117709 0.00864492 0.0352027 -0.0107234 0.000639291 0.0519087 0.0303181 0.0305264 0.0286332
internal_weight=0 304956 275524 34425 241099 515 47789 5018 444 42771 29432 4574 25393 17851 397 122225 5810 8187 20258 22513 355 33910 118874 116415 115032 8777 109215 9516 298 229 12997 7542 666 13180 6004 4325 2432 663 67764 18167 286 4915 2134 1427 257 1170 4383 1281 1085 106255 32629 19700 8082 9664 9659 1066 126 1679 931 395 504 8850 3597 5253 996 1769 118 128 2781 346 1450 1110 218 5182 1434 679 535 91042 87773 205 213 77142 1219 350 277 182 3269 5060 8593 10631 1952 2142 4381 2183
internal_count=352745 304956 275524 34425 241099 515 47789 5018 444 42771 29432 4574 25393 17851 397 122225 5810 8187 20258 22513 355 33910 118874 116415 115032 8777 109215 9516 298 229 12997 7542 666 13180 6004 4325 2432 663 67764 18167 286 4915 2134 1427 257 1170 4383 1281 1085 106255 32629 19700 8082 9664 9659 1066 126 1679 931 395 504 8850 3597 5253 996 1769 118 128 2781 346 1450 1110 218 5182 1434 679 535 91042 87773 205 213 77142 1219 350 277 182 3269 5060 8593 10631 1952 2142 4381 2183
is_linear=0
shrinkage=1


Tree=1
num_leaves=95
num_cat=0
split_feature=30 2 11 10 31 2 33 11 27 13 2 10 2 13 13 10 13 13 13 14 13 20 10 10 14 31 13 15 13 20 27 20 2 10 31 11 18 4 33 29 4 4 27 14 13 4 4 10 33 33 14 24 31 10 13 13 31 13 10 31 20 15 18 14 10 20 15 27 18 18 27 24 18 11 20 31 14 29 33 20 18 27 18 10 29 33 27 15 10 33 4 10 20 11
split_gain=6837.18 2070.61 1218.7 694.407 663.699 488.918 352.962 281.984 218.53 207.834 205.046 290.097 181.122 174.384 615.142 171.515 141.424 202.134 134.923 200.479 133.927 106.006 105.198 104.885 103.817 100.388 93.7722 154.826 113.323 188.543 91.0583 90.607 89.9738 89.0307 86.2069 85.2044 84.8938 84.6403 72.4048 103.97 71.4374 73.9396 67.5721 84.8816 67.0928 78.7892 63.4075 62.4295 55.3194 78.0326 53.9286 53.6191 51.6425 54.1126 51.631 93.1128 49.7129 49.6693 49.4249 49.2123 48.4871 47.822 47.253 46.2575 46.1607 46.0778 46.0307 45.0335 44.9127 42.8698 42.8476 42.7002 42.5283 42.2002 41.0575 40.7254 51.7167 37.8622 76.1074 37.3252 36.5536 34.7506 44.8673 34.5252 34.3715 37.2914 42.9404 60.4609 34.3015 34.0088 33.9615 33.4949 32.041 31.0565
threshold=1.0000000180025095e-35 0.50000000000000011 0.96052631578947378 0.72767574414186209 0.18055555555555561 0.83333333333333337 0.096828083925839067 0.82894736842105277 0.0048005100926748374 0.40725806451612906 0.50000000000000011 0.10132995566814443 1.0000000180025095e-35 0.77016129032258074 0.77822580645161299 0.0064808950812750704 0.74596774193548399 0.77822580645161299 0.30241935483870974 0.56949583718778929 0.53629032258064524 1.0000000180025095e-35 0.17479417352754914 0.0064808950812750704 0.57874653098982443 0.28333333333333338 0.58467741935483886 0.41738365271802896 0.71370967741935498 0.38888888888887158 0.00013331474219782752 0.16666666666667143 0.83333333333333337 0.63056786995989034 0.040277777777777787 0.27631578947368424 0.32608695652173919 0.83821472809365904 0.097739178364867743 1.0000000180025095e-35 0.9376073840252529 0.45572781396092227 0.023888773986769824 0.57527752081406125 0.35887096774193555 0.11405681863587329 0.32405002597195037 0.0064808950812750704 0.027885592553024325 0.10838894105459897 0.58175300647548578 0.12711864406779663 0.35000000000000003 0.37534304412075165 0.52016129032258074 0.43951612903225812 0.0090277777777777787 0.58467741935483886 0.16803884314967285 0.011805555555555557 0.27777777777777152 0.24296050058662497 0.23913043478260873 0.56949583718778929 0.12117373865315603 0.38888888888887158 0.42540086038326169 0.026263741042245523 0.45652173913043487 0.32608695652173919 0.011829714332204557 0.88983050847457645 0.71739130434782616 0.22368421052631582 0.61111111111110017 0.01041666666666667 0.57319611470860332 0.50000000000000011 0.029771386898014531 1.0000000180025095e-35 0.45652173913043487 0.0027777825401112742 0.32608695652173919 0.016740553092674693 0.50000000000000011 0.079577524515630341 0.00062849813959874946 0.45355885803676188 0.027506860882415034 0.016055010836884358 0.11797258960322853 0.74456407008655279 1.0000000180025095e-35 0.19736842105263161
decision_type=2 2 2 2 2 2 2 2 2 2 2 2 2 2 2 2 2 2 2 2 2 2 2 2 2 2 2 2 2 2 2 2 2 2 2 2 2 2 2 2 2 2 2 2 2 2 2 2 2 2 2 2 2 2 2 2 2 2 2 2 2 2 2 2 2 2 2 2 2 2 2 2 2 2 2 2 2 2 2 2 2 2 2 2 2 2 2 2 2 2 2 2 2 2
left_child=1 4 7 5 13 9 46 10 18 22 12 69 25 56 35 74 31 48 19 -5 -20 68 -3 50 33 47 27 65 -28 -30 51 -14 52 -6 54 36 -15 -37 93 -40 41 90 43 64 80 -46 -4 -2 -18 -50 -19 -13 -32 -54 55 -7 61 73 79 -41 -26 -1 -58 70 -23 -22 -31 -35 -11 -12 -47 -36 83 -56 -16 -76 -77 78 -34 -49 -9 82 -33 -64 85 86 87 -73 -45 -43 -21 -10 -24 -38
right_child=2 3 6 8 24 34 -8 44 91 21 11 30 16 14 15 -17 17 23 20 40 26 42 92 -25 60 -27 28 -29 29 66 32 81 77 67 71 37 38 -39 39 59 -42 89 -44 88 45 63 -48 58 49 -51 -52 -53 53 -55 57 -57 62 -59 -60 -61 -62 -63 72 -65 -66 -67 -68 -69 -70 -71 -72 84 -74 -75 75 76 -78 -79 -80 -81 -82 -83 -84 -85 -86 -87 -88 -89 -90 -91 -92 -93 -94 -95
leaf_value=0.1034899194360305 0.11947948641900251 -0.024368380930985811 0.44182199388582843 0.26780732699211629 0.01581178730087901 0.014013286834427114 0.0635860636059353 0.09846465988632512 0.071063587987529375 -0.0065246321135919369 0.0032070839123389712 0.16769307077130569 0.15261394828672947 0.055851241362430061 0.085430370356786911 -0.0047185985091552562 0.075934452625922855 0.20353920958508778 -0.018359277581002236 0.059141986041019362 0.12322745246484 -0.011653852810353015 0.035350955480879007 0.038465129115396998 0.0033074333554244644 0.026216618738976013 -0.022639466565049872 0.23082250466901966 0.18613326197117569 -0.0061498346215333143 0.029582138665826502 0.032500616531367398 0.19907140505642423 0.024469817588896221 0.005422918870364459 0.032031414335322375 0.13509996463280088 0.16021874255811175 0.057880442129233135 0.14737723248976251 0.17862994907820812 0.0092106806786404448 -0.022937923797254359 -0.004385437440444514 0.16221035338683507 0.15745482975617053 0.30745269951746906 0.08653175041392229 0.26359029592660427 0.13646786398706942 0.067819127304895893 0.068881389714041577 0.14816176934024464 0.0505935535906114 0.10910704195925257 -0.015509423059196059 0.00018909612471998486 0.0026183359137790822 0.045837293620531329 0.26813075734173053 0.010122155285489579 0.0074653479861279959 -0.013867990298409634 0.04682336149940966 -0.00072107360335046196 0.031290742544163218 0.081054381766614128 0.079224371315098921 0.043352863865225341 0.017459807688618916 0.066668608777463667 0.058499856600079871 -0.0025299172750836226 0.022362384808937385 0.0093656560195024222 0.10996317843790167 0.022396337606168548 0.047577599904984932 0.073328407918212601 0.034012227616129029 0.21118462209335787 0.037195207544797305 0.067581973920714425 -0.006553888697373441 0.0053512049079184462 0.019712703938906395 0.036683331213116573 0.18906783693283799 -0.01525853390698418 0.095912648371215603 0.15584622899313338 -0.0089623901693178624 -0.014187652967058621 0.053257578271156063
leaf_weight=53 96 37393 62 63 15554 1398 53 51 56 298 3335 63 81 197 185 6484 50 67 298 60 85 8061 132 442 15027 9362 213 73 100 170 4742 534 63 271 1984 364 88 60 52 54 61 194 7563 3055 101 89 81 137 88 107 52 428 65 453 76 4530 14820 5424 6120 90 34209 2419 8073 400 7414 152 94 337 458 5747 125 122 21715 214 353 120 154 229 204 11032 66 2115 1149 32177 521 654 399 50 57705 59 92 792 11989 98
leaf_count=53 96 37393 62 63 15554 1398 53 51 56 298 3335 63 81 197 185 6484 50 67 298 60 85 8061 132 442 15027 9362 213 73 100 170 4742 534 63 271 1984 364 88 60 52 54 61 194 7563 3055 101 89 81 137 88 107 52 428 65 453 76 4530 14820 5424 6120 90 34209 2419 8073 400 7414 152 94 337 458 5747 125 122 21715 214 353 120 154 229 204 11032 66 2115 1149 32177 521 654 399 50 57705 59 92 792 11989 98
internal_value=0 -0.00551129 0.0351692 -0.0137771 0.00270308 -0.0146621 0.284014 0.0341444 0.0378439 -0.0165989 0.0331177 0.0236354 0.0377421 -0.00298996 0.0108017 0.000707226 0.0558798 0.0939951 0.0583866 0.100379 0.0396407 -0.013586 -0.0217441 0.0609007 0.010325 0.0345651 0.0591266 0.103486 0.0352942 0.069195 0.0402224 0.0479599 0.0366963 0.0172792 0.00222994 0.0842305 0.109172 0.0501711 0.13667 0.179081 0.0777436 0.0625484 -0.0139223 -0.0130279 0.0918504 0.0803631 0.365711 0.0390608 0.169774 0.193836 0.144233 0.0815599 0.032857 0.0628367 -0.0020089 -0.00854708 -0.00443408 0.00477416 0.0386143 0.222848 0.00804228 0.00952413 -0.00488345 0.0668997 -0.00641601 0.0642638 0.0249002 0.054819 0.0236922 0.0122261 0.104425 0.0154601 -0.00609663 0.0450955 0.0440336 0.0318193 0.0607468 0.0774108 0.102998 0.0346564 0.16205 0.045728 0.056451 -0.00802089 0.0268655 0.0360156 0.0546883 0.0964557 -0.0147118 0.0294297 0.117674 -0.00367766 -0.0136482 0.0919787
internal_weight=0 304956 47789 152002 152954 149440 196 47593 2562 134068 46761 15329 31432 87556 8299 7296 4685 806 1714 529 1185 84554 49514 561 65398 26747 887 310 577 364 6247 3879 5756 16162 15372 1003 579 424 382 196 466 405 83798 76235 832 715 143 17385 245 195 119 491 5260 518 11642 5928 79257 5714 17289 144 49236 2472 76785 614 15475 237 264 608 756 9082 214 3730 61965 290 812 627 274 496 267 11169 117 3798 1683 40250 1746 1225 571 172 60760 253 152 848 12121 186
internal_count=352745 304956 47789 152002 152954 149440 196 47593 2562 134068 46761 15329 31432 87556 8299 7296 4685 806 1714 529 1185 84554 49514 561 65398 26747 887 310 577 364 6247 3879 5756 16162 15372 1003 579 424 382 196 466 405 83798 76235 832 715 143 17385 245 195 119 491 5260 518 11642 5928 79257 5714 17289 144 49236 2472 76785 614 15475 237 264 608 756 9082 214 3730 61965 290 812 627 274 496 267 11169 117 3798 1683 40250 1746 1225 571 172 60760 253 152 848 12121 186
is_linear=0
shrinkage=0.1


Tree=2
num_leaves=95
num_cat=0
split_feature=25 0 19 11 13 19 11 19 11 19 19 19 10 19 19 13 13 6 25 25 11 26 26 19 0 23 0 10 13 6 10 19 5 6 25 10 26 5 6 0 11 10 10 26 0 19 0 6 11 0 5 19 10 11 19 11 11 19 19 26 0 0 17 4 6 17 11 11 10 19 11 19 0 6 19 14 29 0 25 13 10 10 11 4 4 4 11 0 0 11 10 10 26 13
split_gain=5538.12 2208.19 2426.93 2145.98 2837.68 1360.87 2519.52 841.758 812.677 623.613 593.715 495.142 457.675 421.481 736.551 368.95 369.417 360.747 292.272 288.465 285.097 284.666 256.218 246.299 245.98 234.627 183.277 157.731 150.693 150.575 143.269 142.479 141.356 139.601 136.503 128.79 128.629 175.856 124.286 123.791 118.542 153.214 117.055 115.194 109.974 109.657 131.873 99.3855 98.9165 94.4339 94.1141 90.5447 126.406 105.414 90.1491 90.0641 88.9531 87.9812 112.491 87.3941 86.8926 85.9569 84.9643 84.1796 81.4979 76.7073 76.3846 75.7293 80.3446 106.54 70.7684 70.1597 100.451 70.1284 70.1084 128.579 86.2334 66.6397 65.9067 78.2626 86.8727 76.0569 64.4455 65.9056 64.1794 61.7196 61.2975 60.5486 62.1478 58.5654 94.6271 75.9256 71.7029 67.8353
threshold=0.75000000000000011 0.062500000000000014 0.83290193939598234 0.96052631578947378 0.30241935483870974 0.83290193939598234 0.72368421052631593 0.15641081520814923 0.96052631578947378 0.15641081520814923 0.041089985277197746 0.13549765676107547 0.072619801562170169 0.020146186242682652 0.037822932641264607 0.53629032258064524 0.58467741935483886 0.36875000000000008 0.91666666666666674 0.91666666666666674 0.51315789473684226 0.022008038065070182 0.035528718422899917 0.014209572425922551 0.31250000000000006 0.67391304347826098 0.47916666666666669 0.075997466751108314 0.16532258064516131 0.46875000000000006 0.06502005488705935 0.02949156541229209 1.0000000180025095e-35 0.16875000000000004 0.91666666666666674 0.13172894236858776 0.030802451012881375 0.90000000000000013 0.29375000000000012 0.64583333333333337 0.19736842105263161 0.0078319611568503297 0.0025754697065653374 0.012671133396013685 0.14583333333333334 0.020146186242682652 0.22916666666666669 0.41875000000000012 0.27631578947368424 0.64583333333333337 0.50000000000000011 0.024646522523129818 0.0014143972978678491 0.092105263157894746 0.003542817922905219 0.17105263157894737 0.5921052631578948 0.035204119933387373 0.020146186242682652 0.012671133396013685 0.22916666666666669 0.64583333333333337 1.0000000180025095e-35 0.76914931873576553 0.35625000000000012 0.23659549920236353 0.27631578947368424 0.61842105263157898 0.10850749419463798 0.50422820956323389 0.64473684210526327 0.003542817922905219 0.31250000000000006 0.40625000000000006 0.023229395353967734 0.55515726179463476 0.50000000000000011 0.60416666666666674 0.41666666666666669 0.99596774193548399 0.033164450073886437 0.61367954401519964 0.67105263157894746 0.13417509090182608 0.43858632676709158 0.22277939824989015 0.61842105263157898 0.35416666666666669 0.27083333333333337 0.61842105263157898 0.12455140384209419 0.12624023643656326 0.052661741989603286 0.71370967741935498
decision_type=2 2 2 2 2 2 2 2 2 2 2 2 2 2 2 2 2 2 2 2 2 2 2 2 2 2 2 2 2 2 2 2 2 2 2 2 2 2 2 2 2 2 2 2 2 2 2 2 2 2 2 2 2 2 2 2 2 2 2 2 2 2 2 2 2 2 2 2 2 2 2 2 2 2 2 2 2 2 2 2 2 2 2 2 2 2 2 2 2 2 2 2 2 2
left_child=1 10 9 78 -5 7 12 19 21 11 13 23 66 43 20 -6 22 -13 -9 27 -15 25 -17 35 28 -8 32 38 67 86 -31 45 40 50 -23 -3 37 -18 -2 -19 51 -42 -41 -1 56 65 -47 -30 -26 -40 -14 52 53 -25 -37 -51 -34 58 -29 -16 -60 -33 -22 -54 -57 71 -7 68 -11 -70 -52 72 -21 -71 -64 76 -76 -59 89 81 -81 -80 83 -35 -32 -49 -28 88 -46 90 93 -92 -91 -4
right_child=5 2 3 4 15 6 8 18 -10 24 -12 17 33 14 59 16 36 39 -20 31 62 34 -24 26 48 -27 29 57 47 30 84 61 44 82 -36 54 -38 -39 49 42 41 -43 -44 -45 87 46 -48 85 -50 55 70 -53 63 -55 -56 64 -58 77 60 -61 -62 -63 74 -65 -66 -67 -68 -69 69 73 -72 -73 -74 -75 75 -77 -78 -79 79 80 -82 -83 -84 -85 -86 -87 -88 -89 -90 92 91 -93 -94 -95
leaf_value=-0.0045106490005103247 0.062131279931579735 -0.0056247552261661617 0.020479627888908281 0.59013547713521619 -0.012058740399316349 0.016659726206298735 0.44194419075972702 0.027473964051773367 0.57855106906944442 -0.0098956053762669083 -0.01453667728415587 0.0107560195778321 0.10186668767711463 0.026206740781055005 0.0076125258564976655 0.45656412915856237 0.068087969583116081 0.017483009014656579 0.0022810062081269514 0.19699442615829313 0.16485663652937446 0.2651531494427018 0.17869878897541447 -0.014988716521548992 -0.012320481166372086 0.18039135910846571 0.0010695844516403301 0.041169671047262518 -0.015002966301849769 0.0063938874357046876 0.22679911813428327 0.016506855175960913 0.0074726194149105432 0.12534109767478932 0.099120303305983551 0.042886925651424469 0.041282305978568259 0.30410667707522715 0.085979600363629824 0.0056318713033882278 0.16673324659783792 0.0034800472581205336 0.11357518749604396 0.020282117783132124 -0.022709573881970931 0.079106933226274184 0.027677503289459556 0.13318537829951807 -0.023752117562709785 0.066776226030598435 0.20837434382724856 -0.0063752242783189144 -0.0081147884303471411 0.14506665922911935 0.011308567073474452 0.13476720933491987 -0.018883499879862205 0.031726582346453321 0.089750239203335469 0.026688051917559442 0.031862042589246568 0.043384639782793943 0.074978705219591449 0.065443132694192871 0.28396419140104301 0.019281707258811683 0.054173792339374999 -0.018153141293527863 -0.003328426132093964 0.016608843889571064 0.086711225601175113 0.042213150081178742 0.028176302679169637 0.11272433183382816 0.12059670305419444 0.031481623863980394 0.055812236833144124 0.070890295843607273 0.016722344590098127 0.18185054433321762 0.017004429413513704 0.06114396074772778 0.12272535147734019 0.055783259434954963 0.079792130300611788 0.019210754628733527 -0.017317362085899842 -0.02321899417599127 -0.011746541347648546 -0.0035351082907972213 0.12854140042382128 0.031477947864792501 0.015347352734035147 0.004667088407641783
leaf_weight=4065 1363 4109 4438 137 226 1621 94 7078 89 9142 4039 6994 467 2180 5203 51 76 276 13180 77 90 82 95 59 9530 54 15021 1842 76198 137 62 6632 3837 157 125 1132 226 54 332 120 94 148 617 3477 6513 1340 794 55 36789 58 189 11571 713 136 4489 69 1922 3716 1238 4461 328 1450 3835 199 78 1981 816 3994 7556 2835 64 658 65 78 345 1229 508 492 11336 62 66 399 231 1029 57 349 2062 9212 25093 5456 85 1553 3185 6980
leaf_count=4065 1363 4109 4438 137 226 1621 94 7078 89 9142 4039 6994 467 2180 5203 51 76 276 13180 77 90 82 95 59 9530 54 15021 1842 76198 137 62 6632 3837 157 125 1132 226 54 332 120 94 148 617 3477 6513 1340 794 55 36789 58 189 11571 713 136 4489 69 1922 3716 1238 4461 328 1450 3835 199 78 1981 816 3994 7556 2835 64 658 65 78 345 1229 508 492 11336 62 66 399 231 1029 57 349 2062 9212 25093 5456 85 1553 3185 6980
internal_value=0 -0.00496016 -0.00774135 0.0170963 0.172614 0.0316523 0.0809191 0.0258722 0.30835 -0.0112878 0.0210755 -0.00495731 0.0588422 0.02674 0.0351142 0.0940414 0.141808 0.0188341 0.0110832 0.0391798 0.0571834 0.24061 0.275761 -0.00715792 -0.0153736 0.346513 -0.00905608 0.0524087 -0.012588 -9.02666e-06 0.0761159 0.029494 -0.0116926 0.0926219 0.164892 0.00783145 0.0868715 0.166127 0.0781849 0.0746071 -0.0024379 0.0668924 0.0959996 0.00691927 -0.0142598 0.0429202 0.0599715 -0.0147407 -0.0214001 0.118932 0.128478 -0.00376129 0.023561 0.0966396 0.0176681 0.172298 -0.00132343 0.0459782 0.0579214 0.016418 0.0776255 0.021329 0.0684251 0.00793568 0.213933 0.0298358 0.0292209 -0.00560222 -0.00304608 0.00293524 0.177598 0.0559704 0.119719 0.0191825 0.0669584 0.0521851 0.0820146 0.0363056 0.0130878 0.019081 0.0968518 0.0182327 0.074403 0.0649912 0.156384 0.0347271 -0.00114981 -0.016085 -0.0140057 0.00981103 0.0140377 0.0365148 0.00342481 0.0108132
internal_weight=0 304956 275524 34425 865 47789 5018 42771 444 241099 29432 94573 4574 25393 17851 728 502 8007 20258 22513 8187 355 146 86566 146526 148 76836 9516 100207 17339 256 12997 59497 2137 207 9730 356 130 1900 1013 12920 242 737 7542 46577 4915 2134 76602 46319 537 720 12678 1107 195 5621 205 5759 7616 3408 9664 1566 8082 6007 912 147 2781 2437 23605 19611 10469 253 800 142 2913 5917 2082 853 4208 33560 11863 128 11735 1417 1186 119 404 17083 40818 31606 21697 13056 1638 8641 11418
internal_count=352745 304956 275524 34425 865 47789 5018 42771 444 241099 29432 94573 4574 25393 17851 728 502 8007 20258 22513 8187 355 146 86566 146526 148 76836 9516 100207 17339 256 12997 59497 2137 207 9730 356 130 1900 1013 12920 242 737 7542 46577 4915 2134 76602 46319 537 720 12678 1107 195 5621 205 5759 7616 3408 9664 1566 8082 6007 912 147 2781 2437 23605 19611 10469 253 800 142 2913 5917 2082 853 4208 33560 11863 128 11735 1417 1186 119 404 17083 40818 31606 21697 13056 1638 8641 11418
is_linear=0
shrinkage=0.1


Tree=3
num_leaves=95
num_cat=0
split_feature=25 0 0 11 0 31 20 12 0 11 0 25 25 0 0 20 0 6 16 12 12 6 25 4 0 16 6 6 16 29 16 11 0 20 31 0 0 31 31 29 11 11 0 31 20 20 6 20 16 31 0 16 20 22 0 31 0 4 11 26 31 28 29 16 11 6 11 12 22 12 15 6 11 25 24 16 31 11 31 0 31 14 12 31 0 11 14 22 31 4 6 11 16 31
split_gain=4485.87 1788.63 878.147 1923.19 797.083 1875.22 1373.62 1208.69 1205.46 616.292 476.851 413.173 348.85 330.063 283.329 324.894 276.645 227.088 226.186 192.835 1054.22 183.6 156.836 147.767 134.846 131.399 129.509 128.869 125.563 177.782 214.653 124.769 122.118 113.763 99.937 109.446 100.817 97.3279 93.3848 100.13 92.2414 90.83 174.969 135.099 123.958 89.5305 87.8076 84.2239 82.0682 81.6885 113.598 79.7147 78.3252 71.0796 70.6387 122.811 80.5508 68.6188 68.0793 66.8048 63.9559 67.8721 62.8498 86.4081 67.1613 61.8519 59.7896 58.2316 72.721 76.9004 74.6898 55.9784 63.6763 54.9796 56.6078 52.902 47.9365 61.8774 46.7282 46.1667 79.3606 50.0608 45.7332 44.6892 44.4785 44.4252 44.2883 52.429 43.5972 43.5131 42.5967 83.186 41.9127 41.6157
threshold=0.75000000000000011 0.062500000000000014 0.64583333333333337 0.96052631578947378 0.47916666666666669 0.95000000000000007 0.61111111111110017 0.40936785986290941 0.77083333333333337 0.77631578947368429 1.0000000180025095e-35 0.91666666666666674 0.91666666666666674 0.81250000000000011 0.77083333333333337 0.72222222222221444 0.14583333333333334 0.36875000000000008 0.66478696741854637 0.65567402894135574 0.64866717440974875 0.35625000000000012 0.91666666666666674 0.45940384384864358 0.14583333333333334 0.69486215538847118 0.4562500000000001 0.3312500000000001 0.51315789473684215 0.50000000000000011 0.40288220551378445 0.51315789473684226 1.0000000180025095e-35 0.61111111111110017 0.034722222222222231 0.14583333333333334 1.0000000180025095e-35 0.073611111111111127 0.18055555555555561 0.50000000000000011 0.75000000000000011 0.27631578947368424 0.77083333333333337 0.22361111111111115 0.61111111111110017 1.0000000180025095e-35 0.38125000000000003 0.61111111111110017 0.68233082706766923 0.043055555555555562 0.85416666666666674 0.65726817042606511 1.0000000180025095e-35 0.51666666666666672 0.72916666666666674 0.22361111111111115 0.81250000000000011 0.45165221560714436 0.96052631578947378 0.10320429897026355 0.14583333333333334 0.00092915896054446528 1.0000000180025095e-35 0.74248120300751885 0.77631578947368429 0.35625000000000012 0.43421052631578955 0.5822543792840823 0.71666666666666667 0.40936785986290941 0.42540086038326169 0.41875000000000012 0.35526315789473689 0.58333333333333337 0.7033898305084747 0.72117794486215547 0.19583333333333339 0.51315789473684226 0.023611111111111114 0.31250000000000006 0.037500000000000012 0.44484273820536552 0.192003046458492 0.19583333333333339 0.68750000000000011 0.56578947368421062 0.60996762257169301 0.18333333333333338 0.068750000000000019 0.17191433252087748 0.11875000000000001 0.092105263157894746 0.4642857142857143 0.037500000000000012
decision_type=2 2 2 2 2 2 2 2 2 2 2 2 2 2 2 2 2 2 2 2 2 2 2 2 2 2 2 2 2 2 2 2 2 2 2 2 2 2 2 2 2 2 2 2 2 2 2 2 2 2 2 2 2 2 2 2 2 2 2 2 2 2 2 2 2 2 2 2 2 2 2 2 2 2 2 2 2 2 2 2 2 2 2 2 2 2 2 2 2 2 2 2 2 2
left_child=1 10 11 9 24 8 7 -7 17 12 31 34 26 46 15 22 32 25 76 20 67 -15 -11 -9 40 52 41 33 29 -19 -31 -1 -13 -26 -2 36 -36 90 -20 62 88 65 43 82 57 -14 -10 -33 -34 -23 -51 -38 84 -17 55 71 78 -45 73 -49 61 -58 -40 -64 -65 -4 -29 68 69 -8 -71 72 92 74 -39 -61 77 -12 -56 81 -81 -35 -43 -68 -6 -41 87 -57 -3 -74 -27 -92 -47 -18
right_child=2 4 3 -5 5 6 19 23 13 14 18 16 45 21 -16 53 93 28 38 -21 -22 49 -24 -25 27 37 -28 66 -30 30 -32 47 48 79 35 -37 51 58 39 85 -42 42 -44 44 -46 54 -48 59 -50 50 -52 -53 -54 -55 56 86 60 -59 -60 75 -62 -63 63 64 -66 -67 83 -69 -70 70 -72 -73 89 -75 -76 -77 -78 -79 -80 80 -82 -83 -84 -85 -86 -87 -88 -89 -90 -91 91 -93 -94 -95
leaf_value=-0.0054807249218727519 0.05728349716502229 -0.023816040353061202 0.031181467687558834 0.51440736413002008 0.0037058496070115779 -0.0056701957289852318 0.021776715434830767 0.60944083823877226 -0.020389641353524095 0.44284858661703769 0.023954239063343458 0.021786880331264857 0.16412505409307779 -0.0002136141955275886 0.0042921405363207064 0.18281186521053316 0.017017942065700533 0.049702355368487321 0.039661121604019356 -0.036702239872128881 0.53080292022228237 0.022695234260107909 0.23854374535954914 0.42022260909988768 -0.014527345354450105 -0.0045245123508418188 0.21383298535327444 -0.0059914022551904693 0.028142157753063998 0.34545342986490213 0.084779913485588804 0.0099792197665586491 0.042295855009502149 -0.020385804436179763 0.032840306426460499 0.024667094590949543 0.050601609114302976 0.01086106715444368 0.077077890179536646 0.085916765411296003 -0.027478209358100216 0.12552382388293812 0.042867908447122911 0.15308897834178062 0.10491095540707399 0.060763117290112412 0.025635233347972242 0.037439676500596479 0.093773732759172515 0.18797651796379969 0.028064520450841103 0.10074696769658692 0.0027035657566549603 0.02947610927925956 0.088057440442659354 0.16882601437181324 0.14769429243310836 0.31054151649211326 0.10430161098116322 0.0081523061455742625 0.022734994542974552 0.036047395889277856 0.087475601135248271 0.13608007326181379 0.25974456031861554 0.10445991746304012 0.014761052769986788 -0.03362943452883916 -0.031934250554730814 0.071716534495353701 0.23631709615389507 0.10565075624059431 0.078266222385032405 0.034569372736606062 0.026439059257454836 0.028158951572344177 0.017248045955084907 0.065202940306354498 -0.0036966647129630411 -0.0086213602990103839 -0.019264246872964453 -0.0067550212645601619 0.075851483335337491 -0.010245784261810543 0.051975117637703641 0.039897153998782207 0.012829450289589456 0.079747820436885511 0.0073873615679581062 0.03537768171721916 0.069226190227513709 0.0083475888543550602 0.0093957282508031967 0.0043069360064068923
leaf_weight=3402 1699 478 860 90 303 67 87 68 26936 64 914 3738 50 8271 72 59 3154 373 986 135 50 162 91 105 84247 2637 61 10023 1613 51 83 11842 1475 2850 2909 8321 1191 6606 456 316 961 217 1003 50 171 178 421 2357 392 105 77 432 25707 62 58 83 99 62 95 2915 565 121 214 124 68 133 2922 83 62 60 51 98 282 1980 3606 2418 2192 604 1290 19787 10847 49339 1271 946 516 624 72 324 7080 1468 234 5500 1476 14048
leaf_count=3402 1699 478 860 90 303 67 87 68 26936 64 914 3738 50 8271 72 59 3154 373 986 135 50 162 91 105 84247 2637 61 10023 1613 51 83 11842 1475 2850 2909 8321 1191 6606 456 316 961 217 1003 50 171 178 421 2357 392 105 77 432 25707 62 58 83 99 62 95 2915 565 121 214 124 68 133 2922 83 62 60 51 98 282 1980 3606 2418 2192 604 1290 19787 10847 49339 1271 946 516 624 72 324 7080 1468 234 5500 1476 14048
internal_value=0 -0.00446415 0.0284871 0.0541422 -0.00696721 0.00101445 0.156575 0.354939 -0.000386532 0.0501361 0.018968 0.0213246 0.0455799 -0.014306 0.180955 0.227041 0.0129243 0.00976904 0.0428808 0.0664089 0.101829 0.00276359 0.322902 0.494597 -0.0105917 0.00833048 0.0692903 -0.0111705 0.0417864 0.0851949 0.183991 0.0121926 0.0322186 -0.01194 0.0344902 0.0314772 0.0439809 0.0143103 0.0644029 0.0779408 0.00170347 0.0669497 0.0762402 0.0951404 0.158473 0.0308552 -0.0196814 0.0152709 0.0531043 0.0743463 0.120321 0.063949 0.00367348 0.104243 0.0297653 0.0376332 0.0150808 0.24025 0.0199759 0.0234197 0.0405462 0.0862885 0.102557 0.131173 0.179878 0.0409962 -0.00191581 0.0392961 0.0625762 0.0921704 0.147344 0.0311374 0.0289922 0.0193188 0.0163619 0.0172234 0.0267074 0.0403668 0.000251212 -0.00930823 -0.0123898 -0.00749939 0.0830954 0.00864511 0.0341173 0.0553676 0.0851244 0.0979136 0.00541393 0.0422889 0.00599445 0.010832 0.0149238 0.00663751
internal_weight=0 304956 47789 10430 275524 86044 768 240 85276 10340 29432 37359 9992 35972 348 276 22807 49304 6498 528 393 8615 155 173 189480 47184 3828 180961 2120 507 134 22934 5605 167070 14552 12853 4532 20658 2788 1802 8519 3767 2774 1771 283 6164 27357 19532 1867 344 182 1623 26526 121 6114 3981 2133 112 12287 7690 785 220 862 406 192 993 13891 343 260 198 111 3502 3404 12192 10212 5333 3710 1518 1348 82823 30634 52189 1488 3868 819 940 479 407 7558 1750 8371 5734 1654 17202
internal_count=352745 304956 47789 10430 275524 86044 768 240 85276 10340 29432 37359 9992 35972 348 276 22807 49304 6498 528 393 8615 155 173 189480 47184 3828 180961 2120 507 134 22934 5605 167070 14552 12853 4532 20658 2788 1802 8519 3767 2774 1771 283 6164 27357 19532 1867 344 182 1623 26526 121 6114 3981 2133 112 12287 7690 785 220 862 406 192 993 13891 343 260 198 111 3502 3404 12192 10212 5333 3710 1518 1348 82823 30634 52189 1488 3868 819 940 479 407 7558 1750 8371 5734 1654 17202
is_linear=0
shrinkage=0.1


Tree=4
num_leaves=95
num_cat=0
split_feature=3 3 11 0 3 0 0 3 1 31 3 0 1 3 1 7 3 0 3 3 30 7 1 1 1 1 1 7 3 7 3 3 11 11 1 7 7 3 0 3 7 31 3 1 1 3 3 11 11 3 1 0 11 31 3 3 28 11 1 1 7 7 3 3 3 7 0 11 28 3 11 3 3 1 3 33 11 31 28 7 12 31 30 7 1 1 1 7 7 28 12 7 7 0
split_gain=24734.8 2367.95 2323.94 3176.23 3213.12 1084.44 1620.42 1409.44 986.324 951.27 1063.37 786.151 771.527 743.321 572.504 530.381 514.909 1351.22 735.854 472.132 529.263 429.709 366.667 330.571 307.648 336.908 271.129 253.132 243.624 348.029 231.978 227.638 198.238 196.553 196.201 210.019 191.953 191.817 252.537 236.075 189.66 412.679 667.411 664.355 360.872 263.809 185.128 182.826 182.171 174.294 170.406 168.766 162.596 157.714 189.904 151.547 233.24 138.901 184.344 133.94 133.422 133.025 131.464 128.998 126.744 363.489 202.644 118.788 114.016 113.748 110.095 106.842 105.963 219.448 105.758 103.486 102.732 149.153 102.001 100.946 100.136 100.004 99.215 91.8677 90.0462 149.652 210.899 89.0207 87.3348 107.39 104.82 87.1697 86.2331 118.072
threshold=1.0000000180025095e-35 0.689254710136187 0.96052631578947378 0.68750000000000011 0.1077517157224893 0.14583333333333334 0.43750000000000006 0.088374177823207695 0.88725490196078438 0.76041666666666685 0.14671654376374302 0.72916666666666674 0.20098039215686278 0.13253546640123245 0.063725490196078441 0.061277543946521427 0.08619397664746474 0.31250000000000006 0.34820419966350069 0.0086521552064075993 1.0000000180025095e-35 0.17417677642980942 0.31862745098039219 0.35784313725490197 0.40686274509803927 0.74019607843137269 0.13235294117647062 0.12985887595939594 0.14671654376374302 0.19868779400841796 0.0064449163973817822 0.11228116235333306 0.61842105263157898 0.53947368421052644 0.64215686274509809 0.031567219608814069 0.14025748947759351 0.20470742537457531 0.81250000000000011 0.14793393814177949 0.10633820252537758 0.19583333333333339 0.34093576959696553 0.55392156862745112 0.13235294117647062 0.38592739483174049 0.19051954635403159 0.56578947368421062 0.30263157894736847 0.20685390046245417 0.12254901960784315 1.0000000180025095e-35 0.32894736842105271 0.26111111111111118 0.28363398337835594 0.13145176025699787 0.00024532156183107331 0.40789473684210531 0.5931372549019609 0.20098039215686278 0.14397128001980691 0.015115127506808617 0.11776932863646827 0.20470742537457531 0.85296129959389055 0.10633820252537758 0.39583333333333337 0.30263157894736847 1.0000000180025095e-35 0.6149069215350309 0.90789473684210531 0.016424156718965934 0.6149069215350309 0.43627450980392163 0.091871421217517124 0.029112438862260052 0.51315789473684226 0.17638888888888893 8.0837644864035352e-05 0.054345134934389715 0.4332825590251333 0.14583333333333334 1.0000000180025095e-35 0.37855904926962125 0.78921568627450989 0.2990196078431373 0.60294117647058831 0.041470661054716522 0.082817529091359268 4.7702990404608713e-05 0.37357197258187363 0.18036642733349842 0.18110918544194113 0.81250000000000011
decision_type=2 2 2 2 2 2 2 2 2 2 2 2 2 2 2 2 2 2 2 2 2 2 2 2 2 2 2 2 2 2 2 2 2 2 2 2 2 2 2 2 2 2 2 2 2 2 2 2 2 2 2 2 2 2 2 2 2 2 2 2 2 2 2 2 2 2 2 2 2 2 2 2 2 2 2 2 2 2 2 2 2 2 2 2 2 2 2 2 2 2 2 2 2 2
left_child=-1 2 5 -4 30 8 16 11 23 14 62 19 26 75 36 37 -7 40 52 20 70 -22 28 -2 74 60 50 -28 29 76 -5 -31 -29 59 64 -36 49 38 -16 -40 48 42 63 44 -44 -45 -10 -30 72 -9 -3 -48 -19 -27 68 56 -33 58 -24 87 -26 -13 -11 -42 67 -66 -67 80 -55 -46 -8 82 -18 -74 -25 -6 77 -17 88 -50 -14 -81 -35 -12 85 -65 -87 -21 89 -20 -91 -47 93 -63
right_child=1 12 3 4 13 6 7 9 46 10 83 61 34 -15 15 22 17 18 78 33 21 -23 57 24 25 53 27 32 47 31 -32 55 -34 71 35 -37 -38 -39 39 -41 41 -43 43 45 69 91 51 -49 79 -51 -52 -53 -54 54 -56 -57 -58 -59 -60 -61 -62 92 -64 84 65 66 -68 -69 -70 -71 -72 -73 73 -75 -76 -77 -78 -79 -80 81 -82 -83 -84 -85 -86 86 -88 -89 -90 90 -92 -93 -94 -95
leaf_value=-0.032350394626665557 0.029412392841943098 0.19970085948861982 -0.0092771376948586476 0.24283423396172346 0.56669404878813956 0.00029514068251966475 0.045871875543423313 0.35440359433427798 0.010336765306674382 0.32950712500737528 -0.024730450425829206 0.033305248474017259 0.050739497820743253 0.1941512874972362 0.016474820479489369 0.092729851634474475 0.017471930227926702 0.053471764308973407 0.10067786762025209 0.047291558785386829 0.11136654727655926 0.35187078313946368 0.26405988101404709 0.076563454590107966 0.0066318962332478333 0.082126861921882288 0.17959856601192578 0.43735724849005542 0.079661454043896032 0.061655277813944587 0.0083592203788343498 0.34773258543267971 0.23168396327011989 0.0067462148420330539 0.095993908044333401 0.25221002347321936 0.10465080797333609 0.070730884733237062 0.31307634785771371 0.051192538916264942 0.015133293562114229 0.0049101112018791956 0.23453875814307612 0.11513571632323696 0.041434900320810882 0.28193441209197045 0.036139237245517701 0.034645574260794475 -0.0075213210713545075 0.14783818012544911 0.057038705199634158 0.16007666131282527 0.017348390608978709 0.15296012951181301 0.14233798743569337 0.12840258459168438 0.16262848264864321 0.032192396462151128 0.024623470408978929 0.014504089968878475 0.041100085828614963 -0.010274969485260034 0.5358316787594074 0.026393486348927905 0.060514518254075306 0.31549422958596929 0.088349300804971304 0.020995015475373226 0.040477340468560996 0.17872398137988058 0.12160828096444527 0.049330857943503087 0.23157323735714375 0.02728775397110253 0.12684188375130773 0.70259732753038406 0.062260235799086606 0.24862286757964355 0.090556521645484001 0.016390453202455423 0.23388464957037391 -0.0029650351234219371 0.095611397915764174 0.12916388671855902 0.023407326539679155 0.18779259197347398 0.058023160714888 0.014602178889057391 0.071703242275334436 0.1307260813907343 0.25546102120116354 0.46517324922261416 0.012735052159145974 0.021641111857796894
leaf_weight=141523 6508 143 536 54 187 40791 2351 87 12480 53 70 1172 72 52 5869 1100 4345 2348 180 2451 254 105 61 2511 1447 3067 355 84 1792 169 193 122 106 1153 342 115 165 840 55 92 12634 21440 116 61 1058 50 1803 1817 10752 77 202 117 2655 93 210 190 154 3516 68 12271 5016 9068 74 782 851 97 66 786 2904 64 209 4160 72 195 502 80 1575 65 1593 5068 51 5640 141 87 2060 168 492 1262 146 121 152 54 3131 1329
leaf_count=141523 6508 143 536 54 187 40791 2351 87 12480 53 70 1172 72 52 5869 1100 4345 2348 180 2451 254 105 61 2511 1447 3067 355 84 1792 169 193 122 106 1153 342 115 165 840 55 92 12634 21440 116 61 1058 50 1803 1817 10752 77 202 117 2655 93 210 190 154 3516 68 12271 5016 9068 74 782 851 97 66 786 2904 64 209 4160 72 195 502 80 1575 65 1593 5068 51 5640 141 87 2060 168 492 1262 146 121 152 54 3131 1329
internal_value=0 0.0216754 0.0203477 0.165181 0.330392 0.0195761 0.0162157 0.029938 0.0351774 0.0530071 0.234583 0.0192484 0.106111 0.540048 0.0501123 0.0476532 0.00927727 0.0143487 0.05547 0.0302701 0.0680008 0.181709 0.061641 0.048371 0.0562048 0.0494072 0.185543 0.229457 0.075059 0.0943726 0.059621 0.161078 0.322613 0.0251327 0.0764073 0.135304 0.180803 0.0259676 0.0197174 0.149176 0.00980045 0.0142165 0.0255928 0.0917479 0.066626 0.280239 0.0147841 0.0569976 0.00319825 0.257419 0.116171 0.0436917 0.0343018 0.0659142 0.0504093 0.197134 0.24445 0.0359316 0.137845 0.0195395 0.033383 0.000986042 0.449728 0.0198407 0.0624104 0.0867178 0.223521 0.0352953 0.0439678 0.049266 0.052055 0.0415247 0.0212294 0.082376 0.0849404 0.607414 0.0789136 0.101428 0.103784 -0.000676851 0.126678 0.00619574 0.0164294 0.0605486 0.0368233 0.0559891 0.0910554 0.0361809 0.138963 0.16064 0.200176 0.377078 -0.00181394 -0.00619529
internal_weight=0 211222 207952 1102 566 206850 170192 57155 36658 18098 284 39057 3270 319 17814 17485 113037 72246 7195 24357 2919 359 10629 22258 15750 12737 890 545 6984 3375 247 635 190 21438 2380 457 329 6856 6016 147 65051 38979 17539 1403 1238 165 14400 3609 26072 164 345 1920 5003 6274 3207 466 276 3645 129 15984 6463 14700 127 16136 1923 1014 163 909 2997 1122 2560 5454 4612 267 3013 267 2740 1165 2192 21460 123 10708 1294 157 3502 1442 660 3713 599 453 273 104 13528 10397
internal_count=352745 211222 207952 1102 566 206850 170192 57155 36658 18098 284 39057 3270 319 17814 17485 113037 72246 7195 24357 2919 359 10629 22258 15750 12737 890 545 6984 3375 247 635 190 21438 2380 457 329 6856 6016 147 65051 38979 17539 1403 1238 165 14400 3609 26072 164 345 1920 5003 6274 3207 466 276 3645 129 15984 6463 14700 127 16136 1923 1014 163 909 2997 1122 2560 5454 4612 267 3013 267 2740 1165 2192 21460 123 10708 1294 157 3502 1442 660 3713 599 453 273 104 13528 10397
is_linear=0
shrinkage=0.1


Tree=5
num_leaves=95
num_cat=0
split_feature=3 3 10 0 3 2 3 0 10 0 2 3 0 0 6 0 3 16 3 10 3 3 25 3 3 10 10 10 10 0 10 10 3 10 6 3 3 6 3 10 16 25 10 0 3 2 3 25 10 26 0 3 2 10 3 10 0 0 26 3 2 16 3 10 2 5 3 29 3 10 3 25 25 25 5 3 0 25 23 3 21 16 29 25 3 10 3 24 3 16 3 16 3 0
split_gain=20035.2 1918.04 1469.8 2700.1 2879.01 1267.27 2089.38 1379.05 1338.54 991.009 958.148 594.671 543.43 696.525 660.387 397.124 379.425 362.888 350.552 700.77 668.747 900.15 458.875 372.055 339.963 271.973 268.039 249.963 237.164 226.387 215.766 209.315 202.304 244.553 190.015 188.46 183.644 176.797 159.084 157.83 150.933 144.014 282.155 143.372 136.845 135.981 159.174 134.757 134.668 130.809 149.568 129.763 129.414 128.923 126.588 122.245 145.809 833.303 118.809 118.119 111.969 106.352 105.551 117.595 114.104 101.302 97.1876 94.414 92.3887 118.64 112.442 92.2019 144.361 90.3059 83.8892 81.369 80.6558 80.5192 80.4576 80.3296 93.1614 80.1538 227.694 77.8801 76.9511 75.8908 347.412 75.0116 74.8062 87.0014 72.3006 72.1487 70.8607 70.689
threshold=1.0000000180025095e-35 0.689254710136187 0.68123284779396254 0.68750000000000011 0.1077517157224893 0.50000000000000011 0.38592739483174049 0.43750000000000006 0.10132995566814443 0.77083333333333337 0.50000000000000011 0.13253546640123245 0.14583333333333334 0.43750000000000006 0.36875000000000008 1.0000000180025095e-35 0.083783239418280767 0.65476190476190477 0.076327872916393188 0.54823728097952296 0.14671654376374302 0.11228116235333306 0.75000000000000011 0.009717288728815358 0.15761260211380412 0.035106607557525871 0.076841883048342857 0.29280135106607569 0.25796917880515102 0.72916666666666674 0.15326155794806845 0.17732742241925273 0.14542023645119576 0.31180071775385271 0.15625000000000003 0.12304454049211445 0.94324336952302801 0.18125000000000005 0.31685406008789735 0.10006333122229262 0.68233082706766923 0.41666666666666669 0.37323200337766527 0.64583333333333337 0.088374177823207695 0.83333333333333337 0.43491977622367056 0.91666666666666674 0.27506860882415041 0.090716089310940204 0.31250000000000006 0.20937206615991275 0.83333333333333337 0.053198226725775823 0.0043225939886780296 0.011420730420097112 0.85416666666666674 0.81250000000000011 0.012671133396013685 0.11881953476471036 0.50000000000000011 0.73496240601503759 0.60107526187728577 0.10977411864048979 1.0000000180025095e-35 0.30000000000000004 0.0086521552064075993 0.50000000000000011 0.0053582421309932059 0.59679121807050894 0.025665206161035261 0.58333333333333337 0.91666666666666674 0.75000000000000011 1.0000000180025095e-35 0.19279950865626447 0.35416666666666669 0.58333333333333337 0.50000000000000011 0.28363398337835594 0.5 0.42919799498746869 0.50000000000000011 0.58333333333333337 0.082695433727431419 0.016233903314333973 0.39684797940461553 0.43220338983050849 0.74525434087646258 0.70614035087719296 0.74525434087646258 0.6394922836480712 0.4929505703208763 0.68750000000000011
decision_type=2 2 2 2 2 2 2 2 2 2 2 2 2 2 2 2 2 2 2 2 2 2 2 2 2 2 2 2 2 2 2 2 2 2 2 2 2 2 2 2 2 2 2 2 2 2 2 2 2 2 2 2 2 2 2 2 2 2 2 2 2 2 2 2 2 2 2 2 2 2 2 2 2 2 2 2 2 2 2 2 2 2 2 2 2 2 2 2 2 2 2 2 2 2
left_child=-1 2 5 60 54 6 12 45 29 18 25 73 15 24 16 44 -15 65 22 32 21 -21 68 27 71 76 38 -24 30 51 43 90 33 34 -20 -23 88 -35 -26 55 59 -39 -43 62 -2 85 84 61 -28 50 87 -9 92 -27 -5 74 57 -57 -46 66 79 -25 63 -8 -64 -17 -16 75 69 -10 -70 -14 -73 -6 -18 -19 -3 -72 -59 -4 -81 82 -68 -53 -47 86 -7 -32 -33 -90 -12 -61 -34 -55
right_child=1 10 3 4 11 7 28 8 9 -11 31 -13 13 14 40 17 39 67 19 20 -22 35 23 47 26 53 48 -29 -30 -31 49 36 52 37 -36 -37 -38 41 -40 -41 -42 42 -44 -45 58 46 -48 -49 -50 -51 -52 83 -54 93 -56 56 -58 78 -60 91 -62 -63 64 -65 -66 -67 81 -69 70 -71 77 72 -74 -75 -76 -77 -78 -79 -80 80 -82 -83 -84 -85 -86 -87 -88 -89 89 -91 -92 -93 -94 -95
leaf_value=-0.029115355310420577 0.037933939055017206 0.092100784674260139 0.034856807346984521 0.18627394630628474 0.57999819122736729 -0.0025829772894114629 0.099755077315861695 0.01046733923976623 0.045214092311559886 -0.0091832408926613984 0.0060805875938050114 0.18280926269513589 0.0044254329370614692 0.019262054376465311 0.21659025772399196 -0.0088369267787525643 0.091683974423705863 0.09100336682253006 0.1149070813672018 0.028980250080239103 0.050831193464497729 0.6725611749817344 0.15221959991638898 0.20411846851181639 0.049605086883235797 0.36500097792947073 0.026988638931905701 0.39288958207009334 0.030820943570747602 -0.010664436376928526 0.39189741586645449 0.044762737446775044 0.043067178953062439 0.080114733725939524 0.055791734667313055 0.40328200175514761 0.2759370694480216 0.12077976307035357 0.14319387839481637 0.04041477375350417 0.049721222909637791 0.42898701247835502 0.153948820506533 0.17960469062174006 0.012369574875648347 -0.004484380923768733 0.063202733437252523 0.039633222824082742 0.0079913094649585303 0.087648185694215272 0.099900906753963709 0.032257527494474372 0.12306659543837764 0.21950218540930264 0.011638133302581552 0.076480964036206828 0.035490190309270149 0.45126212918167491 0.028855176791254478 0.14329943086419789 -0.0070416207420909626 0.068351099854569983 0.20223351474837911 0.05036334059980957 0.097427821350642124 0.039857160017268148 0.086436071591324187 0.061824744395157311 0.0082123875153581622 0.14882792999425273 0.031323098706027994 0.022018524754346368 0.0024224158337011539 0.44518149729930995 -0.017525978732252648 0.17955913331906981 0.18229104332379342 0.079114313431187896 0.28164032416556173 0.18530431634768152 0.038112464670882411 0.079050950650986121 0.32517117785882549 0.10705592502324712 0.020516035626550078 -0.0059123663778876574 0.18285509816961787 0.23503132701784907 0.17421677772925326 0.02853766660157003 0.052960085457005937 0.29635134063322438 -0.01572464320261293 0.1299768482707441
leaf_weight=141523 5793 366 650 51 201 669 1680 14505 851 2846 444 54 30308 12977 74 450 111 1155 716 53 120 51 137 112 1656 53 9776 63 462 5920 54 180 2033 243 2260 53 63 138 204 3906 444 61 96 210 9197 2990 534 434 6035 77 51 425 190 445 223 728 312 58 8332 70 560 119 173 676 260 8445 146 1487 2214 127 2408 9083 6414 66 192 114 136 413 54 86 86 617 55 207 2093 40586 119 70 146 57 1270 55 228 110
leaf_count=141523 5793 366 650 51 201 669 1680 14505 851 2846 444 54 30308 12977 74 450 111 1155 716 53 120 51 137 112 1656 53 9776 63 462 5920 54 180 2033 243 2260 53 63 138 204 3906 444 61 96 210 9197 2990 534 434 6035 77 51 425 190 445 223 728 312 58 8332 70 560 119 173 676 260 8445 146 1487 2214 127 2408 9083 6414 66 192 114 136 413 54 86 86 617 55 207 2093 40586 119 70 146 57 1270 55 228 110
internal_value=0 0.0195079 0.0183129 0.104125 0.282233 0.0174893 0.0239994 0.00803861 0.0224726 0.0443089 0.0954997 0.485462 0.0216801 0.0172869 0.0336624 0.0321409 0.0285074 0.0472173 0.0559125 0.0730709 0.228557 0.364398 0.0403406 0.108442 0.0121791 0.17101 0.0239616 0.228031 0.0978633 0.00591563 0.107391 0.0566957 0.0658506 0.081231 0.0700144 0.535332 0.117721 0.143277 0.0598697 0.0508869 0.098366 0.195305 0.260811 0.0999229 0.0246092 -0.00333352 0.0112662 0.072475 0.0197374 0.196264 0.244055 0.0124 0.0437997 0.215988 0.0441433 0.0789999 0.0938653 0.115548 0.0202056 0.119603 0.0274439 0.134178 0.0939232 0.0855833 0.139302 0.0373937 0.106846 0.0789231 0.030544 0.0586691 0.0250809 0.00763361 0.013908 0.546673 0.0224816 0.0989587 0.116535 0.0383198 0.36948 0.0509377 0.111708 0.0969175 0.151762 0.0567564 0.00580991 -0.0053156 0.025421 0.303344 0.0916961 0.133312 0.0408163 0.210642 0.0371386 0.201758
internal_weight=0 211222 207952 1977 595 205975 121961 84014 37023 15966 3270 321 118248 83275 19799 34973 18338 11651 13120 6242 277 157 6878 865 63476 1110 17671 200 3713 21057 3251 2160 5965 3514 2976 104 446 538 1860 5361 1461 295 157 2999 23322 46991 5617 665 15811 252 175 15137 2451 608 274 1455 1152 840 17529 1017 1382 231 2789 2356 433 8895 892 2756 6013 978 5035 45805 15497 267 303 1269 502 2821 112 822 172 818 201 632 5083 41374 788 124 383 203 1714 125 2261 555
internal_count=352745 211222 207952 1977 595 205975 121961 84014 37023 15966 3270 321 118248 83275 19799 34973 18338 11651 13120 6242 277 157 6878 865 63476 1110 17671 200 3713 21057 3251 2160 5965 3514 2976 104 446 538 1860 5361 1461 295 157 2999 23322 46991 5617 665 15811 252 175 15137 2451 608 274 1455 1152 840 17529 1017 1382 231 2789 2356 433 8895 892 2756 6013 978 5035 45805 15497 267 303 1269 502 2821 112 822 172 818 201 632 5083 41374 788 124 383 203 1714 125 2261 555
is_linear=0
shrinkage=0.1


Tree=6
num_leaves=95
num_cat=0
split_feature=25 19 19 7 13 19 11 7 19 7 20 20 11 25 25 1 1 1 19 25 19 19 25 1 1 7 13 1 20 12 13 10 13 21 20 1 7 12 19 19 20 20 10 19 7 10 11 12 20 10 21 20 25 19 14 10 1 20 10 22 10 20 22 1 7 12 20 12 11 1 20 19 1 1 10 19 19 12 24 21 21 19 1 7 19 1 19 7 7 11 20 7 33 10
split_gain=2388.31 770.244 1074.04 1038.86 812.151 652.334 1144.82 492.569 409.715 402.623 377.526 234.165 233.964 192.243 167.758 163.121 233.013 255.248 162.598 157.481 136.086 327.541 134.9 125.982 121.845 117.641 161.86 117.227 118.991 108.33 105.842 101.02 99.1031 98.3809 92.1469 90.9642 90.1086 86.1363 81.4563 102.289 77.5609 152.313 81.9878 77.0365 76.7754 75.3448 74.3783 69.016 68.4788 68.3441 67.519 66.3838 63.1974 62.5541 62.2692 61.8023 59.4729 69.1479 58.5215 58.0323 57.0273 120.17 74.1115 55.7522 55.3628 93.8699 55.2695 68.8249 55.1931 54.8213 61.8306 65.3104 67.6933 52.5376 50.7987 49.8057 48.7255 48.6956 48.6765 48.303 47.6907 46.5527 53.1775 53.2232 58.6697 46.3519 81.7774 59.2689 45.9921 82.331 68.8685 44.5187 71.5396 44.378
threshold=0.75000000000000011 0.83290193939598234 0.041089985277197746 0.488734835355286 0.30241935483870974 0.83290193939598234 0.72368421052631593 0.16922505570685817 0.15641081520814923 0.42436246595692012 0.49999999999998584 0.72222222222221444 0.27631578947368424 0.91666666666666674 0.91666666666666674 0.88725490196078438 0.35784313725490197 0.36764705882352949 0.021448411208939703 0.91666666666666674 0.15641081520814923 0.13549765676107547 0.91666666666666674 0.33823529411764713 0.88725490196078438 0.37855904926962125 0.30241935483870974 0.74019607843137269 0.38888888888887158 0.5822543792840823 0.16532258064516131 0.22883681655055949 0.77016129032258074 0.5 1.0000000180025095e-35 0.05392156862745099 0.020017331022530335 0.70578827113480591 0.18953980135707169 0.39152102174102893 0.27777777777777152 0.61111111111110017 0.3179227359088031 0.037822932641264607 0.24461500371379058 0.0025754697065653374 0.61842105263157898 0.59596344249809607 0.61111111111110017 0.3981422841460841 0.5 1.0000000180025095e-35 0.58333333333333337 0.21051807105245826 0.57903665700949813 0.63056786995989034 0.46568627450980399 0.72222222222221444 0.041566392231370076 0.41666666666666674 0.13088452607135323 0.72222222222221444 0.2166666666666667 0.83823529411764719 0.0028596187175043333 0.7443259710586444 0.38888888888887158 0.40936785986290941 0.85526315789473695 0.58333333333333337 0.49999999999998584 0.017694939247375256 0.55392156862745112 0.83823529411764719 0.020181549503905428 0.056466389573620913 0.054553650902595119 0.22231530845392233 0.66949152542372892 0.13636363636363638 0.31818181818181823 0.075440764850343719 0.30882352941176477 0.1164892300074276 0.12315026603690048 0.8970588235294118 0.002470397362458234 0.15585540975488985 0.12688784352562518 0.61842105263157898 0.72222222222221444 0.40703144342659081 0.015441645660442448 0.0024276968545492933
decision_type=2 2 2 2 2 2 2 2 2 2 2 2 2 2 2 2 2 2 2 2 2 2 2 2 2 2 2 2 2 2 2 2 2 2 2 2 2 2 2 2 2 2 2 2 2 2 2 2 2 2 2 2 2 2 2 2 2 2 2 2 2 2 2 2 2 2 2 2 2 2 2 2 2 2 2 2 2 2 2 2 2 2 2 2 2 2 2 2 2 2 2 2 2 2
left_child=1 2 7 25 -5 8 12 35 14 11 -6 13 -7 -8 24 16 -9 40 31 -10 21 46 60 30 58 34 -27 44 -29 59 51 69 -23 79 -3 -1 45 -13 -25 -40 -18 42 -42 85 -20 -34 75 55 -17 52 -47 -22 68 -53 -52 78 57 -46 -2 -12 77 62 -62 -60 65 -37 -57 -68 -36 70 -19 72 -72 -66 -56 76 -4 -14 -28 -30 -81 -77 -83 84 -84 87 -87 -16 -24 -90 -91 -69 -93 -26
right_child=5 3 20 4 10 6 9 15 19 -11 29 37 22 -15 43 48 17 18 27 -21 23 32 88 38 93 26 47 28 33 -31 -32 -33 36 -35 49 64 -38 -39 39 -41 41 -43 -44 -45 56 50 -48 -49 -50 -51 54 53 -54 -55 74 66 -58 -59 63 -61 61 -63 -64 -65 73 -67 67 91 -70 -71 71 -73 -74 -75 -76 81 -78 -79 -80 80 -82 82 83 -85 -86 86 -88 -89 89 90 -92 92 -94 -95
leaf_value=0.026837422638905775 0.062265924160734933 0.050741266950949597 -0.0080559854404589591 0.40294952676134205 0.30622238134270285 0.0094886340613543445 0.34758373629779388 0.0030448619342441203 0.018497804200525787 0.38038103202214613 0.14620188843382864 0.1148086504565759 0.13346069316515544 0.14657603072338418 0.018751007400306156 -0.00051175218044335414 0.026436643311032751 0.013721753650542626 0.011656113550102171 5.1507651077564271e-06 0.092592554270656449 0.0086376495584853854 0.031578383545561785 -0.0044894337581952723 0.099078343695763391 0.19876983097443979 0.16645115270697769 0.022053550805031161 0.052695066384674819 -0.027989128233128859 -0.0089136411630042958 -0.0037972554769747889 -0.0098685910653633375 0.03926104118553117 0.0061956426862302743 0.0080866525655319994 0.010027415234276763 -0.048892195954918866 -0.015888372703629711 -0.0085054380890979067 0.077165849321941399 0.039472226414873308 0.14376687412874567 0.01217363411214442 0.04235918352741716 0.036503647888874578 -0.015547534645967771 -0.0081272739828077718 0.015379805433948785 -0.0064065054720476265 0.053520275605367311 -0.020599082715539403 0.019442666505347334 0.0027213862726228645 0.10580878087648865 -0.0059801119565963748 0.0022440392004240968 0.11823748034205597 0.035734551831818923 0.043052813749972399 0.2695429014758422 0.055938339095318659 0.1323313546490591 0.072275853652947142 -0.0062669170087221119 0.10873875489304646 0.018348568917768034 0.026868450343608859 0.091548350218095279 0.0080182968537861419 0.011232667562134955 0.15444364130719385 0.081951540180199928 0.0091588604266777431 0.2192186198681593 0.0033818110900223301 -0.02428987864614203 0.05683134996674593 0.042738450773186609 0.12762790909096697 0.07224780779962818 -0.013011472428511537 0.0067530116094133459 -0.012717901182690346 -0.0064671213537543784 0.11949738703406183 0.0030994731428440675 0.042550525792858278 0.15338371291564418 0.080339703546993657 -0.013804433256631993 0.046349826773007717 0.17699857601993962 0.016050754927370608
leaf_weight=990 1308 486 13755 103 67 1621 78 5432 7078 104 98 90 96 122 1808 6846 607 494 3001 13180 79 6328 1420 11889 66 60 69 1366 330 124 37185 3028 144 1053 24169 618 745 50 54359 28660 586 914 270 7580 511 356 9048 335 4490 3460 196 1261 4438 13093 188 235 241 157 5071 123 52 187 162 455 23300 109 278 75 76 1033 248 67 298 2439 50 7708 2136 609 59 312 310 6840 6992 4012 6457 64 1061 2484 91 214 122 75 95 2616
leaf_count=990 1308 486 13755 103 67 1621 78 5432 7078 104 98 90 96 122 1808 6846 607 494 3001 13180 79 6328 1420 11889 66 60 69 1366 330 124 37185 3028 144 1053 24169 618 745 50 54359 28660 586 914 270 7580 511 356 9048 335 4490 3460 196 1261 4438 13093 188 235 241 157 5071 123 52 187 162 455 23300 109 278 75 76 1033 248 67 298 2439 50 7708 2136 609 59 312 310 6840 6992 4012 6457 64 1061 2484 91 214 122 75 95 2616
internal_value=0 -0.00325732 -0.00505009 0.0108313 0.151793 0.0207859 0.0548958 0.00687404 0.0167841 0.208202 0.0890037 0.155535 0.0400144 0.224969 0.0260684 0.0153882 0.0207632 0.027255 0.0215215 0.00646635 -0.00837956 -0.00456959 0.056771 -0.0100685 0.0361567 0.00869043 0.0384169 0.0311499 0.0448155 0.0468192 -0.00609251 0.00795634 0.0143683 0.0603232 0.00752338 -0.00292328 0.0359664 0.0563441 -0.012231 -0.0133396 0.0572827 0.0678609 0.0981732 0.018682 0.0193682 0.0566565 -0.00723229 0.0305372 0.00578263 0.00686993 0.0687826 0.00117581 0.00847145 0.000672681 0.0952603 0.0451563 0.0448291 0.0601929 0.0432454 0.0887931 0.0843914 0.1145 0.165672 0.0387433 -0.00403652 0.0231775 0.0343032 0.0524037 0.00646319 0.0245871 0.0400484 0.0612642 0.0498301 -0.00480519 0.129634 -0.00566159 -0.0102381 0.067266 0.109427 0.0836199 0.100027 -0.00338957 -0.00553738 -0.00260955 0.000405893 0.0277891 0.00972122 0.032525 0.0402316 0.0690081 0.0461564 0.0910459 0.119359 0.0180939
internal_weight=0 304956 270531 34425 515 47789 5018 59050 42771 444 412 340 4574 200 22513 31594 20258 14826 12449 20258 211481 64955 2953 146526 9516 33910 1281 7281 3371 345 51618 5168 8007 2005 32629 27456 1679 140 94908 83019 2377 1770 856 12997 3910 934 56948 1221 11336 32143 790 14433 28683 14354 434 886 909 668 6834 221 1106 401 214 5526 26466 727 758 523 24245 2140 1107 613 546 25739 238 47900 15891 705 128 952 622 32009 24301 17461 13449 5417 1125 4292 1847 427 336 245 170 2682
internal_count=352745 304956 270531 34425 515 47789 5018 59050 42771 444 412 340 4574 200 22513 31594 20258 14826 12449 20258 211481 64955 2953 146526 9516 33910 1281 7281 3371 345 51618 5168 8007 2005 32629 27456 1679 140 94908 83019 2377 1770 856 12997 3910 934 56948 1221 11336 32143 790 14433 28683 14354 434 886 909 668 6834 221 1106 401 214 5526 26466 727 758 523 24245 2140 1107 613 546 25739 238 47900 15891 705 128 952 622 32009 24301 17461 13449 5417 1125 4292 1847 427 336 245 170 2682
is_linear=0
shrinkage=0.1


Tree=7
num_leaves=95
num_cat=0
split_feature=30 2 1 1 11 13 11 1 12 12 16 11 6 1 1 16 1 6 2 1 11 2 1 1 11 11 26 11 6 13 13 13 12 1 6 15 4 1 1 1 1 15 1 16 11 1 1 17 1 13 13 4 13 14 16 24 12 12 11 15 11 11 17 11 6 4 11 17 1 1 13 27 12 6 6 2 24 15 6 17 12 24 24 13 11 1 1 26 6 17 6 12 1 1
split_gain=1934.53 902.234 600.113 732.821 724.186 1034.99 338.608 588.539 226.51 330.997 222.436 218.164 151.705 124.528 275.08 162.93 161.245 148.459 124.122 120.046 99.2349 123.324 184.382 290.592 269.493 134.735 142.35 107.656 100.409 103.875 94.7043 193.278 86.2616 77.6848 76.6137 93.3873 70.3659 68.9815 78.8988 125.757 72.6827 61.4911 55.6177 54.7722 53.6285 51.6726 241.912 132.182 49.4881 55.3772 48.8974 48.4201 44.5653 42.8293 50.1044 42.1277 56.7152 43.3233 51.9099 43.2859 48.959 41.7053 40.8882 40.3691 40.59 39.1247 38.9241 38.7357 35.8181 35.4385 40.3427 48.6529 35.0544 34.7514 33.8914 33.3909 33.2972 47.4198 33.1264 35.2803 32.7071 32.6938 55.6176 30.7747 34.9582 58.3934 40.8765 43.9972 30.4913 30.4389 30.0375 29.8582 29.6148 36.3444
threshold=1.0000000180025095e-35 0.50000000000000011 0.22058823529411767 0.20098039215686278 0.96052631578947378 0.30241935483870974 0.96052631578947378 0.20098039215686278 0.5822543792840823 0.40936785986290941 0.7098997493734337 0.48684210526315791 0.35625000000000012 0.33823529411764713 0.36764705882352949 0.64724310776942351 0.35784313725490197 0.5062500000000002 0.83333333333333337 0.84803921568627461 0.82894736842105277 0.50000000000000011 0.32843137254901966 0.20098039215686278 0.27631578947368424 0.67105263157894746 0.015720790598931885 0.61842105263157898 0.13125000000000003 0.81854838709677424 0.72983870967741948 0.77822580645161299 0.090403655750190409 0.13235294117647062 0.36875000000000008 0.29262807978099337 0.51034882327086761 0.83823529411764719 0.75000000000000011 0.74019607843137269 0.60294117647058831 0.51476339460305065 0.23039215686274514 0.7550125313283208 0.61842105263157898 0.2990196078431373 0.20098039215686278 0.24089270209101923 0.13235294117647062 0.16532258064516131 0.71370967741935498 0.83328005753785928 0.17338709677419359 0.57735892691951907 0.60964912280701766 0.72033898305084754 0.071363290175171373 0.11127189642041128 0.092105263157894746 0.44964802502933127 0.48684210526315791 0.61842105263157898 0.28826413393579048 0.25000000000000006 0.38125000000000003 0.20909417828744961 0.065789473684210537 0.12974401507968622 0.14215686274509806 0.13235294117647062 0.41532258064516131 0.015318132276531702 0.2172886519421173 0.10625000000000002 0.15625000000000003 0.83333333333333337 0.7033898305084747 0.40350019554165045 0.23125000000000004 0.2126139553580384 0.29162223914699165 0.90677966101694929 0.80508474576271205 0.97177419354838723 0.19736842105263161 0.33823529411764713 0.20098039215686278 0.052661741989603286 0.21875000000000003 0.17066784870860799 0.19375000000000003 0.020868240670220872 0.83823529411764719 0.84803921568627461
decision_type=2 2 2 2 2 2 2 2 2 2 2 2 2 2 2 2 2 2 2 2 2 2 2 2 2 2 2 2 2 2 2 2 2 2 2 2 2 2 2 2 2 2 2 2 2 2 2 2 2 2 2 2 2 2 2 2 2 2 2 2 2 2 2 2 2 2 2 2 2 2 2 2 2 2 2 2 2 2 2 2 2 2 2 2 2 2 2 2 2 2 2 2 2 2
left_child=1 11 3 18 55 -6 20 -8 9 -7 -11 12 83 17 16 -16 -15 52 33 37 21 27 23 -23 -25 28 90 34 29 81 -14 42 -33 -3 48 -36 50 38 39 40 -17 -37 53 -41 -18 46 -22 -48 -2 68 -12 -28 -13 54 -32 65 74 -58 80 -60 -61 -39 -45 64 -4 -5 -67 -51 -50 -20 71 -71 89 -31 91 -65 77 -55 -62 -80 -59 82 -26 92 85 86 -85 -88 -69 -30 -27 -57 -1 -94
right_child=6 2 63 4 5 8 7 -9 -10 10 36 13 30 14 15 19 44 -19 69 -21 45 22 -24 24 25 26 51 -29 72 73 31 32 -34 -35 35 41 -38 61 -40 43 -42 -43 -44 62 -46 -47 47 -49 49 67 -52 -53 -54 76 -56 56 57 58 59 60 78 -63 -64 75 -66 66 -68 88 -70 70 -72 -73 -74 -75 -76 -77 -78 -79 79 -81 -82 -83 -84 84 -86 -87 87 -89 -90 -91 -92 -93 93 -95
leaf_value=-0.0029738341218027006 0.012641164890301119 -0.018561989198477232 -0.0084663381449705793 0.012693931485760946 0.35201028533225515 -0.0083760798715128756 -0.018183294668019111 0.32854819060940493 -0.029673388295847439 0.29312277602594955 0.22218373343348505 0.010381679952383264 0.0060581349342071359 0.009929977535979748 0.0028072929750666996 0.031607966903955453 0.040572748092273153 0.16048257504750429 0.00018588699550539452 0.0074747926503943912 0.021165834181010725 -0.0027979551168006351 -0.001046471421780476 0.0026517124729819818 0.05142680715653114 0.23173043586440009 0.043334563929788975 0.012151945015036631 0.0080362564013873941 0.11588833763318905 0.015801175037289367 0.10402931473757092 0.0051336759668960119 -0.0084114860224032677 0.17982686179567059 0.038389110074660393 0.039708590722575633 0.083658852325076652 -0.011524218964501778 0.050676088631220244 0.0057348272704779001 0.14690921080044725 0.024196788957488027 0.18419943547301126 0.072104295253209744 0.024072770203961466 0.091325239642806685 0.27085251261454985 0.052085472634709896 0.045322223873828282 0.090615599406392966 0.14907509089949042 -0.0017280906361202169 0.058007591835281869 0.13096601563893881 0.11617796240731122 -0.018500795673020185 0.1126400591140347 0.0074749629845684284 0.01097523248868427 0.036385227099886723 0.028467068634444221 0.0724697853160369 -0.014831599814628657 0.029244801288193747 -0.029258625919913878 0.0027772751537828433 0.024692536326197029 0.014303316035128058 0.03148854154178686 0.0078870959725913497 0.11143633726762958 0.030383553970454964 0.21628767311059197 0.025101472625146601 -0.0032832572273835377 0.17485800522060113 0.16053324026227195 0.15816629803180696 0.041064977174941099 0.034411824899632897 0.0053606545869657332 0.16365527609871194 -0.00051507950927359312 0.0023574403762690078 0.00076199754337788733 0.063805820801130994 0.17831739513576031 0.037567779324233566 0.088924967103794564 0.144218050261848 0.039099802132006048 0.022356610251039171 0.00092206723792399446
leaf_weight=68324 3454 14486 7983 4361 137 202 101 95 230 86 56 3644 4170 1531 26110 2407 1551 58 912 7283 303 3121 7469 1572 224 59 259 9352 61 85 102 95 1232 15724 53 1031 97 317 594 763 1978 55 128 57 827 363 92 74 266 1327 57 52 18303 111 60 94 500 70 8371 1006 582 241 77 76898 296 389 15158 9168 4425 309 453 101 1907 58 419 2588 86 76 50 53 226 94 55 53 973 218 102 50 2301 196 117 108 855 10578
leaf_count=68324 3454 14486 7983 4361 137 202 101 95 230 86 56 3644 4170 1531 26110 2407 1551 58 912 7283 303 3121 7469 1572 224 59 259 9352 61 85 102 95 1232 15724 53 1031 97 317 594 763 1978 55 128 57 827 363 92 74 266 1327 57 52 18303 111 60 94 500 70 8371 1006 582 241 77 76898 296 389 15158 9168 4425 309 453 101 1907 58 419 2588 86 76 50 53 226 94 55 53 973 218 102 50 2301 196 117 108 855 10578
internal_value=0 -0.00293159 -0.00838787 -0.00104341 0.00959315 0.0998569 0.0187074 0.149875 0.052405 0.0903127 0.157661 0.00249073 -0.000788244 0.00684067 0.00992782 0.00744323 0.0352421 0.000704821 -0.0117688 0.0162676 0.0181672 0.0175581 0.0102043 0.0208954 0.0364993 0.0533002 0.101686 0.0211444 0.0445077 0.0841468 0.0144742 0.0330431 0.0122136 -0.0132788 0.0249532 0.0502107 0.102186 0.0262207 0.0230299 0.0269158 0.019937 0.0438851 0.0821386 0.0610317 0.0515385 0.0523998 0.0743246 0.171355 0.0235794 0.0257399 0.155818 0.0610147 0.000282572 0.0991881 0.0584548 0.00710555 0.0119303 0.0102493 0.0116371 0.0104229 0.025016 0.0598215 0.119997 -0.0137634 -0.00711805 0.00432362 0.00197571 0.0291472 0.0164457 0.0139309 0.0284564 0.051183 0.0350559 0.15661 0.0413221 -0.0144556 0.12336 0.0996758 0.0456364 0.0979103 0.0529117 0.0563661 0.0735507 -0.00192795 0.0127913 0.0367917 0.0751062 0.101474 0.0272757 0.0697257 0.173555 0.0749679 -0.00218559 0.00252502
internal_weight=0 304956 152002 64237 32252 865 47789 196 728 498 296 152954 87213 65741 43736 39827 3909 22005 31985 13717 47593 46761 15329 7860 4739 3167 487 31432 2680 516 6060 1890 1327 30210 22080 1139 210 6434 5876 5282 4385 1086 563 897 2378 832 469 166 20941 17487 113 311 21947 435 162 31387 11479 10858 10358 10062 1691 558 134 87765 8279 19908 15547 12796 4691 1775 863 410 2164 143 621 79486 273 187 685 103 296 373 279 81153 1396 423 205 152 11469 257 176 202 79757 11433
internal_count=352745 304956 152002 64237 32252 865 47789 196 728 498 296 152954 87213 65741 43736 39827 3909 22005 31985 13717 47593 46761 15329 7860 4739 3167 487 31432 2680 516 6060 1890 1327 30210 22080 1139 210 6434 5876 5282 4385 1086 563 897 2378 832 469 166 20941 17487 113 311 21947 435 162 31387 11479 10858 10358 10062 1691 558 134 87765 8279 19908 15547 12796 4691 1775 863 410 2164 143 621 79486 273 187 685 103 296 373 279 81153 1396 423 205 152 11469 257 176 202 79757 11433
is_linear=0
shrinkage=0.1


Tree=8
num_leaves=95
num_cat=0
split_feature=3 3 10 0 3 2 3 20 0 10 2 0 3 3 10 3 3 0 0 3 0 3 16 10 25 3 10 0 0 10 10 3 10 10 10 3 10 27 20 0 2 10 3 2 3 0 10 20 25 10 3 10 20 9 25 3 24 25 20 20 3 2 0 24 0 2 3 20 0 10 3 3 10 26 10 0 3 0 10 3 3 3 10 26 2 3 20 10 0 14 10 28 29 3
split_gain=14652.4 1607.87 857.498 1616.33 1863.6 812.637 1713.27 962.983 793.941 935.572 751.609 662.423 380.199 312.627 548.393 592.493 444.205 306.224 515.835 307.643 297.357 276.495 224.3 220.463 220.373 267.589 219.406 202.643 893.237 531.752 200.655 186.263 166.719 166.518 155.936 149.536 149.453 147.407 145.224 139.156 135.328 126.194 118.893 118.311 117.366 117.045 116.662 158.972 138.634 116.989 108.986 105.123 103.059 101.959 96.8962 96.6948 94.2995 90.7043 113.157 85.0546 83.3199 92.3625 88.6696 83.2521 82.6478 81.5015 78.6157 110.018 78.0089 114.36 75.3647 75.3415 74.8759 69.1774 69.1002 145.58 68.5108 130.545 83.6554 67.5949 135.018 80.019 69.4473 71.8038 67.5484 67.2599 66.9074 65.8835 63.4698 63.1638 62.9272 61.6978 96.2442 61.6688
threshold=1.0000000180025095e-35 0.689254710136187 0.68123284779396254 0.68750000000000011 0.1077517157224893 0.50000000000000011 0.39684797940461553 1.0000000180025095e-35 0.68750000000000011 0.10132995566814443 0.50000000000000011 0.77083333333333337 0.13253546640123245 0.080776160095384603 0.54823728097952296 0.14671654376374302 0.11564477396930245 0.14583333333333334 0.64583333333333337 0.084954708453224032 1.0000000180025095e-35 0.15181600781649224 0.65476190476190477 0.21954823728097958 0.75000000000000011 0.009717288728815358 0.035106607557525871 0.85416666666666674 0.81250000000000011 0.10850749419463798 0.071353177116318375 0.14671654376374302 0.25796917880515102 0.17732742241925273 0.15326155794806845 0.94324336952302801 0.29280135106607569 0.0032095097184593295 1.0000000180025095e-35 0.77083333333333337 0.83333333333333337 0.031517838294279087 0.13697066566402036 0.50000000000000011 0.28363398337835594 0.64583333333333337 0.2811906269791008 0.27777777777777152 0.41666666666666669 0.40194215748363954 0.21239146997515426 0.053198226725775823 0.61111111111110017 0.75000000000000011 0.58333333333333337 0.0075622379687745279 0.68644067796610175 0.91666666666666674 0.72222222222221444 0.72222222222221444 0.60107526187728577 1.0000000180025095e-35 0.22916666666666669 0.44915254237288144 0.72916666666666674 0.83333333333333337 0.088374177823207695 0.61111111111110017 0.35416666666666669 0.0014988389275913028 0.021090453344499268 0.19051954635403159 0.007705298712265149 0.10024170053470034 0.13637323200337773 0.31250000000000006 0.083783239418280767 0.27083333333333337 0.041524171416508347 0.04368158958156567 0.0086521552064075993 0.021894923038724309 0.59679121807050894 0.053405604407295255 0.50000000000000011 0.34093576959696553 0.72222222222221444 0.15875026388009292 0.35416666666666669 0.56093894542090672 0.007705298712265149 0.014907212862314421 1.0000000180025095e-35 0.57453344281245833
decision_type=2 2 2 2 2 2 2 2 2 2 2 2 2 2 2 2 2 2 2 2 2 2 2 2 2 2 2 2 2 2 2 2 2 2 2 2 2 2 2 2 2 2 2 2 2 2 2 2 2 2 2 2 2 2 2 2 2 2 2 2 2 2 2 2 2 2 2 2 2 2 2 2 2 2 2 2 2 2 2 2 2 2 2 2 2 2 2 2 2 2 2 2 2 2
left_child=43 2 5 84 55 6 17 23 40 50 26 13 52 24 31 16 -16 20 21 39 66 38 70 63 79 36 88 28 54 56 44 46 34 -12 45 -35 -26 -36 -19 41 -9 -20 72 -1 -23 60 -15 48 -48 91 64 -28 -6 85 -21 -5 -30 58 -27 -46 62 -62 -8 -7 -10 -52 -2 -68 69 -64 -22 -24 -42 -73 -53 -76 -40 -78 -79 80 82 -82 -11 -84 -4 -32 -31 -33 -3 -47 -41 92 -49 -44
right_child=1 10 3 4 12 7 32 8 9 11 33 -13 -14 14 15 -17 -18 18 19 27 22 30 71 -25 25 57 51 -29 29 86 53 87 -34 35 37 -37 -38 -39 76 90 42 -43 93 -45 59 89 47 49 -50 -51 65 74 -54 -55 -56 -57 -58 -59 -60 -61 61 -63 68 -65 -66 -67 67 -69 -70 -71 -72 73 -74 -75 75 -77 77 78 -80 -81 81 -83 83 -85 -86 -87 -88 -89 -90 -91 -92 -93 -94 -95
leaf_value=-0.028234674513577092 0.029549148724478815 0.082534366084868346 0.040052587247805999 0.11521320519319107 0.39038882101735761 0.071703767105936997 0.058142865971934347 -0.0033145438693522713 0.0070375846882183863 0.035887626980088259 0.037727839605411199 -0.006365331593568866 0.14044653508398269 0.06412866388074781 0.10860473830252887 0.041355573919912181 0.47426448775374369 0.075986136950591268 0.053434016327278011 0.028512477173828855 0.011223616872881106 0.041082979579825749 0.058878304723702757 0.32745404535283651 0.12341037242134151 0.19280336436239029 0.32809317871172616 0.032108019978834938 0.29950424318887153 0.14394879105659508 0.021559069203348168 0.055043566161617208 0.027739918706747496 0.082837317788404446 0.22269698721410838 0.24909083762812237 0.31140621618758285 0.046900186725807466 0.0031288634112885574 0.051328092843715638 -0.0099917658810814176 0.022987453688190822 0.026499363940315587 -0.022392777253891244 0.18195113385184891 0.066739145914713541 0.095890611171722429 0.186109390766035 0.31889758820808128 -0.014381434486971961 0.023695237080074164 0.15056022252507417 0.52553401964682123 0.0072864747304095048 0.076354115722320884 -0.012798194444559992 0.46499222870550905 0.022378457651554856 0.045991290578884736 0.069803903091355771 0.18118792087851751 0.086894361333017089 0.061831722318778697 0.1850266784574863 -0.0073348812288026146 0.11271373503809566 0.0095386533674514124 0.025659578500065075 -0.0030706275073397495 0.13101710489004806 0.035507430263372067 0.19732330856844782 0.016102060327041295 0.080930713152629327 0.28896974571706618 0.12909606684246386 0.0060163574020977179 0.04653703170976773 0.01689509355453114 0.04377605953749876 -0.010025090407501821 0.02347546192486117 0.037010657753456723 0.16270161115742746 -0.0049804923182195388 0.058915873237973142 0.015329091157764197 0.020129791233783851 0.16254089153405993 0.19534925217495155 0.0087471910261088092 0.20538284128376594 0.06308244887861561 0.083017272178811191
leaf_weight=60712 5793 366 822 86 186 120 1211 43442 12413 1273 1714 2844 54 2476 52 120 92 300 1959 1243 1547 1602 2524 75 133 84 53 2503 106 182 10567 966 402 383 172 63 62 66 28445 369 2182 4462 1750 80811 105 51 50 86 63 90 348 321 81 6249 642 188 51 424 140 190 173 260 386 141 5904 146 10382 7148 72 627 7350 75 2217 160 136 98 13421 1342 3277 1539 1427 1425 88 94 560 505 52 1227 136 152 5838 60 244 217
leaf_count=60712 5793 366 822 86 186 120 1211 43442 12413 1273 1714 2844 54 2476 52 120 92 300 1959 1243 1547 1602 2524 75 133 84 53 2503 106 182 10567 966 402 383 172 63 62 66 28445 369 2182 4462 1750 80811 105 51 50 86 63 90 348 321 81 6249 642 188 51 424 140 190 173 260 386 141 5904 146 10382 7148 72 627 7350 75 2217 160 136 98 13421 1342 3277 1539 1427 1425 88 94 560 505 52 1227 136 152 5838 60 244 217
internal_value=0 0.0166828 0.0155887 0.0811336 0.218936 0.0149596 0.0201728 0.00739166 0.00671325 0.0185254 0.0862594 0.0371009 0.382445 0.047221 0.0648222 0.205464 0.342221 0.018114 0.0148205 0.0301337 0.0259677 0.010782 0.0390099 0.176346 0.0326801 0.0804786 0.153138 0.051744 0.0733384 0.21089 0.0208806 0.0577661 0.0884071 0.0518912 0.0961006 0.106322 0.183183 0.173947 0.00663375 0.0219555 -0.00131918 0.0322765 0.0122973 -0.0248989 0.0517567 0.0897816 0.0736702 0.11351 0.220222 0.0883878 0.00365502 0.193536 0.431388 0.017499 0.0448066 0.0273806 0.353261 0.0495721 0.101046 0.109721 0.0843323 0.124568 0.0767442 0.132924 0.002405 0.0500043 0.0194496 0.0161121 0.0975057 0.104654 0.031285 0.0639206 0.00315895 0.118077 0.180687 0.222014 0.00618617 0.0110068 0.0255072 0.0257875 0.0193598 0.00671344 0.0441483 0.101928 0.0218047 0.0232629 0.115367 0.035509 0.104209 0.163038 0.0112786 0.112104 0.095144 0.0327344
internal_weight=0 211222 207952 1977 595 205975 121961 84014 83678 33870 3270 15059 321 12215 5526 264 144 118389 83410 17407 34979 66003 11656 336 6689 843 1110 4779 2276 391 19218 5262 3572 2160 3170 446 195 238 46785 12628 49808 6421 6366 141523 1897 2932 3069 593 113 480 18811 608 267 17321 1885 274 157 648 224 295 2729 433 2296 261 18317 494 23323 17530 1085 1013 8897 2759 4399 235 555 234 46485 18040 4619 5846 4307 2852 1455 182 1382 11072 234 2193 502 203 6207 390 330 1967
internal_count=352745 211222 207952 1977 595 205975 121961 84014 83678 33870 3270 15059 321 12215 5526 264 144 118389 83410 17407 34979 66003 11656 336 6689 843 1110 4779 2276 391 19218 5262 3572 2160 3170 446 195 238 46785 12628 49808 6421 6366 141523 1897 2932 3069 593 113 480 18811 608 267 17321 1885 274 157 648 224 295 2729 433 2296 261 18317 494 23323 17530 1085 1013 8897 2759 4399 235 555 234 46485 18040 4619 5846 4307 2852 1455 182 1382 11072 234 2193 502 203 6207 390 330 1967
is_linear=0
shrinkage=0.1


Tree=9
num_leaves=95
num_cat=0
split_feature=25 0 25 0 11 1 1 5 20 1 1 0 1 11 1 23 1 20 1 1 23 16 11 0 25 20 20 0 1 25 0 23 11 11 29 0 11 11 11 20 16 32 29 32 21 16 21 21 15 16 15 16 11 29 11 32 1 1 1 0 0 23 11 26 1 11 21 16 5 20 23 26 26 16 26 20 0 16 29 11 23 16 1 16 1 23 1 1 11 14 20 1 14 1
split_gain=1217.15 500.821 409.286 288.595 393.234 254.463 381.493 459.465 401.657 181.951 271.878 180.021 113.729 96.7124 238.382 97.3838 79.3594 75.928 73.704 111.036 70.4695 70.3723 63.2802 114.072 63.1414 62.688 134.736 59.0162 59.527 57.5693 55.74 57.7326 92.2395 53.4527 52.297 50.5977 50.5842 49.836 48.8024 48.3959 48.3196 46.9717 236.704 140.137 196.121 406.426 82.8888 56.5199 75.492 48.269 119.903 121.367 44.3278 44.2556 66.6271 42.9645 42.3952 68.2186 61.8506 58.1199 102.6 76.8618 70.0011 44.679 42.5064 41.5796 40.935 235.004 40.7489 40.9012 39.6065 39.2534 40.9488 48.2421 38.7745 38.2667 37.8385 37.6788 187.193 66.1492 36.3126 234.081 36.2282 35.6058 35.4382 32.2495 32.109 56.3915 75.5586 69.9932 47.3313 39.8474 31.9763 31.8626
threshold=0.75000000000000011 0.062500000000000014 0.91666666666666674 0.64583333333333337 0.82894736842105277 0.23039215686274514 0.15196078431372553 0.90000000000000013 0.61111111111110017 0.35784313725490197 0.40686274509803927 1.0000000180025095e-35 0.74019607843137269 0.96052631578947378 0.20098039215686278 0.282608695652174 0.52450980392156876 0.38888888888887158 0.96568627450980404 0.98529411764705899 0.67391304347826098 0.71741854636591473 0.72368421052631593 0.77083333333333337 0.41666666666666669 0.27777777777777152 0.61111111111110017 0.14583333333333334 0.88725490196078438 0.58333333333333337 0.52083333333333337 0.97826086956521752 0.82894736842105277 0.69736842105263164 0.50000000000000011 0.39583333333333337 0.5921052631578948 0.30263157894736847 0.27631578947368424 0.38888888888887158 0.68233082706766923 0.38360369376925157 0.50000000000000011 0.095926517740253625 0.22727272727272727 0.71115288220551387 1.0000000180025095e-35 0.68181818181818199 0.36048103245991397 0.5971177944862156 0.46059835745013694 0.78132832080200509 0.64473684210526327 1.0000000180025095e-35 0.51315789473684226 0.15445985153037281 0.33823529411764713 0.43627450980392163 0.63235294117647067 0.22916666666666669 0.27083333333333337 0.63043478260869579 0.64473684210526327 0.019957113743000698 0.41666666666666669 0.53947368421052644 0.95454545454545459 0.70112781954887227 1.0000000180025095e-35 0.38888888888887158 0.63043478260869579 0.11987259814096381 0.085793895908912191 0.75125313283208028 0.071941452958952615 1.0000000180025095e-35 0.52083333333333337 0.4492481203007519 0.50000000000000011 0.30263157894736847 0.50000000000000011 0.77255639097744366 0.25000000000000006 0.46804511278195488 0.38725490196078433 0.5434782608695653 0.05392156862745099 0.13235294117647062 0.22368421052631582 0.51191026827012043 0.61111111111110017 0.034313725490196088 0.58244680851063846 0.83823529411764719
decision_type=2 2 2 2 2 2 2 2 2 2 2 2 2 2 2 2 2 2 2 2 2 2 2 2 2 2 2 2 2 2 2 2 2 2 2 2 2 2 2 2 2 2 2 2 2 2 2 2 2 2 2 2 2 2 2 2 2 2 2 2 2 2 2 2 2 2 2 2 2 2 2 2 2 2 2 2 2 2 2 2 2 2 2 2 2 2 2 2 2 2 2 2 2 2
left_child=1 9 3 38 20 6 86 24 39 -1 25 16 -13 15 -15 35 36 -14 37 76 22 -18 -5 -24 52 -11 33 28 40 71 -29 32 -32 -27 53 -4 -12 82 -2 -9 -17 42 43 46 45 -45 -26 -43 66 -46 -51 -52 77 -19 -55 -56 -39 64 59 -59 61 -61 63 65 -58 -63 67 83 69 -21 -40 72 92 -74 75 -54 -20 78 -8 -80 -76 -82 -7 -49 -84 -41 91 -88 89 -89 -90 -3 -10 -36
right_child=2 5 13 4 -6 18 7 8 29 10 11 12 17 14 -16 27 21 34 19 68 -22 -23 23 -25 41 26 -28 30 -30 -31 31 -33 -34 -35 93 -37 -38 56 70 85 -42 47 -44 44 49 -47 -48 48 -50 50 51 -53 74 54 55 -57 57 58 -60 60 -62 62 -64 -65 -66 -67 -68 -69 -70 -71 -72 -73 73 -75 80 -77 -78 -79 79 -81 81 -83 84 -85 -86 -87 87 88 90 -91 -92 -93 -94 -95
leaf_value=-0.0096407353460672626 0.035834863056004029 -0.0032396061271492346 0.012355987139942622 0.051311456249002456 0.2402836643089101 -0.013206342676594693 0.0045191224722204732 0.23476033289432527 0.042702791785154876 0.017926360406508437 0.011586192620200282 -7.5040009409836679e-05 0.015616529307143252 -0.024116784814691199 0.26099652916777372 0.017101681066461743 -0.00361371909505206 0.038138324347514289 0.010996973309004664 0.062991134749128694 0.026895093390657616 0.012427620525550076 0.21530258931558241 0.028666422605657806 0.11256286647725613 0.066036511207826595 0.027870582058706614 -0.0026169117320514689 -0.00058927791033984629 0.10420020854042977 0.01132369874265061 -0.024097610296369028 0.11414403074494239 0.11968908057033056 0.016501946020632846 0.031768922584938269 0.041992563066530403 -0.0029570319065954178 0.022184423730314984 0.19469613970303146 0.051850919002542406 0.0028908318697704475 0.0021686173441970748 0.067774081482951137 0.0074919705066297734 0.41365124202118475 0.012422918572233325 0.087767777785372286 0.012551418999279348 0.03185849743564096 0.2438808099947114 0.054926106139127885 0.042037944747386757 0.031401479197274734 0.18351771299745523 0.085752460475944092 -0.0096595108448924317 -0.0060521600732086067 -0.0090189410854339593 0.016674275636168866 -6.9348981362188508e-05 0.14188345235844071 -0.014456792392513969 0.17702874859528883 -0.017705347887150651 0.021069421997619055 0.029714447348567614 0.25930812635041517 -0.014650107022113815 -0.00099731806596402208 0.010764276239022486 -0.033219855830625249 0.14805778100572783 0.020675908395501433 -0.0037213451613234381 -0.0095470012858683284 0.052941511940624977 0.0047936310698840617 0.1909565141171585 0.050344631350354142 0.0050483066297077519 0.16161382098107765 0.0049950805490942968 -0.015358975583172224 -0.0036137139987141931 0.088588014189843786 -0.0089858572753844287 0.15654447510838509 -0.0067002823315562747 0.026392493133253161 0.0038953168356945095 0.012921238557769063 -0.04116092474223712 0.04429572215488245
leaf_weight=4039 1701 6605 6249 2385 106 3101 643 125 109 654 2230 1519 1923 69 51 1885 9620 722 4874 103 1378 3821 66 65 94 626 955 12221 1568 97 4434 453 89 264 915 1710 725 19185 7929 61 508 7436 2515 98 140 52 685 52 3307 225 69 67 148 238 51 379 23683 26197 44143 545 10273 52 55 70 9085 63 271 58 3300 3311 4922 108 58 61 1249 5074 225 19237 81 57 888 107 6024 94 23188 54 27928 50 11013 238 6831 1984 78 751
leaf_count=4039 1701 6605 6249 2385 106 3101 643 125 109 654 2230 1519 1923 69 51 1885 9620 722 4874 103 1378 3821 66 65 94 626 955 12221 1568 97 4434 453 89 264 915 1710 725 19185 7929 61 508 7436 2515 98 140 52 685 52 3307 225 69 67 148 238 51 379 23683 26197 44143 545 10273 52 55 70 9085 63 271 58 3300 3311 4922 108 58 61 1249 5074 225 19237 81 57 888 107 6024 94 23188 54 27928 50 11013 238 6831 1984 78 751
internal_value=0 -0.00232534 0.0148387 0.0264564 0.0502457 -0.00364985 0.000438866 0.00743862 0.0849768 0.0100738 0.0132096 0.00979098 0.0238767 0.00746683 0.0970564 0.00709761 0.00420857 0.031184 -0.00590865 0.00172282 0.0450726 0.000946504 0.0550283 0.122697 0.00607319 0.0445286 0.0539584 0.0035506 0.0145551 0.0348577 0.00101591 0.00993808 0.0133469 0.0819514 0.0409798 0.0165269 0.0190463 -0.00645283 0.0199173 0.191689 0.0244785 0.0112536 0.0206391 0.0531239 0.087368 0.187678 0.0245066 0.00795297 0.0179059 0.0573351 0.0766648 0.150793 0.00321517 0.0553014 0.073852 0.0973479 -0.00730661 -0.00803754 -0.00648658 -0.00348601 0.00259335 0.0374391 0.0845925 0.11404 -0.0118902 0.0756984 0.0551846 0.0890199 -0.00672615 0.000933206 0.0178104 0.0186108 0.036904 0.0827612 -0.00336087 -0.008085 0.0128478 0.0056678 0.0271996 0.132878 0.00763263 0.021885 -0.00292939 0.0213711 -0.00183844 0.144871 -0.00511979 -0.00616652 -0.00182399 0.0489883 -0.0026441 0.000493438 0.0077222 0.0290308
internal_weight=0 304956 47789 18552 4000 275524 98047 43398 751 29432 25393 22894 6498 29237 120 29117 16396 4979 177477 11813 3894 13441 2516 131 42647 2499 1845 21158 3961 511 17197 4976 4523 890 3056 7959 2955 165664 14552 240 2393 15163 3945 1430 651 150 779 11218 3782 501 361 136 27484 1390 668 430 133351 114166 81398 37255 11058 785 240 185 32768 115 475 204 6714 3414 12851 414 306 119 7466 5222 5099 20018 781 138 2244 995 32313 146 29212 115 54649 46060 18132 288 17844 8589 187 1666
internal_count=352745 304956 47789 18552 4000 275524 98047 43398 751 29432 25393 22894 6498 29237 120 29117 16396 4979 177477 11813 3894 13441 2516 131 42647 2499 1845 21158 3961 511 17197 4976 4523 890 3056 7959 2955 165664 14552 240 2393 15163 3945 1430 651 150 779 11218 3782 501 361 136 27484 1390 668 430 133351 114166 81398 37255 11058 785 240 185 32768 115 475 204 6714 3414 12851 414 306 119 7466 5222 5099 20018 781 138 2244 995 32313 146 29212 115 54649 46060 18132 288 17844 8589 187 1666
is_linear=0
shrinkage=0.1


Tree=10
num_leaves=95
num_cat=0
split_feature=3 3 19 7 3 2 3 19 7 19 3 19 0 7 3 7 28 11 3 7 3 3 0 3 7 19 2 10 2 27 3 19 0 3 0 19 10 3 7 19 2 3 19 0 13 13 3 19 11 19 3 7 13 2 11 28 7 10 26 7 10 19 19 3 3 3 3 3 3 10 3 13 31 10 7 10 9 19 3 0 7 31 10 19 10 7 10 13 4 10 11 19 7 13
split_gain=11336.1 1309.96 804.945 1875.83 1590.94 1423.27 1349.3 755.357 710.135 447.396 437.445 416.294 348.648 301.133 259.7 402.973 345.094 308.713 208.19 194.623 173.4 167.677 237.116 570.533 192.138 163.742 182.49 151.117 147.239 147.083 143.826 142.707 388.542 231.493 179.983 167.33 159.98 142.661 137.444 136.411 132.404 130.159 124.89 123.794 242.139 190.275 125.48 112.19 106.456 106.351 103.143 241.374 100.563 99.7987 99.0712 304.187 113.789 157.578 128.568 95.2835 92.1652 90.8759 120.41 102.865 90.7863 90.3448 90.0566 88.1199 125.81 88.0976 258.661 87.183 86.1796 88.6654 85.6345 92.33 85.4387 84.2977 99.1019 93.6668 81.0814 80.6767 79.343 209.372 79.025 133.25 78.7909 78.7851 77.3792 76.0777 74.9974 71.7855 135.776 70.9032
threshold=1.0000000180025095e-35 0.689254710136187 0.83290193939598234 0.40703144342659081 0.1077517157224893 0.50000000000000011 0.37633697197169041 0.62533800398021244 0.082817529091359268 0.037822932641264607 0.14417653857840132 0.38420979457018156 0.27083333333333337 0.12985887595939594 0.080776160095384603 0.36494181728150538 0.00016817998400673584 0.51315789473684226 0.26578044234467513 0.12985887595939594 0.0075622379687745279 0.16342404794794277 0.81250000000000011 0.082695433727431419 0.07167615746471899 0.83290193939598234 0.50000000000000011 0.072619801562170169 0.50000000000000011 0.00021921454019730713 0.51875916137382638 0.020146186242682652 0.22916666666666669 0.11228116235333306 1.0000000180025095e-35 0.031330000658772637 0.10132995566814443 0.16665527215596002 0.14397128001980691 0.045962030184042699 0.83333333333333337 0.090666946889443781 0.39152102174102893 0.64583333333333337 0.76209677419354849 0.81854838709677424 0.011548540787627039 0.023229395353967734 0.61842105263157898 0.0080623045705032273 0.85296129959389055 0.10906164892300076 0.81854838709677424 0.50000000000000011 0.61842105263157898 0.00018610405650121425 0.19868779400841796 0.37323200337766527 0.022008038065070182 0.020883882149046799 0.027506860882415034 0.097921955359728155 0.11018489296476792 0.31685406008789735 0.13697066566402036 0.17438514966568955 0.10889728732695975 0.0086521552064075993 0.021894923038724309 0.017922735908803045 0.23204263924717664 0.53629032258064524 0.46250000000000008 0.3880092885792697 0.14273334983906913 0.18914925058053625 1.0000000180025095e-35 0.094046495559412871 0.08619397664746474 0.31250000000000006 0.16650160930923499 0.29444444444444451 0.00065442263035676602 0.021448411208939703 0.0014988389275913028 0.12441198316414954 0.1498838927591303 0.71370967741935498 0.24651376513365569 0.11779607346421789 0.80263157894736858 0.64998261146662717 0.18284228769497404 0.92338709677419362
decision_type=2 2 2 2 2 2 2 2 2 2 2 2 2 2 2 2 2 2 2 2 2 2 2 2 2 2 2 2 2 2 2 2 2 2 2 2 2 2 2 2 2 2 2 2 2 2 2 2 2 2 2 2 2 2 2 2 2 2 2 2 2 2 2 2 2 2 2 2 2 2 2 2 2 2 2 2 2 2 2 2 2 2 2 2 2 2 2 2 2 2 2 2 2 2
left_child=25 2 5 8 20 6 9 13 28 18 29 12 39 -3 67 17 -17 88 31 41 -5 22 43 -24 -25 26 -1 61 76 -6 -13 34 47 82 -2 -35 -37 54 -36 -8 69 -19 -15 77 46 59 -45 65 -44 -40 53 -52 -30 -9 55 -21 66 58 -58 60 -46 -23 -63 -64 -42 -33 -56 86 -69 70 -7 -31 73 -59 75 -68 87 -11 -79 -80 -53 -29 83 -34 -14 -86 -10 -4 89 -16 -75 92 -32 -84
right_child=1 7 3 4 10 40 11 50 14 21 -12 30 84 42 15 16 -18 19 -20 37 -22 27 23 24 -26 -27 -28 81 52 71 91 32 33 35 38 36 -38 -39 49 -41 64 -43 48 44 45 -47 -48 -49 -50 -51 51 80 -54 -55 56 -57 57 72 -60 -61 -62 62 63 -65 -66 -67 74 68 -70 -71 -72 -73 -74 90 -76 -77 -78 78 79 -81 -82 -83 93 -85 85 -87 -88 -89 -90 -91 -92 -93 -94 -95
leaf_value=-0.024929427557909792 0.0041001351810494033 0.10310365805173582 0.077518614292300003 0.13282297123367934 0.33182509421717887 0.006987344815562669 0.34938283358434485 0.11726400539832744 -0.0017352970340583898 0.011596058991223693 0.095917364800205601 0.020263430847293682 0.054145207249099263 0.14398195193426913 0.23276850686641409 0.40470963101233209 0.082855363852447947 0.17484916885569693 0.08371007917444985 0.35515968179702762 -0.010832305057785818 0.011537202789630864 0.020271809114793135 0.40532564582689751 0.15589192674772159 -0.03316048570924738 -0.017404084961695373 0.022462899666321368 0.017407835226504284 0.39060736623677345 0.20767332257474869 0.05195869393574494 0.18491961104938617 0.027161135917622599 0.011483124558179519 0.28166235021569513 0.092577525710415415 0.016467324062334768 0.057144163198104107 0.17625637993656307 0.0041781239421740321 0.010938690427058712 0.34173224651244249 0.083690525127105175 0.091125419302080693 0.013809170441979142 0.0093313743967517772 0.030298594845958017 0.19371011521075376 0.027270301505653828 0.03210912029910417 0.24733336321699123 0.00032604110497557479 -0.0042844968592943324 0.11738621615256895 0.065835277397269604 0.25489601564346531 0.024617072103160716 0.085752874433276172 0.0333173277046439 0.2218496158213939 0.14323103399692827 0.030248789067319898 0.12242383376659849 0.02934849788721778 0.13695724171338952 0.028139520222038934 -0.00095229193369168361 0.034352062635537577 -0.0037904272554958231 0.15108730292213815 0.57305747568607335 0.0019508600234985352 0.050955900592708041 0.013554092921865905 0.20631120961446028 0.065392398910900748 -0.0021241538484057529 0.0065178832635676021 0.03288000017053546 0.092082277697617898 0.0092589673022450848 0.0063259092737458405 -0.016950118564605966 0.1242407909774401 0.044865279375066736 0.060962874464707897 -0.012968238677934441 0.088998701414976969 0.11099072717703307 0.16466864637773615 0.061092200327914382 0.013572656841981307 0.053009559919912907
leaf_weight=59783 6206 1218 132 129 204 1130 56 74 237 20419 65 1120 427 171 80 62 72 50 598 50 241 362 455 53 74 11835 69905 11819 6327 55 98 5424 91 375 4087 55 240 540 1619 243 4861 1559 89 234 628 699 7519 3153 107 4515 700 75 7570 775 136 133 98 126 83 282 59 183 518 158 2032 128 66 1441 3370 51149 140 50 140 87 607 52 747 16231 14588 1485 61 7605 7084 118 855 281 1299 355 917 143 174 701 57 341
leaf_count=59783 6206 1218 132 129 204 1130 56 74 237 20419 65 1120 427 171 80 62 72 50 598 50 241 362 455 53 74 11835 69905 11819 6327 55 98 5424 91 375 4087 55 240 540 1619 243 4861 1559 89 234 628 699 7519 3153 107 4515 700 75 7570 775 136 133 98 126 83 282 59 183 518 158 2032 128 66 1441 3370 51149 140 50 140 87 607 52 747 16231 14588 1485 61 7605 7084 118 855 281 1299 355 917 143 174 701 57 341
internal_value=0 0.0146739 0.0136863 0.0296582 0.186273 0.0112628 0.0174727 0.0774749 0.0252864 0.0155653 0.33172 0.0758195 0.109747 0.12703 0.0439918 0.0606183 0.231773 0.0560687 0.025227 0.0426909 0.0392529 0.0116212 0.00904831 0.0725806 0.259986 -0.0219006 -0.0208731 0.0194383 0.0110425 0.381322 0.0438493 0.024181 0.0306013 0.0151267 0.0175333 0.0714858 0.127831 0.0614055 0.0256896 0.208681 -0.00143112 0.0160322 0.206436 0.00845331 0.0190118 0.0535755 0.0115757 0.0453631 0.260924 0.0351552 0.0308608 0.0557935 0.00810301 0.00630984 0.0752563 0.144886 0.0671351 0.0968329 0.177333 0.0822615 0.102352 0.0535623 0.0712725 0.0517927 0.0115981 0.0539183 0.0427146 0.0304354 0.0237776 -0.00314444 0.0228724 0.477488 0.0691848 0.0935071 0.0287072 0.106656 0.0441466 0.00656663 0.00338758 0.0089535 0.177699 0.0172932 0.0101803 0.0709453 0.0908209 0.104607 0.0512887 0.011558 0.101846 0.154678 0.126764 0.0747094 0.136294 0.0084699
internal_weight=0 211222 207952 27397 744 180555 121243 3270 26653 117405 374 3838 1862 1585 11522 5175 134 5041 34034 3901 370 83371 62726 582 127 141523 129688 20645 15131 309 1976 33436 17009 8304 16427 670 295 2292 10221 299 59312 1609 367 62144 9421 1668 7753 8705 196 6134 1685 836 13897 849 1752 183 1569 708 181 969 687 1221 859 676 6893 5552 861 6347 4811 52419 1270 105 527 387 725 118 1234 52723 32304 16073 136 19424 7634 209 1563 1136 1536 487 1140 223 261 856 155 7425
internal_count=352745 211222 207952 27397 744 180555 121243 3270 26653 117405 374 3838 1862 1585 11522 5175 134 5041 34034 3901 370 83371 62726 582 127 141523 129688 20645 15131 309 1976 33436 17009 8304 16427 670 295 2292 10221 299 59312 1609 367 62144 9421 1668 7753 8705 196 6134 1685 836 13897 849 1752 183 1569 708 181 969 687 1221 859 676 6893 5552 861 6347 4811 52419 1270 105 527 387 725 118 1234 52723 32304 16073 136 19424 7634 209 1563 1136 1536 487 1140 223 261 856 155 7425
is_linear=0
shrinkage=0.1


Tree=11
num_leaves=95
num_cat=0
split_feature=25 2 19 7 25 7 19 5 20 19 19 31 25 7 19 19 7 20 5 7 2 7 20 19 19 7 15 20 7 20 12 7 19 4 31 12 10 20 14 12 4 2 10 19 19 7 20 20 32 32 12 12 4 7 31 25 20 24 31 4 12 12 7 10 5 4 19 19 19 32 29 7 19 10 20 20 19 10 19 19 32 12 24 31 20 4 19 19 7 7 24 31 19 12
split_gain=756.409 464.292 557.821 442.59 313.289 250.636 231.42 356.989 169.275 150.856 216.63 122.458 102.054 94.8506 90.9147 107.362 267.894 84.4202 127.6 80.1672 74.6056 64.8631 64.4448 62.3177 62.1431 59.0388 56.3793 53.4169 53.0779 64.9771 51.8582 49.8015 47.028 44.5897 44.5638 43.9969 78.0343 147.507 54.6773 119.581 44.6437 43.5019 43.4998 42.9013 42.963 60.6748 41.676 86.5273 41.1569 41.0669 39.6341 146.684 67.3687 102.518 66.2768 82.3256 53.172 45.3847 44.1248 38.9941 37.1418 61.4109 68.4996 42.0375 37.802 37.1014 36.7126 74.5269 43.6954 56.6335 74.0415 80.1859 43.0787 59.628 52.8247 36.9691 36.0599 35.8489 41.9101 162.004 35.0712 34.3969 54.243 34.2638 33.6062 33.1793 32.5645 49.1745 33.6352 31.8372 31.7319 37.6274 30.4279 47.1016
threshold=0.75000000000000011 0.50000000000000011 0.83290193939598234 0.52092102005446905 0.91666666666666674 0.53206239168110925 0.83290193939598234 0.50000000000000011 0.72222222222221444 0.022003771856314035 0.020146186242682652 0.0090277777777777787 0.58333333333333337 0.37855904926962125 0.037822932641264607 0.83290193939598234 0.42436246595692012 0.27777777777777152 0.50000000000000011 0.27581084426838332 0.50000000000000011 0.028101015102748209 1.0000000180025095e-35 0.39152102174102893 0.037822932641264607 0.025377568705125034 0.25977708251857651 0.16666666666667143 0.14397128001980691 0.49999999999998584 0.73579588728103584 0.14347610794751178 0.003542817922905219 0.45940384384864358 0.015972222222222224 0.40936785986290941 0.68123284779396254 0.38888888888887158 0.57597132284921382 0.22856054836252856 0.30213369560874265 0.83333333333333337 0.067131095630145687 0.020146186242682652 0.022003771856314035 0.090740282248081214 0.27777777777777152 0.61111111111110017 0.658647364952759 0.14690359027600194 0.64866717440974875 0.65171363290175177 0.98847244975426551 0.12193612280267395 0.4069444444444445 0.25000000000000006 0.27777777777777152 0.44915254237288144 0.28333333333333338 0.82313101850002013 0.090403655750190409 0.11127189642041128 0.0057068581332012881 0.2216592780240659 0.50000000000000011 0.5560594557877494 0.041089985277197746 0.027844633837319936 0.02949156541229209 0.51572760087344449 0.50000000000000011 0.44169348848724937 0.039988264655009979 0.23094785729364584 0.72222222222221444 0.61111111111110017 0.50422820956323389 0.017922735908803045 0.13005167535071985 0.11018489296476792 0.39071672058963752 0.65628332063975636 0.66949152542372892 0.37638888888888894 1.0000000180025095e-35 0.36486594477963807 0.50422820956323389 0.62533800398021244 0.14273334983906913 0.014124783362218373 0.56779661016949168 0.068750000000000019 0.021448411208939703 0.65628332063975636
decision_type=2 2 2 2 2 2 2 2 2 2 2 2 2 2 2 2 2 2 2 2 2 2 2 2 2 2 2 2 2 2 2 2 2 2 2 2 2 2 2 2 2 2 2 2 2 2 2 2 2 2 2 2 2 2 2 2 2 2 2 2 2 2 2 2 2 2 2 2 2 2 2 2 2 2 2 2 2 2 2 2 2 2 2 2 2 2 2 2 2 2 2 2 2 2
